[{"b": [-3.550208104446949, -3.5450875712274765, -3.5414250363252884, -3.5424378472580758, -3.541340634544105, -3.552693095193366, -3.5431561919426744, -3.5432571247969746, -3.547417109396975, -3.5452336480493134, -3.5420046227021325, -3.547217870750585, -3.550148004181654, -3.543831064782635, -4.580963402183382, -3.564099550871214, -3.5416842409477156, -3.5433472837838225, -3.5447130398551097, -3.543282665628362, -3.5480701072983996, -3.5427752261697787, -3.5439290427153423, -3.5495255702415105, -3.544537984848891, -3.5443278951461963, -3.5428119510208074, -3.54176373200904, -3.5476016332605624, -3.5479514107461663, -3.54061791443409, -3.5400924052697422, -3.5466794631339194, -3.543281186424923, -3.540192602030396, -3.568375250209065, -3.5422523056256128, -3.547246627857159, -3.544814507068304, -3.5524623607550967, -3.5455294707154286, -3.5459393335471687, -3.791579894722333, -3.5415446666591137, -3.5432122591735764, -3.544674750387193, -3.5419759684017817, -3.5684157382122152, -3.5408338787619407, -3.554710729425672, -3.544298366124583, -3.556470851932815, -3.543608328297676, -3.5416894032185007, -3.545233037468424, -3.5421545333471234, -3.540388319281599, -3.54245701265926, -3.5440947992560896, -3.5413141833229655, -3.5441733840960707, -3.5449328027041376, -3.545496025169781, -3.560724029794004, -3.5505380106127107, -3.542893814075112, -3.542342363144431, -3.542136006225276, -3.5424326334730334, -3.5416793364491426, -3.5608660238942784, -3.5426623794305776, -3.5492222260393333, -3.546695555064151, -3.557556003211724, -3.5436144261926468, -3.549181087801478, -3.543234697202256, -3.5453970272136597, -3.5567274382922713, -3.5565020202820063, -3.544804518557138, -4.323803271187996, -3.5456570815219166, -3.5429133227686367, -3.546736489228622, -3.541323788477535, -3.5452271232725208, -3.5434954490075627, -3.5420391293386384, -3.540302481308881, -4.34929343565704, -3.5445936737793615, -3.5404316224870893, -3.541702056607605, -3.5442272532513153, -3.543303020905911, -3.54613539553241, -3.547780032279031, -3.5445748638114543], "name": "hidden0", "activation": "sigmoid", "bias": true, "W": [[0.057853771826262536, 0.07235600469890582, 0.051582306126672736, 0.03647101711402764, 0.03872635379278471, 0.08390667343737743, 0.0673453432306634, 0.06251345666628529, 0.08017662604581556, 0.07974964413779961, 0.04959988291329266, 0.0236448988555429, 0.006972237268800453, 0.01889725295309274, 0.38759792207839255, 0.11507557111740697, 0.025333056708824624, 0.06406389795261136, 0.07354462839469937, 0.04833718560070113, 0.026777001902832144, 0.06677750113589698, 0.06115594891838476, 0.03658174843231586, 0.02090420651473742, 0.018860509286344303, 0.07180884120337236, 0.023509134559109177, 0.07770812373086859, 0.018102942464129763, 0.044367618871380896, 0.03137231075176374, 0.08072267441614313, 0.05566000206630108, 0.04579940867037835, -0.03643089691095698, 0.0436649464796411, 0.0653988652597861, 0.06753109101703483, 0.021911466072582274, 0.030600887967990882, 0.040179078397883684, 0.44362053065426416, 0.04216410214138354, 0.05016721686644569, 0.04245397915905922, 0.0586864205570928, -0.007034003976189497, 0.04847910094685654, 0.004721613179074093, 0.059811349946817055, 0.029007295601513067, 0.0625697805131592, 0.05785286076521609, 0.029109575080910412, 0.06691279990976923, 0.04218389779242192, 0.06375916135938726, 0.053889323563812916, 0.05224327517064988, 0.02707723249718581, 0.055927204624925855, 0.07165118341404349, 0.07795342178000557, 0.028742830738030075, 0.024034035062695393, 0.04925307084798192, 0.03147684510177085, 0.06331444208197373, 0.05594192384320227, 0.012680154687934358, 0.06431841291443233, 0.011722995548458666, 0.07449527746937581, 0.092522881335752, 0.06415100047146606, 0.02393905271749216, 0.03929043964625696, 0.033419072535539794, 0.08021040871905452, 0.0008913006260109115, 0.027272570055494424, -0.5903907801440085, 0.039625718687939744, 0.06193136182786252, 0.08456774289099936, 0.0555488044523865, 0.023585465744642344, 0.07017390634950105, 0.05890102740770835, 0.040446865036078465, -0.4964505935694782, 0.06077092291436544, 0.03977708441166013, 0.051861728112086156, 0.0341114000483966, 0.06470939369134293, 0.039305217580838755, 0.07789855390152896, 0.06427687732173941], [-0.014071940387627107, -0.013690293083356857, -0.03459737861690991, -0.053742796205384115, -0.04767746854461023, 0.014159192949441134, -0.01073558722006004, -0.019680594562574236, -0.010348716182702168, 0.0015504143201809579, -0.03356799504591976, -0.06964701465088612, -0.08216499062560095, -0.06976737427718609, 0.2986600627374922, 0.051706360944500374, -0.06178107504195279, -0.014664133960260717, -0.005840689760804588, -0.0354983304808812, -0.06563123399434868, -0.011201307033456773, -0.018294637919137977, -0.057638121151620265, -0.06594393331112748, -0.07288951076064135, -0.01090174907635588, -0.06254231801578053, 0.002989031460123405, -0.07318222364556579, -0.0399994958899298, -0.05301060985055299, 0.00203800784912407, -0.023547798049967424, -0.037614719369006226, -0.1234709184349478, -0.04267680622798224, -0.009320876766144839, -0.011406529298935255, -0.07461948222457825, -0.06134483465308726, -0.05302548521736321, 0.4630783268230971, -0.04324153040117937, -0.028908800904484905, -0.03581804481307811, -0.021116047261045, -0.10541339583269353, -0.03320997294382981, -0.0885963578750094, -0.02005649433672062, -0.07235229560395903, -0.020953544872790792, -0.02438647965252973, -0.055447331423190714, -0.0158803620259091, -0.03884511927717318, -0.01499850836483946, -0.03816347593586247, -0.031828420232227234, -0.054291085871953054, -0.036707848421146716, -0.0047125819672761676, 0.012479377027645589, -0.06562784912788545, -0.06213493805191015, -0.03612189227513048, -0.0550425456415285, -0.02044398392204247, -0.024251745360998646, -0.0879629447829615, -0.021125888520308132, -0.0782041642706114, -0.0006476893409936745, 0.02560604467327235, -0.014823116301828539, -0.06839472203569817, -0.04970667533380296, -0.057532724390605396, 0.01338916100328011, -0.09242425035325318, -0.06233930970288179, -0.530039650841081, -0.05180422525400531, -0.0186407767550167, 0.005499472888225913, -0.02571768104711105, -0.06745553179010945, -0.008739953119084496, -0.02262937568902957, -0.04814995407924027, -0.664333912648811, -0.018243282873673015, -0.04368009548343774, -0.031112932416266503, -0.05879803480417182, -0.015306862135754214, -0.054588676390188724, 0.0033155335554851694, -0.012117152571927683], [0.00949094180974917, -0.00813955755980119, -0.025530188432913086, -0.047078341174953645, -0.03648594185318958, 0.033813239578842864, 0.0036751081744170375, -0.007832870672833114, -0.011478173206913923, 0.013452737700140337, -0.02067565449387334, -0.06484650777608277, -0.07060310654581675, -0.058786252353728176, 0.18230905402868733, 0.07012318348594802, -0.049771093013530124, 0.0001473181710386783, 0.006180500197652386, -0.02314519570003365, -0.060468650772885116, 0.0035650777314454028, -0.0035903280811937868, -0.055582867129039495, -0.05311204169705047, -0.06560430525665818, -0.001684130915435997, -0.04907903831381705, 0.019534338889445568, -0.06538719864874246, -0.027781424368775752, -0.0386659263337581, 0.013811414997969016, -0.007519796880141795, -0.024154584733858116, -0.10640533302554044, -0.03238729423067543, 0.009997386590447861, 0.0029897793910384452, -0.07340533819689159, -0.055744348011854794, -0.05015619667101899, 0.49355062602156474, -0.03159739646957699, -0.01135742257295675, -0.016154253125537147, -0.00630371964683557, -0.10447907219055023, -0.01827218185342227, -0.08209557924847855, -0.00490012691750457, -0.0765736594078438, -0.01068851133372779, -0.011939631181138909, -0.04082972163357147, -0.005504482866390799, -0.022311942104229297, 9.507381146142663e-05, -0.03683844780584148, -0.02037114801122412, -0.035624806846342165, -0.0357461397424776, 0.010985725292920755, 0.03819604257815598, -0.06246103847050656, -0.048712796440089294, -0.025551598945033043, -0.04309785701312866, -0.010957416362299357, -0.009048328750274453, -0.0899663933172167, -0.013475747476722305, -0.06820766717360281, 0.015582675292780592, 0.04587534137431068, -0.0002444130862949274, -0.06237336556794016, -0.041821993970891945, -0.05086160294950065, 0.03724881219734311, -0.08568165553840419, -0.05356482283870243, -0.33744832910305417, -0.046687325808772176, -0.005189309903901638, 0.015024639193337524, -0.011992578615907197, -0.060063846084185676, 0.004522737526866169, -0.00979359619186742, -0.04011408328983638, -0.739525122143994, -0.0025518444194630972, -0.029332664265382977, -0.018639134572868997, -0.055070015235795515, -0.0021687433946728832, -0.052283462513472566, 0.019325074028172132, 0.005001866829238862], [-0.0005310319993528041, -0.036827411416550354, -0.04939866707560716, -0.07189462918505035, -0.05697015574690206, 0.015589656340241146, -0.01750188544233922, -0.029950877833484074, -0.04696693880486489, -0.011440689096666571, -0.04044431792509242, -0.089542382851481, -0.08676732229044538, -0.07749534949788255, -0.030008060789309055, 0.045913535819888, -0.06838924957486844, -0.019906805084813954, -0.017521759559869062, -0.04294879744718295, -0.08480517515021725, -0.017489394407302745, -0.023032273098687904, -0.08333813601929281, -0.06972586418649443, -0.08797983043656549, -0.02793528109932692, -0.0658689030139078, -0.0003399147558241464, -0.08665765551998837, -0.04793544579751866, -0.055756568872225104, -0.010294782176140662, -0.025092744127456316, -0.04345857210306032, -0.11234321689427058, -0.054040668827656534, -0.005308022103243155, -0.01704248569401813, -0.1009200980236173, -0.08055287686147249, -0.0783378817683482, 0.4156119511610213, -0.05196724874278912, -0.026531569014821444, -0.028093324344533068, -0.025715079332912286, -0.12854269418753275, -0.03634149178499275, -0.10291420404125512, -0.023076020480221466, -0.10881367677267303, -0.03401639636821732, -0.03328342212435405, -0.056059074286175146, -0.029835847117883712, -0.038375419202881865, -0.01980541064089463, -0.06799410867569455, -0.041940388845961164, -0.046791625686215324, -0.06705260726300646, -0.009148845914455419, 0.02821563714459806, -0.08863209267861054, -0.06535095241807726, -0.047473679828084966, -0.06206924109329228, -0.0356591368110922, -0.027710879481423437, -0.11888904942730555, -0.040043626270113895, -0.08639880738443043, -0.0045911523405955555, 0.027088204284894064, -0.020258100915801824, -0.08570349588277394, -0.06513333264596619, -0.07479407402795574, 0.024174099574202135, -0.10582988713845483, -0.07507120302303405, -0.07867936852382344, -0.07251601725955835, -0.025934046175760967, -0.01262464318325871, -0.032063096073574014, -0.08261060517688416, -0.01792034318817519, -0.03100033631876959, -0.06443255684237317, -0.7823854222592773, -0.02047132708889175, -0.04701050424231898, -0.03930515880748076, -0.08218691577439863, -0.02370092373380164, -0.08065484791682315, -0.0014543798359663831, -0.012968277535695842], [0.014381126115907824, -0.033183852486048146, -0.04274018250075388, -0.06555643230870362, -0.04801129550035713, 0.02349406572311085, -0.010489037192577188, -0.022584598199802772, -0.04731107452159815, -0.007101301618152751, -0.03138899493740257, -0.08243468546923494, -0.0748901829263145, -0.06749436820429809, -0.20182005905813755, 0.047786874833242815, -0.05858852956437132, -0.011951307488463752, -0.011986064856914218, -0.03357073284219726, -0.07742441997498602, -0.010630494533557614, -0.01425520577044719, -0.07746314128497168, -0.058237794133280014, -0.08001418050637066, -0.023769403412003225, -0.05487136549166836, 0.007266996018619544, -0.07764424133779918, -0.03909627864426782, -0.045231634619758807, -0.004781527778628767, -0.01503102091267545, -0.03429926491742985, -0.09632916458008961, -0.04580531162977211, 0.005860460015744514, -0.008437433381772278, -0.0949784083257932, -0.07372644207754146, -0.07340489202548393, 0.3386794746193129, -0.04311292408973072, -0.014658645066681813, -0.013972288451096585, -0.017072083727819157, -0.12066094516895622, -0.026525439788671425, -0.09352059976463972, -0.012985233564213036, -0.10455384922830761, -0.027024553904717964, -0.025485947069361643, -0.043536087685384, -0.02402634751216382, -0.02738544092584812, -0.011799770257052318, -0.06547482250840743, -0.03392946373509295, -0.032030978202623676, -0.06419970034618118, -0.0014973334187606592, 0.04271499321276259, -0.08173669287899192, -0.054056288820420684, -0.0394692051560651, -0.05219172813818275, -0.030015861758352774, -0.018485488756063647, -0.11293917609019097, -0.03545096742858951, -0.07561663459431471, 0.0026816202438941896, 0.03419301519167653, -0.011965497605684066, -0.077582838131062, -0.05746729777754074, -0.06727469077851839, 0.03586436503470107, -0.09612968448130041, -0.06650432079138761, 0.1908439987668113, -0.06601368238186905, -0.01791993128744517, -0.010207373188817323, -0.023637552248731448, -0.07469396472876824, -0.011706319734905627, -0.02329636259027931, -0.05822503356318272, -0.7615974737679163, -0.010398734772087387, -0.03663005300809258, -0.03096065437718584, -0.07698138930719957, -0.016398687560753786, -0.07548450341188016, 0.005354384970189398, -0.0037573958892618497], [0.011324938437187213, -0.04059687601140346, -0.0483535188839565, -0.06993134848610126, -0.051695153050009095, 0.0133672644369211, -0.019125557742083053, -0.028941409999576166, -0.05598993298481755, -0.017603337401243792, -0.0361569292434185, -0.08414857106967552, -0.0745003141930149, -0.06962591243336202, -0.34637640237258105, 0.03103651542153553, -0.06169893436274828, -0.01947336282239684, -0.02095166977460278, -0.037527355777743354, -0.0791707352907201, -0.019580803538837132, -0.02056751111874776, -0.07920443453097098, -0.05958721863004299, -0.08235848947845444, -0.03282679644649265, -0.057407620029318526, -0.0014397006873458286, -0.07871427621083699, -0.043896812858336125, -0.049031330653567066, -0.013484962346150863, -0.020482859507962466, -0.039331802686247856, -0.0932347644126914, -0.04994096716429055, 0.0001461529165156444, -0.014640613987853374, -0.09567764558308213, -0.07645885274351763, -0.07699874295402388, 0.23298227948757438, -0.0472908832358361, -0.01853540372037158, -0.016013134376112938, -0.02364691938635703, -0.11760271957139787, -0.03162194364836228, -0.09279935036476904, -0.017661636282980266, -0.10390822988350058, -0.032873780809894323, -0.0317257105987031, -0.04448307761453859, -0.03151004318887562, -0.03198958232803037, -0.019293371960742565, -0.07191682612757215, -0.03925624245521866, -0.03257835053068352, -0.06978855449963302, -0.009917283038455517, 0.03811508983054323, -0.0824795126771271, -0.056057820921415855, -0.04410421859274357, -0.055162680362481266, -0.03731326249753023, -0.024470818827219496, -0.11087526124247898, -0.04287967317649361, -0.0757833112585455, -0.006566474093682857, 0.022854725461609087, -0.01889884389062466, -0.07851661828813565, -0.060784047566130664, -0.06963726734708452, 0.028399764670918242, -0.0950817716236682, -0.06894246474214849, 0.4121425923793714, -0.06894117340532416, -0.024508513145400288, -0.021817228678691413, -0.029929171376117877, -0.07713858014901098, -0.020562610306147207, -0.029971727431239634, -0.06375527508334197, -0.7048847230818874, -0.015462214681828351, -0.040588070205651305, -0.03652899475884707, -0.08092256118070319, -0.023804192183606625, -0.0784445171852333, -0.004268025758438264, -0.011033384073110341], [0.04745212506537045, -0.005780742590605811, -0.012459980979583379, -0.033250675023440535, -0.014669811002356535, 0.04417754185076187, 0.01419788161795654, 0.006105147815185527, -0.021826607156613238, 0.014430507123477744, 0.00013090821883851765, -0.045388675358450585, -0.03442525146809841, -0.0314610570304402, -0.5147423622096112, 0.05589593058962649, -0.024338456204416135, 0.014549636838819003, 0.01231694581695119, -0.0005869198411166736, -0.04040860423134721, 0.01335339404376756, 0.014417333990798403, -0.04038082379989983, -0.020800302159098963, -0.0441850837535634, 0.0004110535830001942, -0.01954401372432778, 0.03133738236320238, -0.03962351034744862, -0.007552283712074479, -0.012236512954992349, 0.01996961029215415, 0.015076417226520058, -0.0034353793828687004, -0.050520253812137365, -0.013191206060079829, 0.03481987093992379, 0.020488351274323906, -0.0562688631661554, -0.03866820625238967, -0.039746835616972065, 0.13120274692774508, -0.010676034916158896, 0.017968989001427398, 0.021820198629803958, 0.011082144246257765, -0.07504558538823804, 0.0041243251295829154, -0.052381870785262234, 0.018409983192978832, -0.06363072642281636, 0.00278816515872926, 0.0034957622903047407, -0.005601445961895531, 0.002870665030724709, 0.004024392814775661, 0.014616360681823952, -0.03621610074645018, -0.003248355859424665, 0.006584466000882025, -0.03366722775060872, 0.023324564874393477, 0.07190539928517202, -0.04321046734579094, -0.017877640839865493, -0.007687442620967935, -0.01762592312869687, -0.0025604520307808756, 0.010649551410157733, -0.06947117819126317, -0.008335099934526477, -0.03600343741640418, 0.025801877171550767, 0.05224632768148025, 0.015639258915306868, -0.03945876056636645, -0.023290088776246318, -0.03170818706967922, 0.0603745157463084, -0.054392850266909085, -0.030991038747842415, 0.4535847474338261, -0.03122500131668383, 0.010475164531311558, 0.009733693164102289, 0.005197543924938358, -0.039024298436711694, 0.012592454260251941, 0.004898219458714714, -0.028028557106131377, -0.5348533887643823, 0.02035837230201441, -0.0038918245293010196, -0.0007629454438078757, -0.04372459990425066, 0.010609156237780283, -0.04056606506788559, 0.0278424642724429, 0.022910920964094302], [0.09252496670322985, 0.049531242609130166, 0.044497739298699594, 0.027674130962615104, 0.04364918960962953, 0.08465851880385321, 0.06325468223443964, 0.059354632473876665, 0.03559071388262289, 0.06275609392728108, 0.05517076307671652, 0.019027016933917885, 0.029200080881116613, 0.030159169881050725, -0.6442333547985798, 0.08785772268794102, 0.03554622482037351, 0.06464573074313724, 0.06219161733014217, 0.05523079633068823, 0.023266735224234916, 0.06245996938627516, 0.06552920492600402, 0.0235710681476089, 0.0396218364881773, 0.019387720703100877, 0.05302426512566056, 0.03967305737555674, 0.07714116408281418, 0.02420004015861906, 0.04862544216780197, 0.04497976808849652, 0.06897319207124405, 0.06644588432480197, 0.051899005254383936, 0.01674403734996544, 0.04470598942479128, 0.08174211478053907, 0.07083587363979293, 0.010437402322742937, 0.024181304561288086, 0.022930029253825455, 0.028870158158420457, 0.0466815062706466, 0.06979414122575203, 0.07375025146893241, 0.06253157967070609, -0.003453354494598896, 0.05798215968814922, 0.01432024045970831, 0.07029770800219302, 0.0050008249616812, 0.05716012600338109, 0.05697737824162826, 0.05270356479824084, 0.056105285487098665, 0.05775844302135313, 0.06481089657638266, 0.02419315508198667, 0.05221211331299055, 0.062453002654094744, 0.02705624598367554, 0.07082329336687816, 0.10926699923149358, 0.021693132080843756, 0.04165759135344905, 0.0491215478790257, 0.041458613402187254, 0.05159299011327405, 0.06268592817237337, 0.0007620602133010566, 0.04703641987818807, 0.027635692717893783, 0.07194111347428074, 0.08942899643992432, 0.0660266547409738, 0.02460409286335991, 0.036848673835386106, 0.030412369278992653, 0.09862272956829692, 0.012786609244427937, 0.030694322425598566, 0.45078324370711614, 0.030598578527008813, 0.06240942558061724, 0.058376988932948924, 0.05795766370157039, 0.023790611372700603, 0.0622865206536274, 0.05766461077198051, 0.03126593901230687, -0.30911842028821845, 0.07139642077043698, 0.05208391336433963, 0.05381794878558633, 0.019080871939684142, 0.06169942652750793, 0.02266708901408391, 0.0732840883984685, 0.07089979899562684], [-0.013368066609593481, -0.004649871822018937, -0.026255766334707494, -0.040898671444364335, -0.04138838455594281, 0.018421696480415677, -0.002624206734143503, -0.015207140387930617, 0.006112961067900662, 0.009806785576121206, -0.028822575403546758, -0.0526222833372387, -0.0733581758923949, -0.06059816071971871, 0.6054164736194865, 0.05444047708878367, -0.05441469227780207, -0.009132126465375512, 0.0016963240768252711, -0.030885951867318483, -0.05061466076929278, -0.004028801367154084, -0.013533263272812382, -0.04037531861809929, -0.059992269622778954, -0.057800959246005826, -0.002867586796409442, -0.055920776996738114, 0.006565792605325183, -0.060413076664956385, -0.03326264980783275, -0.047535918242252985, 0.007496355395736201, -0.019477874218820496, -0.03289157335108478, -0.11425849401417286, -0.03595026950027014, -0.00815406604517776, -0.007873577792789832, -0.05174809157460799, -0.04717939801468343, -0.036514826279233324, 0.42028218648145943, -0.03789260823042698, -0.02695679722856602, -0.03453590371781752, -0.015839546298349043, -0.07540114422962181, -0.02975092210733954, -0.07120757066187275, -0.018795811322614816, -0.04114844784285447, -0.015600638771386994, -0.01845215805322987, -0.053488334591310076, -0.009661215049351572, -0.03473971742744504, -0.010305448777972357, -0.019682662807581505, -0.02598245669319248, -0.05346947508694048, -0.019422562506053648, 0.0009387768333512601, 0.011152862271809613, -0.048500676846391644, -0.05694490097463462, -0.030543215310190514, -0.04884130815690741, -0.012071393928475574, -0.020292653397629853, -0.05646899694116585, -0.012442358193372954, -0.0677379324176153, 0.005243686493439201, 0.02930450625853252, -0.009563252083055546, -0.05457558190484227, -0.04001757251602511, -0.04613691816044428, 0.013858763682993514, -0.07466130238207046, -0.052295593870374135, -0.6932866635182723, -0.03931589349795238, -0.013535166856720744, 0.016091541664097733, -0.019386534580492235, -0.05408198288361908, -0.0016057619163399853, -0.01654140915242024, -0.03679369291545493, -0.3110783654974173, -0.016135417618447466, -0.03930453101341128, -0.02488721551179693, -0.04101777712763228, -0.008223233451458154, -0.03692717244972033, 0.009356346616138196, -0.006502825208515025], [-0.05472684341453981, -0.06439808173615963, -0.08525787160645842, -0.10440927169398645, -0.10038957087344685, -0.02043247055248464, -0.05101589638294381, -0.06966195739687615, -0.05932515913899487, -0.03934591402303393, -0.08397004024189109, -0.11974172615808322, -0.13488017255649992, -0.12165079374501886, 0.4826886898950477, 0.022272890891875095, -0.11369521596824159, -0.05866560879775257, -0.048947115770288256, -0.08706949179473536, -0.11687737559690793, -0.05236442121778334, -0.06419306193701316, -0.10944794560910542, -0.11905866901285368, -0.12252771078249743, -0.05788274390230651, -0.11374378042453513, -0.038551934723534534, -0.12492119837631127, -0.08953140167961895, -0.10342587120700243, -0.04293126499420585, -0.06957451384065283, -0.08813931449736344, -0.1712433119586694, -0.09510598326247921, -0.053228501372852274, -0.05823852087342574, -0.12296822572496763, -0.11295672180499278, -0.10421021824898284, 0.48183398270916594, -0.09579571249172329, -0.07697288603706405, -0.0833940747034366, -0.06665584140128407, -0.14766199269793667, -0.08290384280775535, -0.13780976606346124, -0.07050517491422592, -0.1187156704202732, -0.07185020390810176, -0.07244880112994669, -0.11030898345913737, -0.06480241606555046, -0.08663726292399959, -0.05992939042503495, -0.08581901990431622, -0.08230148464475391, -0.10592250014254863, -0.08667019311266314, -0.04578875350104155, -0.023357478290093006, -0.11756328539490396, -0.11518151375429499, -0.0887040388703137, -0.10773268469997006, -0.06808695136885903, -0.07165541516217343, -0.13257830450838967, -0.07092346766646263, -0.13036918192523647, -0.039987248058243934, -0.006447453673721772, -0.059522752647725656, -0.12088023237278818, -0.10239787519745618, -0.11098916512503848, -0.021862515648720823, -0.14100509789180812, -0.11504155630047849, -0.6139264587610588, -0.10495941857387296, -0.06555867584951709, -0.034179258736771474, -0.07187425361765548, -0.11827647276204754, -0.05142101142116479, -0.06960876370651566, -0.09824820219547156, -0.480686946524703, -0.0665446290505787, -0.09440087700211887, -0.07968866919534932, -0.1077467231872574, -0.059398816238078724, -0.10537938289936626, -0.035234848813900425, -0.05294641604872513], [-0.05059951717191262, -0.07968379511626476, -0.09569685988731051, -0.11693997908467654, -0.10806647889785462, -0.0223276648809528, -0.05642982814442113, -0.07769241044389533, -0.08215928282773113, -0.048204485468503415, -0.09011309215197473, -0.13405654503763353, -0.1410254331893787, -0.12875715299840013, 0.29953302301231194, 0.015970568609707723, -0.11983338550655473, -0.06349645783471039, -0.05726896667339199, -0.093746269151827, -0.13079029801444075, -0.05735753190682123, -0.06900743311976937, -0.12729750972513407, -0.1240947816305532, -0.13382914775089347, -0.06911308267215088, -0.11807949563644735, -0.04277096517788288, -0.13570560539720322, -0.09608772035900723, -0.10705139211322809, -0.05212566332623687, -0.0726385779648673, -0.0935427031682632, -0.1694893686250383, -0.10392914027648706, -0.05377273153336598, -0.0638731758473585, -0.14135661502263797, -0.1266452732601975, -0.12125918033062015, 0.4631322894406237, -0.10307747264231422, -0.07817451058692709, -0.08183546140680426, -0.07117555755847274, -0.16554101806824675, -0.08676387152617933, -0.14971049451575064, -0.07491259307918044, -0.14363754938419748, -0.08155580948930231, -0.07948294224615504, -0.11374108274929147, -0.07464052491506241, -0.08838648181059076, -0.06452208606930573, -0.10474895519107656, -0.09018100054898892, -0.10457369473974823, -0.10628476196411617, -0.05027553880244703, -0.019481973256704106, -0.13407964256216146, -0.11972116144423643, -0.09749993306970171, -0.11420084693566433, -0.07851293419888276, -0.0756773153234261, -0.15454346993037865, -0.08350600510044333, -0.13837940840021482, -0.044156440455802436, -0.008734227827661149, -0.06465279729669979, -0.13400962116277718, -0.11372669146330773, -0.12372170078720826, -0.01973056235950943, -0.152503143515255, -0.1250321829231056, -0.43927696054741733, -0.11956058109540878, -0.07173737995542057, -0.0456949344397445, -0.07733985388848456, -0.1295995163594253, -0.05823086169331544, -0.07624733548336457, -0.10938186872484655, -0.6118242235216471, -0.07040354258649816, -0.09848914088892234, -0.086350432628747, -0.12342514962813715, -0.06599791293966249, -0.12305939208159647, -0.03990549200703708, -0.05545486045597336], [-0.027344126176477957, -0.07540023671764635, -0.08663182037585221, -0.109393175503675, -0.09573812282274687, -0.006725488701043652, -0.043984097050346775, -0.06657247311031174, -0.08520403760320994, -0.03941490932171271, -0.07678715281059542, -0.12711157801011239, -0.1254077047864044, -0.11522199130774195, 0.023129916720203078, 0.02601058339660639, -0.10588076808946015, -0.05005211328177632, -0.04748743140172604, -0.08062037018766763, -0.12340539543285388, -0.04472065090722359, -0.05507928069878169, -0.12344831663550158, -0.10836147982765224, -0.12430535654244268, -0.061952825494669767, -0.10228750899958519, -0.0289620016763266, -0.12515078492922707, -0.08322017621694108, -0.09119566658908652, -0.042758027617855014, -0.05687099565770898, -0.07969936405348928, -0.14488753449567235, -0.09281294086091704, -0.03560845401452202, -0.050532590089741626, -0.13780528531752184, -0.11943393417169774, -0.11748124090500482, 0.4182808376924253, -0.09055516412381297, -0.0601223361329213, -0.06076328497273636, -0.0571471947592979, -0.15990000289337408, -0.07158657579946674, -0.1393911294268014, -0.059859421421956216, -0.14545710744386084, -0.07176996262629355, -0.06755093379075594, -0.09641862834433003, -0.06562359664717211, -0.07118178646833428, -0.050865136901560026, -0.10372346268246922, -0.07863840931083135, -0.08304433250670704, -0.10540315021977434, -0.03678884467989468, 0.0038590535764137473, -0.12870285728566944, -0.10381844029856292, -0.08648667295477483, -0.10052240008274681, -0.0700419906751739, -0.060953036797580865, -0.15333150162321418, -0.07701300347127249, -0.12477390680415455, -0.030615724219167584, 0.006421764629737674, -0.05120234332661464, -0.12556102092305726, -0.10459353675285804, -0.11544148589762075, 0.0008298622936637218, -0.14166348724394423, -0.11428169346236694, -0.14048655105019292, -0.11318571562759533, -0.05916264474837027, -0.039747504378518976, -0.0640629476878887, -0.12016908802370302, -0.04709059824990735, -0.06410240276676442, -0.10098229921428109, -0.6742872291122209, -0.05507108483169394, -0.08311816977791817, -0.07385273807304198, -0.11864647385697467, -0.05411096358344853, -0.11958115142466962, -0.026955529381352518, -0.03983922937957531], [-0.027456634581514427, -0.08751788761779951, -0.09651046440135783, -0.12022680504470801, -0.10377753420054836, -0.012993450587282424, -0.05255735705932072, -0.07515656141976226, -0.10115386572243401, -0.05027662763497311, -0.08418272773658819, -0.1375465095750416, -0.1316012936672234, -0.12296959272461154, -0.21025016041231526, 0.01509867412803921, -0.11358563409073687, -0.05781451023294158, -0.05737063347420611, -0.08776675815933985, -0.13345247648589165, -0.05346491586996988, -0.06211394076373522, -0.13465530177579524, -0.11446917488744562, -0.13409776129119919, -0.07353983472777614, -0.10876587747756641, -0.03624566722838048, -0.13392702139918794, -0.09114383690402449, -0.09788178980841765, -0.05235725880104612, -0.06282084127051837, -0.08716970356012448, -0.14839107870606238, -0.10136100870858626, -0.03967341819608956, -0.057475038666917326, -0.1494534391351384, -0.12993712564416626, -0.12957428336732446, 0.3257711604569317, -0.09858164596085693, -0.0644064359174749, -0.06291797982510888, -0.06445104209467367, -0.1704571924328905, -0.07821442409182228, -0.14813992994002098, -0.06565569118466645, -0.15846468006742245, -0.08081517367829191, -0.0758934381256101, -0.1011055321667497, -0.07568263621898211, -0.07683999591064626, -0.0585869572683603, -0.11780521582554014, -0.08706693300257633, -0.08534383348983078, -0.11901678017335152, -0.04440902106258865, 0.004843744731424339, -0.13919067688507455, -0.11002936112770142, -0.09506845397089149, -0.10792347546399964, -0.08044058278779835, -0.06781896244811532, -0.16519869449620417, -0.08853640613240046, -0.1319322261073931, -0.03844162082023362, -8.820237679284434e-05, -0.058647103755676895, -0.13499746335704627, -0.1139675527404618, -0.12517376602690963, -0.0012838574997469595, -0.1502200745877959, -0.1231760306342802, 0.16200229720413561, -0.12369922106903965, -0.06706160618730163, -0.052469879107846826, -0.07181760194387188, -0.1298070600315736, -0.05642681216044392, -0.07246698444227058, -0.11182217904181974, -0.6772213374009226, -0.06079399068123349, -0.08959682833213801, -0.08187282842377862, -0.13067917355388292, -0.0625694874236837, -0.13145414396763272, -0.035057037132802865, -0.04611833402869214], [-0.014363644240485194, -0.08324831725204523, -0.09160560866118554, -0.11649167746372883, -0.09775847815262301, -0.005603509456483971, -0.04705468636126783, -0.0690933745107021, -0.09908018488218978, -0.046271422849746745, -0.0774728070830551, -0.13296273002556042, -0.12459828092793404, -0.11747695621769944, -0.4022703447724415, 0.018620113636999346, -0.10815201005976176, -0.05159850383799538, -0.05243348256289674, -0.08049201724541878, -0.12839833770268547, -0.048405374226168536, -0.055053453062150315, -0.1294059448438107, -0.1073161936220744, -0.1299358199682627, -0.06999277364755946, -0.10230299818105666, -0.029308676648790204, -0.12843630708940543, -0.08509957376947747, -0.09164539717048661, -0.04651155586812828, -0.05499038806718983, -0.08104394101249054, -0.14055675131429557, -0.09554079546750215, -0.030163263901004506, -0.0497331026242083, -0.14502755816422117, -0.12550931203643506, -0.12572858315173974, 0.24401244446642448, -0.09255425740990893, -0.055140142520579485, -0.05175880397792046, -0.057908966466075656, -0.1650708118608796, -0.07137442588678146, -0.14255894749988227, -0.05709337413841223, -0.15327111197776142, -0.07463750356540529, -0.06988378234785125, -0.0921710178262629, -0.07071812145227457, -0.06949584788925064, -0.05243016030896305, -0.11549677165353063, -0.0810681726907179, -0.0746489388703471, -0.11587199720610006, -0.0379232555698012, 0.01926885627971433, -0.13358960085293506, -0.10308077355235867, -0.08907636357216457, -0.10167234662125714, -0.07576741505743081, -0.060934594600658344, -0.15975159655490304, -0.08461379502552037, -0.12542093505191504, -0.03231065214572023, 0.00723251977373343, -0.05187015225219675, -0.1293581293062681, -0.10844090413521565, -0.1198459305233431, 0.00975907496970789, -0.14462020435016204, -0.11789432016641688, 0.4611268245592746, -0.11862907097591274, -0.06059511858213891, -0.0496897323939965, -0.06556374473365396, -0.1252564017424044, -0.05141621766188955, -0.06660130768935928, -0.10844726344704446, -0.5866745497726138, -0.05224692543766979, -0.08263063803110945, -0.07577277590533307, -0.12749191409651833, -0.05659012435031266, -0.12710436513763348, -0.029024862215487494, -0.03874426597482047], [-0.01170669310843529, -0.08636073247389378, -0.09392443473276169, -0.11924909987036153, -0.09888670413330854, -0.009329498649608215, -0.05038310338770453, -0.07108046125717596, -0.10400910568248607, -0.051123828349566434, -0.07834570904716245, -0.13412850728760342, -0.12324597922895911, -0.11829163806506482, -0.6593410938367733, 0.009589324835983458, -0.1094481059850983, -0.0541217298805442, -0.05602007476906822, -0.08060096624949772, -0.12907559340979563, -0.0523008604809645, -0.05643457233564813, -0.13015824173757465, -0.1065459353443449, -0.1317266055263514, -0.0745599361892855, -0.1025151687178298, -0.032012937003290526, -0.12878170018231375, -0.08643856478448136, -0.09269146207735576, -0.049368092395187815, -0.05561834449301035, -0.08271509007646247, -0.13659401828828066, -0.09686019052420172, -0.030378378430448428, -0.050546527719322, -0.1462420887940946, -0.12742357902827978, -0.12839407368313469, 0.11761474794667977, -0.0938404969271393, -0.05448205559363695, -0.04906355389777132, -0.059890033883731514, -0.16362958602172703, -0.07267412641542025, -0.142201830206681, -0.0570163765134926, -0.15421223362269632, -0.07614127164876731, -0.0718151368170147, -0.09019070511476635, -0.07382435371033719, -0.07038938324624447, -0.05514259672206053, -0.1195525282330448, -0.08258956903651297, -0.07137352133826634, -0.11938182662760084, -0.0406876830981672, 0.021536261215627035, -0.13415150110115143, -0.10287597841338711, -0.09040968533899911, -0.10228640203332635, -0.07869475181466226, -0.0625199418848943, -0.15972600881284568, -0.08824403506199614, -0.12450507430739541, -0.03586240816591708, 0.002794054358997701, -0.05367916704293357, -0.12985002308237453, -0.10957618395464198, -0.12116641117898345, 0.008767106591865203, -0.14400487682228663, -0.11896562642862672, 0.5984064600576846, -0.12014077031351705, -0.062324635817601795, -0.055338883796234584, -0.06746281656843811, -0.12667010040689497, -0.05511647318810423, -0.0688798750962177, -0.1120593673072909, -0.44853888439745476, -0.052277395906791084, -0.08330170796330152, -0.07731372630756293, -0.1303666122570669, -0.05893660284636911, -0.12908300186592753, -0.03269072783216413, -0.04072230652061851], [0.05290101456252815, -0.01457733397721137, -0.020323602201624345, -0.04258837109015256, -0.023419874895956965, 0.049384423938168796, 0.015907223175177287, -0.0004384082526242868, -0.03140320465627897, 0.014117600687011919, -0.005725612620488412, -0.05446467107105906, -0.04216191665646974, -0.03983800309599032, -0.7982081784750568, 0.0597132192974681, -0.0325475317904362, 0.013518182405099985, 0.010936965119020517, -0.007148465638167541, -0.04975511246056797, 0.01399511282621579, 0.012383016838891335, -0.050937420534319315, -0.028445633308487383, -0.05257206409810013, -0.005365978633678734, -0.02583339714186136, 0.03178742195029258, -0.04879938533847052, -0.013027369351886038, -0.017993698418970472, 0.017122717525345478, 0.013750430661124706, -0.009970560072278502, -0.049200356096029726, -0.021958319500040756, 0.03526381210888656, 0.01781313751393469, -0.06536597386899047, -0.049029862286756, -0.050637128887180645, 0.03080262988194023, -0.0192432491435588, 0.01584149988792932, 0.021967484592819837, 0.009141319038399149, -0.07857236445152133, -0.0010171994984620437, -0.060010001487412354, 0.013194020781342887, -0.07259274773742037, -0.004474303908510986, -0.0010086839879688144, -0.013416860312800809, -0.003566576491779742, 0.0012035636925703526, 0.012598152340905722, -0.04424018203958559, -0.009883282469034502, 0.0037146702861553305, -0.043564817956793796, 0.02448764632281547, 0.07907934002932741, -0.054022417014402344, -0.025636853902857592, -0.016418049615735807, -0.02593209271052021, -0.007775056921849275, 0.007265931176507112, -0.07660840943381958, -0.0164415355031556, -0.04397279884103744, 0.02787254543769099, 0.058383203677328285, 0.014380235712451074, -0.05001614144565833, -0.032932916205778665, -0.04301524303206248, 0.0663485661431372, -0.06125116958858977, -0.040836306029116184, 0.6434704806785828, -0.04244390652318204, 0.007191749637010093, 0.009765087367191722, 0.002672321571695377, -0.04798612866626464, 0.011712152915343176, 0.0012122888198569097, -0.03684430349715993, -0.21182143134126719, 0.01704573780252632, -0.009659926526502391, -0.005430336585066251, -0.05261842298877069, 0.009479664089733397, -0.0508061771161561, 0.030381170363997907, 0.02513263368487358], [-0.016669836376785766, 0.0016456618238206069, -0.013229268403595042, -0.01694655749363798, -0.026204939749169112, 0.011336833088329888, 0.001793708964774262, -0.011058393470934666, 0.017709794260016627, 0.010782418192934823, -0.01999809596085216, -0.020718231910946152, -0.046458098787118485, -0.035527869857585194, 0.829393804379653, 0.036905972628229186, -0.03317795944861693, -0.005713116930437826, 0.004185785326131824, -0.021940950984374766, -0.022125514876450387, 1.2966330400550327e-05, -0.009905083525090286, -0.013166482150867197, -0.03976413821075426, -0.025832932458051065, 0.002169860655361131, -0.03550415843591934, 0.002369044093777264, -0.03170172533723433, -0.02006770156360038, -0.03097886962646936, 0.005397354254499976, -0.014946267970933125, -0.02223491184082889, -0.07835072781942445, -0.02206427135862343, -0.011328109745245628, -0.007909800510519326, -0.013689643049443995, -0.020418825146032563, -0.010358978983666379, 0.32200919902167224, -0.02496034405892031, -0.022961854204057983, -0.029704946423917977, -0.010627840786116283, -0.023821711853701185, -0.02208825232179548, -0.03448237564589991, -0.018139451931784373, 0.0019961785993204972, -0.010443079988074729, -0.011391946459984481, -0.04109601025725638, -0.0049042529241785145, -0.024731642785856597, -0.00741083603812672, 0.003993793833374425, -0.016421694014202095, -0.04286047458992919, 0.001845899316957851, 0.0009779994878743703, -0.0016943450777832045, -0.01923227945593497, -0.03838606158732528, -0.019879414723918225, -0.031391576698020014, -0.0038553768874320027, -0.015236600813496641, -0.008236701712673844, -0.0035063747938566836, -0.040066829764821454, 0.004286849072254248, 0.01851746787781954, -0.006501220680479845, -0.026972743002823256, -0.021276841547741808, -0.023651210165225055, 0.003039228721207122, -0.03678879457193577, -0.028978670166298282, -0.761230079125944, -0.017716676202853866, -0.009261579845527048, 0.017957431564521145, -0.01160931182452986, -0.025766062983924132, 0.0015223424407285508, -0.009847888208850375, -0.015716445093839477, -0.18105205713921424, -0.015272846224009286, -0.027308759053851828, -0.015335388796497925, -0.01098234400878502, -0.0032923493145072926, -0.009637057314836224, 0.0073014397612224426, -0.004436694149170769], [-0.07181487497395574, -0.07182108750709318, -0.08470158694725176, -0.0926186411685543, -0.09726050331039238, -0.0438124255712421, -0.05986313480064091, -0.07863812692205584, -0.06182934883227177, -0.05256133467544784, -0.08743928121730715, -0.10031718372085771, -0.11955266745687855, -0.10802820604628917, 0.6497955537929655, -0.01634883991884952, -0.10390452174901979, -0.06829241354390762, -0.06014298972485991, -0.09044494242804295, -0.10089029139138878, -0.06149565522980797, -0.0734864356769226, -0.0955370486320319, -0.11022722902715942, -0.10243205739931624, -0.06624572722569115, -0.10440944145966291, -0.057441785840793125, -0.10838271286771045, -0.08823893928534682, -0.09812310022104716, -0.05953822572353147, -0.07762311682206355, -0.08955018858847644, -0.14534081757794404, -0.09351475083086756, -0.07021828473010908, -0.07187435261177581, -0.09825312969273758, -0.09874791155644018, -0.09110189367785465, 0.3193417725360284, -0.09499074215271235, -0.0853886243486691, -0.09046799338688553, -0.07412656368381754, -0.10997835019210059, -0.0873831355460223, -0.11359821235079397, -0.08298812874499063, -0.09023473931643332, -0.07983252190226016, -0.07806221876718249, -0.10963512648674345, -0.07336855527889895, -0.08828920248351878, -0.0701604908213351, -0.07484692137236294, -0.08521378146211656, -0.10640588092355813, -0.07865000826068946, -0.05964068285129447, -0.053479160721143594, -0.10172500261350005, -0.10804581789102628, -0.09056135974271601, -0.10199300607672288, -0.07280641249164803, -0.07917393387105706, -0.09891600560046654, -0.07511064435092689, -0.11440793055041362, -0.0551642346227579, -0.03513593991389132, -0.06963356681207573, -0.10610207451968076, -0.09605713469408464, -0.1013152059067737, -0.049550700378638006, -0.11555739007901498, -0.10380844967827892, -0.6812764394338757, -0.09634984046910632, -0.07425923242454983, -0.04664984542412725, -0.07650434068022229, -0.10192555626239681, -0.06173861744634481, -0.0755709299918249, -0.08921460256594768, -0.3586302733178769, -0.07885323461789322, -0.09413122397862343, -0.08241036495346993, -0.09006131927363083, -0.0675112272257769, -0.09116717459605919, -0.05192142330901452, -0.06422888510456061], [-0.04387746450731044, -0.06670981703691603, -0.07410278371809853, -0.0851959904299937, -0.08358082969039524, -0.022325695430959476, -0.04234036327992665, -0.06483737329690448, -0.06599143858481926, -0.039027663711150275, -0.07148647546970684, -0.09566866182342398, -0.10423172158561898, -0.09387642009093977, 0.3573803098637408, 0.00021614548542874264, -0.08843023523573956, -0.05032407283689815, -0.04616681844000954, -0.07533388051454906, -0.09552605337033059, -0.04355458527822352, -0.055725388483264277, -0.09529182621055952, -0.09341667109219765, -0.09374227291014758, -0.05599380067296237, -0.08659600612667927, -0.038688576366227995, -0.09913063631719764, -0.07278979000062527, -0.07933890466510139, -0.04662343495559391, -0.05779463458987422, -0.07285020715783937, -0.1187396003302571, -0.08117944266457687, -0.04748296095430297, -0.054990877738986615, -0.09934163233640239, -0.09312659474479487, -0.08969444386983898, 0.2950007781001776, -0.08072157699863561, -0.06357253685429562, -0.06546370213453871, -0.05593066026570495, -0.1107775043072353, -0.0687057945281375, -0.10605672941870148, -0.06500044207477633, -0.10054002804747829, -0.06811038330462126, -0.06297603185011905, -0.09090183025860699, -0.061606484122726984, -0.06704541800163256, -0.05197187733990865, -0.07484071942817076, -0.07136581042906455, -0.08174486894653346, -0.07968894528466505, -0.04116577557388851, -0.02610291914749307, -0.10012423794947313, -0.09060568532595449, -0.07806378075185637, -0.08688666962384087, -0.061697603439723726, -0.06052519763208928, -0.10577349822690575, -0.06686248344760268, -0.10147180092025593, -0.036225650367744285, -0.014114777114149683, -0.05204771081090654, -0.1000365629090608, -0.08704337283036598, -0.09448353523989683, -0.023860514695647702, -0.10738332088148958, -0.09337153290826926, -0.4786214280982744, -0.09170390946201601, -0.058042701014119624, -0.03603364011402548, -0.05944729987505342, -0.09322678814571385, -0.04598372267572706, -0.05991295867885894, -0.07979194621850183, -0.4439915303669799, -0.06006450411544594, -0.07587248390657744, -0.06693957578827836, -0.08678917501948075, -0.051621406834946724, -0.09053764328404519, -0.03352990798999858, -0.04351577218536221], [-0.039107585016338285, -0.07920879155149027, -0.08223777140706881, -0.0942694179717321, -0.08874995326454668, -0.023917959905307314, -0.046847124650458635, -0.0712207951113894, -0.08476060217314296, -0.046783249478963916, -0.07582960823483914, -0.10474580213193078, -0.10513161714347315, -0.09721417401523347, 0.026337289590097963, -0.0057786362588095495, -0.09167612655535025, -0.05421866453096729, -0.053227268994708726, -0.07989330087831316, -0.1043548628067454, -0.04793665808401841, -0.05933795152363423, -0.10759519791028613, -0.09501771428114089, -0.10040019954914463, -0.0656383556058692, -0.08818101856191998, -0.04219660695368872, -0.10492591121910876, -0.07739584711860872, -0.08101443022364993, -0.054317356631291634, -0.059735653211317435, -0.0766930826607832, -0.1083732403020196, -0.0874910452572425, -0.047374290777690266, -0.05929906467918567, -0.11089001624706235, -0.10233676548035281, -0.10216608035020498, 0.23153509568407354, -0.08578296643894566, -0.06361296532089744, -0.06266764438033388, -0.05943228580490205, -0.11751859111334108, -0.07132350054713849, -0.110886966142576, -0.06800844935026647, -0.11685840419989407, -0.07577568352424273, -0.06850184021310736, -0.09151096569147038, -0.06981806378481357, -0.06762617731464693, -0.055783693713860556, -0.08978597299776893, -0.07733570345689161, -0.07836736444869015, -0.09495986716181515, -0.044858359749060814, -0.021390576333042238, -0.11078482760274541, -0.0921873738458205, -0.08461237497545085, -0.09064112675523738, -0.07023348168882294, -0.06351739321265612, -0.11819905134847827, -0.07729760574011317, -0.10437695587858292, -0.039790280476955646, -0.016002691906319845, -0.05603562756763508, -0.10793173962206705, -0.0950232370218504, -0.1030441878235513, -0.021378927328764775, -0.1113917395475216, -0.09949112433993001, -0.20749898343828868, -0.1020888250593757, -0.06290146385184513, -0.046100621440907645, -0.0636390587546627, -0.10017746269773897, -0.05183945975417145, -0.06511780772513807, -0.08821530902894266, -0.5070596397071534, -0.06266893332522014, -0.07825797678446941, -0.07190434288287434, -0.09806949220769566, -0.05694925029983728, -0.10326491961002136, -0.03752162603250519, -0.045308987609924585], [-0.014743841145457666, -0.06730262753044791, -0.06909430473618917, -0.08356795093898961, -0.07467932070493075, -0.002584315494975528, -0.029658704648903786, -0.05579413145299721, -0.07682994843201756, -0.031201374200358078, -0.059978495555207664, -0.09506649495375069, -0.09167277004885187, -0.08423262825041058, -0.20926394334040274, 0.014594472773318344, -0.07798035889194686, -0.03690492309058534, -0.03745526437435006, -0.06415233208921105, -0.0940908686176598, -0.030980889551743114, -0.04183831794602804, -0.09836365844276719, -0.08020873146760943, -0.08982622093696836, -0.052300756563756455, -0.07313810553826941, -0.02326610459778987, -0.0936475913422679, -0.06231168696676498, -0.06543539899688848, -0.03809830593251673, -0.04146289186102641, -0.06111700596484325, -0.09431580368618869, -0.07373474108881964, -0.026488043325735323, -0.04147214286700181, -0.10334986324316565, -0.09217268735615429, -0.09323396017814689, 0.21495011598641334, -0.07140857646112284, -0.044311153212133025, -0.0417581566770985, -0.04222189735598447, -0.11109542310183687, -0.05456436621359669, -0.10082204134642973, -0.04996382504070688, -0.11116859381942965, -0.06101702381165755, -0.05280516958347107, -0.07481314063574757, -0.05544317721805801, -0.04997075005138256, -0.03856554725529379, -0.08144368142656887, -0.062462022339520945, -0.05891190529620463, -0.08637011525009243, -0.02657349493847346, 0.005733318436588293, -0.10141479653014383, -0.07715003755458455, -0.07043960503956538, -0.07638648718088226, -0.05638290393363512, -0.0462652812047707, -0.11232757463136611, -0.06494413244449933, -0.09164619326562622, -0.021263860935679973, 0.006096505838119444, -0.038542363942540306, -0.09739195387075952, -0.08271311936645238, -0.09192648538072401, 0.0033584643783999535, -0.1013706499435416, -0.08750976437289712, 0.11768254469660062, -0.09145784641641691, -0.04633835028107342, -0.03201675508183761, -0.04714931272184347, -0.08924610839519634, -0.03559629707081321, -0.04919366530490102, -0.07687803937670852, -0.5175896612723044, -0.04423830208762292, -0.06203064229645304, -0.05636550060527953, -0.0890905490061494, -0.04039697539002147, -0.09425939529809642, -0.018987756318324167, -0.026145249830611686], [-0.017298735698652604, -0.08146904051857233, -0.08329035589276387, -0.10061905063711095, -0.08829170976941476, -0.009796161589081077, -0.040582112205439204, -0.06752049003937496, -0.09402736829928814, -0.043420006514210796, -0.07149606763044877, -0.11268188763271393, -0.10590919555312267, -0.09953159011404675, -0.46055909652439486, 0.005614785786880189, -0.09271554164588931, -0.047441527818274015, -0.04914380742426864, -0.07530323528956817, -0.11073468073362315, -0.04243105310847786, -0.051789995734426775, -0.11507444148747946, -0.09301092800032844, -0.10753930589114861, -0.06640440497719015, -0.08625899237165179, -0.032014135317691886, -0.10996426979060037, -0.0749002759258992, -0.07818567520929297, -0.04864239297400691, -0.0506562504342655, -0.07353388474414432, -0.10752298011183191, -0.0873184831665451, -0.033008906453258005, -0.05047305692968062, -0.12232853279601337, -0.10944867722985145, -0.11110641338666978, 0.1271834297312972, -0.08463598973529457, -0.05225567462144866, -0.0475675568913187, -0.052823252889141636, -0.13113471930405443, -0.06567519063409286, -0.11838977181102203, -0.05872976890111568, -0.1304138574340608, -0.07293159970641513, -0.06457611411302336, -0.08500917225395443, -0.06832049296474003, -0.060458283451922154, -0.049296424057635534, -0.0996008850983647, -0.0749056128753099, -0.06611625920250593, -0.10390916450191152, -0.036131168019808924, 0.0057918560695399786, -0.11840296653701009, -0.08997161413848233, -0.0834831239335132, -0.08987758818589565, -0.069683288145444, -0.05678878541252315, -0.13213094165980968, -0.07964302489219482, -0.10648535643708126, -0.030894505674091726, -0.0004094004740509865, -0.048599299946051756, -0.11392514023153812, -0.09749805482720889, -0.10803775431885476, -3.357139854788627e-05, -0.11901680828654103, -0.10322004061567462, 0.45046097210938923, -0.10757113233918861, -0.057132588882652095, -0.04536108819699717, -0.0584360349635081, -0.10613458905592671, -0.04720309767625841, -0.060901791323785155, -0.09374961182563882, -0.48126622224436133, -0.05271080255943871, -0.07368538685249242, -0.06833833441388128, -0.10750920040994932, -0.05135740314235905, -0.11168590747869858, -0.02843872017283188, -0.034988102739012594], [-0.0007849124569485905, -0.07543939459044108, -0.07768364287835137, -0.09756873990831691, -0.08198709008126474, 0.002085475283370151, -0.03248309446001274, -0.059674435090593045, -0.09075967302487355, -0.03634595153421308, -0.06338191822354602, -0.10943285779105963, -0.09897910868141861, -0.09456138190669143, -0.7150089467106995, 0.016543155830351555, -0.08756392010089419, -0.03891891285119797, -0.04148462127374732, -0.06663738971270922, -0.10649277778174505, -0.03501904384304123, -0.04247837807649415, -0.11078830747671507, -0.08552280515537367, -0.10475656674867627, -0.061015557196498975, -0.0795972152935721, -0.021442014657299405, -0.10535007508451898, -0.06797747283555353, -0.07158234929124196, -0.03948176876570887, -0.04064698710180968, -0.06660124407691065, -0.09702805038852204, -0.08099314770020227, -0.020433929676802645, -0.039892075807881615, -0.12015732621888427, -0.106163572145972, -0.10850488595110899, 0.0646706804739277, -0.07811538818237668, -0.04101836477289994, -0.03415089009690189, -0.04436213450815678, -0.12807273691139384, -0.05758667494171589, -0.1142948361921502, -0.0479240503100194, -0.12856606041740348, -0.06494915959663246, -0.05691885047536517, -0.07502435335459207, -0.06159521690715896, -0.05202061642718425, -0.04097972379719205, -0.09754095642390553, -0.06767684592318558, -0.05365044451493621, -0.10112661217675951, -0.026582826034998834, 0.025650623022577913, -0.11428457472666322, -0.08274736625410703, -0.07659519324088311, -0.08342317940415081, -0.06333508190845599, -0.04815523493831695, -0.13014917766888973, -0.07450662511283838, -0.1002447644063157, -0.02158879000627165, 0.012448427014124734, -0.03937595286222902, -0.10947124637283392, -0.09199089187638515, -0.10357004764615485, 0.015867093982214236, -0.11471988418464477, -0.0984896690791039, 0.6764453943964075, -0.10314805959030153, -0.0484978890625268, -0.03925154633093401, -0.05054031715375506, -0.10248609181148816, -0.039713054427469585, -0.05334724667923025, -0.09091969464009028, -0.36203683290263167, -0.04170361140919313, -0.06591876966759698, -0.06082283203147412, -0.10554653102973598, -0.04304492416538627, -0.10849856365758509, -0.01883540086733812, -0.024963473196787288], [0.04148799094847805, -0.032258801012050316, -0.03388043744099193, -0.05347486950411945, -0.03683302831309342, 0.038984733580218305, 0.007402700216066993, -0.01646165096268075, -0.04832493964229253, 0.0028858544645790404, -0.01908146407229778, -0.06407760717661655, -0.05062819086516481, -0.04857454642676974, -0.8726334387514132, 0.04832397456870017, -0.04219944733849465, 0.002288364914244451, -0.0009651613564891216, -0.021574356572983393, -0.06069847662050946, 0.004799604137104972, -0.00012571072272705085, -0.06503009455219809, -0.038409783936351354, -0.059839623062458575, -0.019768448710340447, -0.033821938930119956, 0.018419553280923165, -0.058968654264012224, -0.02389711019104303, -0.026875126598527223, 0.0016218833933252343, 0.0022039602792522906, -0.022734066666194597, -0.04293871681809562, -0.03610881676838112, 0.021390943708321696, 0.0028409838976962546, -0.0750752159784434, -0.061153324335396, -0.06410191974228494, 0.009076385245046684, -0.03319976851772197, 0.003084865309333485, 0.011101543258446794, -0.0023126701252868588, -0.08169642662366773, -0.013859250521506326, -0.0674796142464073, -0.0037484088759581285, -0.08380740089974067, -0.021110329171784858, -0.013969785619792185, -0.02726766554692761, -0.019119082043886095, -0.008442771437886467, 0.0003495433593934906, -0.0546930629812061, -0.02372481085489353, -0.006139790384525786, -0.05752637834670364, 0.013489643431962082, 0.06504695858864608, -0.0682623572930453, -0.036202548204421425, -0.03190230617641729, -0.03771594148579482, -0.020835078311718956, -0.005424539581716645, -0.08504506977957567, -0.03180404528894168, -0.052675433285220695, 0.017454199980468193, 0.047839917630782415, 0.002408289999277719, -0.06322993966652914, -0.04665348016897533, -0.05792995937393326, 0.05372714330155861, -0.06757217394113092, -0.05272325010133629, 0.7903608691760347, -0.05777907035348467, -0.005943410128906257, -0.0005793127801652046, -0.008081157060498311, -0.05721198143196582, 0.0006000785966272049, -0.010936801715079174, -0.04761745629606985, -0.19126458321924766, 0.0018722635802431963, -0.021201198289214213, -0.017391544630100234, -0.061668639037243254, -0.0014952650222995589, -0.06370454602722977, 0.019889355249167052, 0.015518484482940766], [-0.06644659657542544, -0.0295359032268349, -0.03687864937307193, -0.030231189409940407, -0.04630122012558071, -0.050538503611949254, -0.040203762239748815, -0.04485447017178324, -0.009348789385056854, -0.0353713828423186, -0.04806842333408209, -0.028711306486470436, -0.05879238832004772, -0.04796720446684048, 0.953084322579613, -0.04589131375416332, -0.048315085402175904, -0.04537035397237224, -0.03774812152527872, -0.04892608465435205, -0.03219868523838362, -0.041613509555860226, -0.04743356783678104, -0.02373929185693102, -0.055248175715303764, -0.03393906131400996, -0.0335467201606339, -0.051419459997594244, -0.04902072572388493, -0.04216404824306442, -0.04409180572367529, -0.05089653351190793, -0.04059682026907774, -0.051213736502990354, -0.048186090807043704, -0.09343261318060335, -0.04360097080892535, -0.058569649746837135, -0.04923750947379681, -0.018654304483758058, -0.0315294156370992, -0.021848331991414744, 0.02181821247076828, -0.04730353060327287, -0.05789030011356423, -0.06358480908995828, -0.046720016229865165, -0.02861897023042614, -0.051907740215712865, -0.042462687998384305, -0.05520163316837274, 0.00032151359088447595, -0.042448030842726844, -0.043409388391750334, -0.062353981630153085, -0.03924173543511336, -0.05320048897509249, -0.046956986443310485, -0.011126395134311616, -0.043795902157056144, -0.06738284858679543, -0.014428070569442621, -0.0455486972598623, -0.06901710206425318, -0.0291480708830029, -0.05524622817695718, -0.04454356469900637, -0.04940530922501755, -0.03520334624714755, -0.04981082414147463, -0.009696669934850454, -0.032385359749545366, -0.051341706534758086, -0.045112234727011716, -0.05106875776010783, -0.04594337361887084, -0.03800182096132186, -0.03830162952268829, -0.037568677871616024, -0.06244467649393779, -0.04510142422135742, -0.042375390545157904, -0.8228648765584445, -0.03227273727563013, -0.045375238197676575, -0.02843843640429354, -0.04424123253192873, -0.03594266283391389, -0.03997102956711492, -0.043077416689475644, -0.0318917024513914, -0.18446396720983296, -0.05391513148867679, -0.051615069235693804, -0.04393326420423624, -0.019974313329115582, -0.04115030285713451, -0.02032044718344267, -0.044364905088546416, -0.04841304702755299], [-0.0850674103541438, -0.0685654495200451, -0.07374813947225171, -0.07176031507701582, -0.08311045180994163, -0.0686468094967771, -0.06545382395522696, -0.0775730913860122, -0.05461287998911984, -0.06259576057485301, -0.08060217629875312, -0.07495398277938123, -0.09878844016428225, -0.08653677242053945, 0.7053267621226524, -0.06188058044937244, -0.08474781258952868, -0.07202351329655053, -0.06623586422002103, -0.08287659549646428, -0.07766495294101156, -0.06680782076787845, -0.07544126995729777, -0.0731649804228074, -0.09176857030272455, -0.07668194269383441, -0.06673377757580992, -0.08570577237005611, -0.07266205500465522, -0.08568915124145578, -0.07717914901151711, -0.08303008131617412, -0.06997217525324269, -0.07820372770981332, -0.08055770273523175, -0.12743461975859594, -0.0808178448618967, -0.08148450237019694, -0.0777396068676344, -0.07046397457183214, -0.07650001079329312, -0.06912632721943601, 0.00218636030661052, -0.08297614275356609, -0.08483171385973866, -0.0887596859516405, -0.07445441920735109, -0.08313597633667767, -0.08204044578464602, -0.08910132290570856, -0.08511164697708642, -0.059433041923680804, -0.07721622788640257, -0.07482087131286433, -0.09699741155823213, -0.07269419657918058, -0.0811964015361638, -0.0738818494528774, -0.055336197680611314, -0.07774665359595737, -0.09601043092419444, -0.06086623172904027, -0.06992068181869951, -0.0837469346985824, -0.07913509515233719, -0.09076962987430542, -0.08092974195544343, -0.08579677296830097, -0.06897006824300757, -0.07825397220136435, -0.06844139689396313, -0.06929566528326958, -0.09250138429479787, -0.06810883705135944, -0.0674983479869057, -0.07327080880767808, -0.08442633517802962, -0.0792242583546432, -0.08209136280158584, -0.07795032835286336, -0.09146502848420678, -0.0836256698424569, -0.7160267510271703, -0.07765803783873658, -0.07489493659153436, -0.05688176493775656, -0.07348429637954297, -0.07841772599687324, -0.06725391300174154, -0.07336310653462697, -0.07084246009510056, -0.2646445030394651, -0.082177465515587, -0.0835063000136674, -0.07583425868446642, -0.06493345902885896, -0.06952407966059979, -0.06838581439167171, -0.06707857884513865, -0.071799861836427], [-0.070706319529925, -0.07686234724502693, -0.07650022485455293, -0.07760264793315848, -0.08279511713923077, -0.06017184366872416, -0.060594194772821415, -0.07714618256490456, -0.07214920839685786, -0.06160220774142264, -0.07794084554104468, -0.08355055964119595, -0.09568086639913713, -0.08506426883707162, 0.3471886661623322, -0.057901611383949975, -0.08214755624160949, -0.06697163865031429, -0.0650743552187741, -0.08116408995356236, -0.08555399314572561, -0.06157762699058441, -0.07080559339640907, -0.08690272181777174, -0.08778082857040129, -0.0807636685856849, -0.06946160451727573, -0.08067198925574762, -0.06688888918314802, -0.08930295093182569, -0.0748727903094835, -0.07713713141821932, -0.07008400948210888, -0.07149369419533706, -0.07713801230493875, -0.10946292944331797, -0.08193915592202049, -0.07209537505389048, -0.07416263560092827, -0.08508893546820992, -0.08431980295423136, -0.08160010366243269, -0.05194421976353109, -0.08207021923233669, -0.07639583113740793, -0.07707408631337985, -0.06933943112808029, -0.09513210418231455, -0.0765968413833697, -0.09368167723430446, -0.08069476845310011, -0.08475998053595808, -0.07894592611533632, -0.07297364611282, -0.09156491216902789, -0.07418874882905856, -0.07302979601911759, -0.06874701187385074, -0.06865490877510896, -0.07719116824447203, -0.0844370502509244, -0.07568862634728044, -0.06431523839865143, -0.07045407840290428, -0.09148905704752436, -0.08626968015479318, -0.08189864938325966, -0.08381781167183615, -0.07096041291709236, -0.07282647971341699, -0.08916217451007613, -0.07434172852392465, -0.09203043792385263, -0.06198073044231764, -0.05954793393971321, -0.06873209306201376, -0.09181315489920969, -0.08374565872934822, -0.08898776089729647, -0.06592574383921514, -0.09501518419965228, -0.08635432175200482, -0.5073344382484789, -0.08687149275034625, -0.07179917711375207, -0.05852766369115831, -0.06950064003684515, -0.08263275063488484, -0.06430772055197916, -0.07076688592927834, -0.07460168176093138, -0.32099902063664065, -0.0768405354643863, -0.07846517203047376, -0.07353026278349652, -0.07501218805793454, -0.06657994448088395, -0.08171247118485797, -0.0614327199563365, -0.06405665680354797], [-0.044089583027248705, -0.07069530396810204, -0.06721911853509188, -0.0719293954044634, -0.07171958953662602, -0.03603262130465232, -0.04297963195096699, -0.06419941595248109, -0.07312770387622332, -0.046428253620440604, -0.06402359700741693, -0.08038980532080983, -0.08337810649861599, -0.07405642977619491, 0.040805144081306755, -0.032643853008006984, -0.0700528597154757, -0.0496496426651864, -0.05035341871497461, -0.06799145987326656, -0.08160541366215343, -0.04392091292508073, -0.05398513506471676, -0.08689702215623958, -0.07432338864952288, -0.07441190207800684, -0.05880376564901941, -0.066382625266774, -0.047098859309930595, -0.08236131861622187, -0.061682045141043085, -0.06185188725826735, -0.055596276706208286, -0.05327255572223343, -0.06302295362087888, -0.08590302049584583, -0.07170920766780335, -0.05014575831990459, -0.057567599835337095, -0.08659706163645395, -0.08037186577363309, -0.08082658320246314, -0.0571878113710218, -0.0703604741892286, -0.056954528773309025, -0.055130240361484915, -0.05248578086696551, -0.09522401357347379, -0.06048889782657497, -0.08781674727860411, -0.06410523212760465, -0.09325435082294571, -0.06778420884530192, -0.05913956144401408, -0.07619571885924636, -0.0626830884895107, -0.05486022247738588, -0.05151179074967213, -0.06802617932033676, -0.06502108298569677, -0.06383370989492046, -0.0759157247891134, -0.045431784800270415, -0.04078662467078453, -0.09072004143964206, -0.07233718423420536, -0.07125457491695238, -0.07177618030473047, -0.06013447052872563, -0.05598973039167667, -0.09499802806434055, -0.06627793917265223, -0.08179690399791809, -0.0422272185743907, -0.0340276488465777, -0.051712539363284314, -0.08753646776108717, -0.07652199276272648, -0.08400353408045791, -0.03800189501418045, -0.08844924457346384, -0.07840007870470436, -0.23314961950760602, -0.08341470213663939, -0.05646412876310614, -0.045308961468223025, -0.05392465483157153, -0.07616296664710204, -0.04838926267365181, -0.05621862005571135, -0.06721979043378082, -0.3000894170167799, -0.0592764927735133, -0.0632458727732055, -0.05976642300810828, -0.07283554489457421, -0.050967982929993216, -0.08142818632821155, -0.041644926989252526, -0.04385293544598032], [-0.051652942931975025, -0.08786941789395855, -0.08396256363714986, -0.09131246716261139, -0.0880057841934373, -0.04601125511115921, -0.05579230944484547, -0.07862530623585132, -0.09344171086112368, -0.06030428318341496, -0.07831142981255239, -0.10115323702219901, -0.10078177165766236, -0.09171662223858207, -0.2219436209538077, -0.043697844007223166, -0.08691398104205583, -0.062376440261664966, -0.06415670943364975, -0.08238781152239572, -0.10164495222029046, -0.056928624828007965, -0.06663054961945514, -0.10770221602688268, -0.09014292529674964, -0.0944299105825438, -0.07474824599430457, -0.0819192821914752, -0.0585589406175099, -0.1016957438034385, -0.0767263329677103, -0.07671697359288546, -0.0690177470302139, -0.06533011345629214, -0.07773299867607118, -0.10269138066861298, -0.088103149073784, -0.060174339404698164, -0.06989474779574562, -0.10932335163048587, -0.10050626863473508, -0.10185027791822608, -0.07780832055786355, -0.08623284763336256, -0.0682896317529616, -0.06509401905741286, -0.06544475885098211, -0.11928662248553754, -0.07400986724005568, -0.10855436450897259, -0.07640381092464442, -0.1175229955047637, -0.0828039882343604, -0.07341554364073655, -0.09009570442951545, -0.07797880018294485, -0.06764727773509255, -0.06441148250307341, -0.0888294583302961, -0.0801717740833918, -0.07511089668789665, -0.09659996661590478, -0.05736250072863722, -0.047052380404961805, -0.11171233646286656, -0.0879193102638583, -0.08715463072070924, -0.08794953663909656, -0.07579388135722274, -0.0689957531555186, -0.11951301915365023, -0.0833267360272856, -0.09980872423572483, -0.053962688917868804, -0.043643894183700495, -0.06432373493825731, -0.10752311075798558, -0.09438366527829176, -0.10329464285805978, -0.04581519692601791, -0.10920301793378961, -0.09687759889423984, 0.06965254549107472, -0.10292661831956704, -0.06987954804030182, -0.06013827910713653, -0.06753195219744665, -0.09569609237749245, -0.06189556492630803, -0.07023212442092461, -0.08590224003771921, -0.314015156320949, -0.07122170349208236, -0.07744381214125581, -0.07423478291323934, -0.093866652134874, -0.06431430390244151, -0.10241717729659086, -0.05332043845065117, -0.055168513198101406], [-0.03461898512374865, -0.08331678303604878, -0.07874146704936376, -0.08889413891884741, -0.08161233480989197, -0.033752511080974205, -0.04709961227204163, -0.0710084622354499, -0.09271662883821138, -0.05326650816880922, -0.06998848395941415, -0.09909386928875867, -0.09351772012821795, -0.08629734948586183, -0.4652579684598188, -0.032800696387406604, -0.08112124510150313, -0.05331443032641359, -0.05654856544711853, -0.07376331371311214, -0.09853537832081502, -0.048765750685461136, -0.057015360663868093, -0.10536257740174998, -0.08202559444681537, -0.0919728900382464, -0.06977394944710943, -0.07424970703446825, -0.04795491073604254, -0.09762043159847031, -0.06940255955151498, -0.06898344890464306, -0.06051306635778734, -0.054702328963790285, -0.07026618991517473, -0.09015867581800646, -0.08197439034478195, -0.04717227773510778, -0.059505766727986235, -0.10913454035985828, -0.0982361672572071, -0.10080592492965967, -0.0889167722115843, -0.07956770555977327, -0.05627610126301185, -0.050645428727679444, -0.05638237476650404, -0.11859348763959816, -0.06515527814635844, -0.10533836034683813, -0.06564264910971776, -0.11866146047282906, -0.07542382309792055, -0.06561947108610623, -0.0796028723923364, -0.07165048167344626, -0.05793388901409261, -0.05557468664026186, -0.08844869402980411, -0.072999014395831, -0.061274701500882246, -0.09568998803313121, -0.047402766942636856, -0.027857528258956998, -0.10933388059173507, -0.07996939456656016, -0.08057494335999661, -0.0811611033653823, -0.06983109515063704, -0.05978222013470909, -0.12031541927165317, -0.07898038099285423, -0.09360554428144566, -0.044126186990462835, -0.030718163836507672, -0.054833446580635097, -0.10422644392490012, -0.089529337378073, -0.09981691249003388, -0.029914841004783574, -0.10569335363837366, -0.09248392386139247, 0.4139052462109317, -0.09973930184279953, -0.061127713934025635, -0.05434429229471437, -0.059084763715013026, -0.09253364904023187, -0.054099017030456144, -0.06233075529432436, -0.08327008809291703, -0.29066066104232346, -0.06014494544751129, -0.06893422884735174, -0.06651074898296074, -0.09311619982306255, -0.05578082273958976, -0.10096956310420657, -0.0433500729775075, -0.044351979463485826], [-0.03563515817293578, -0.09352742171521702, -0.08865214199672866, -0.1005689514058486, -0.09012030257971633, -0.04005469362903432, -0.05582211768001667, -0.07938354151110054, -0.10559585985832003, -0.06326838210928462, -0.0773659657033037, -0.10991883495985973, -0.09853427906237244, -0.09465061025183152, -0.7428548893287277, -0.04031071553190036, -0.08980765850166261, -0.06140684488939934, -0.06571872772929953, -0.08043106625046338, -0.10833093439359692, -0.05812909005502608, -0.06415753116445087, -0.11573882496912254, -0.08775358626278382, -0.10294682374613173, -0.0808948787056379, -0.08122769118789176, -0.054894528713935985, -0.10645297178339952, -0.07765119896210715, -0.07672833308970199, -0.06853719770035796, -0.060927666954991, -0.0788118266960405, -0.08472353010628046, -0.09069168145304331, -0.05180684971630074, -0.06569051759731664, -0.12130765472213798, -0.10939601473877356, -0.11316279890165268, -0.1224640228621828, -0.08800605653055887, -0.06104737872481251, -0.05282700703324467, -0.06426909787633761, -0.12879697172914345, -0.07269711134229202, -0.11408272546891461, -0.0711879635233706, -0.13190165596903478, -0.0835421108815283, -0.07402770876575367, -0.08335768607424585, -0.08130109100852763, -0.06486804929550315, -0.06389125407676251, -0.10169148539702572, -0.08140805894033144, -0.0627017315890912, -0.10834058173141398, -0.05499666477639646, -0.026973086617622193, -0.11969087932744178, -0.08627889303674698, -0.08909840289691459, -0.08889701276440402, -0.0795889141327054, -0.06735193296812654, -0.1330047090380809, -0.08994377994365602, -0.09996255906724093, -0.05215018524016736, -0.03633075693917408, -0.062268596315781556, -0.11383268637932736, -0.09877320248054126, -0.10992603611947446, -0.0327323535277762, -0.1138537814211014, -0.10176198598232243, 0.6716373397774968, -0.11014097997115627, -0.06885528972380138, -0.06518607570975608, -0.06723646705358945, -0.10275210194845846, -0.0634153451004426, -0.07090259183583542, -0.09544245689876764, -0.26336506359998946, -0.06559876264188454, -0.076147668429503, -0.07467792476369661, -0.10579486060378128, -0.06396709384999205, -0.11269907274564667, -0.051180454948947234, -0.05128637940477334], [0.03212707664351608, -0.028968657830299165, -0.024008832489818676, -0.03696920603878061, -0.02432664364043442, 0.023692907596218747, 0.00769626385306618, -0.013971981400077532, -0.042692600849570696, -0.000265419613360387, -0.011394664630567422, -0.04582735601835975, -0.030289301877760067, -0.028906258933734566, -0.8932252383935946, 0.021329038528127012, -0.024340468941786965, 0.003010686831091975, -0.001917758024743726, -0.013846498442155191, -0.04345772885997381, 0.005190499718805081, 0.0011531939242169142, -0.05107610738205567, -0.020314071110418438, -0.03908452555783071, -0.017466881483997852, -0.015033496345159294, 0.009811006823008997, -0.04081743942647127, -0.012369472436708762, -0.011156886871254686, -0.003744762614622968, 0.004878900034243065, -0.013486051388207439, -0.009132104001618369, -0.025105495071534225, 0.014561498494598115, 0.0004364340923642193, -0.0582083245178221, -0.04523465259469421, -0.049760532798728684, -0.10259312100904773, -0.022238546658558213, 0.0059503383882645875, 0.01543258817892364, 0.0006109550353093891, -0.06485401442809029, -0.006960582184120064, -0.0485122984874482, -0.0041297053112706, -0.06975636546077452, -0.017844444030205468, -0.008955106692462595, -0.014512502810897603, -0.016676948904257034, 0.0007445872234354331, 0.0006406260220335643, -0.03939505089924883, -0.015976120647539453, 0.006668514226820919, -0.04521313328134635, 0.009302023287896978, 0.04083011086861912, -0.05483024578300225, -0.0192402662746558, -0.023314664690446147, -0.022704288799155245, -0.015313345838989028, -0.002025643833362039, -0.0707314704599155, -0.025965375568166117, -0.03276279534098433, 0.011527573965912426, 0.02721254436791375, 0.0027298779257847786, -0.048452572327833954, -0.03334479263314492, -0.044749998142853915, 0.03296825216746149, -0.04789987455329109, -0.036365043422036274, 0.8539471843867564, -0.04522445790585333, -0.0036187579749577146, -0.002898302013110027, -0.002457155876363582, -0.03829586215296047, 0.0002155100111532001, -0.0062042147779241405, -0.03219572573812936, -0.16663282559648387, 0.0010923886152176866, -0.010054813636382186, -0.009517684083924003, -0.04307050219431071, 0.0004800137279806744, -0.04893856819788868, 0.012498184980296412, 0.01331029529161654], [-0.060922385087276994, -0.0072321461908309214, -0.010098877268657363, 0.006061360876806524, -0.015061720060825836, -0.052099073541727235, -0.031968384700605375, -0.025420328844197402, 0.015294475416956579, -0.02855768268488693, -0.025253819160907374, 0.015517144306201703, -0.016778879497806595, -0.009744209519891796, 0.9390017482443355, -0.0551233267595434, -0.013754126168701492, -0.033749074655553, -0.02769101503743436, -0.0243212241916322, 0.010306177960233046, -0.032651987499502974, -0.03353804796833648, 0.019952797572862505, -0.020040786616314296, 0.008116800932862918, -0.017148078065299763, -0.01936469292438788, -0.04372102900419002, 0.001155045027119485, -0.019432672217937434, -0.023022946491962015, -0.03105735250292634, -0.03670172218797331, -0.023792567570335335, -0.05233470740654891, -0.013644338611402062, -0.050252374744218634, -0.036301323317647335, 0.03125435420384621, 0.010158415982194016, 0.019147662281746573, -0.06892819818146968, -0.01805449192190229, -0.041288191468332076, -0.047372308153467914, -0.03215926797536658, 0.02972787754881694, -0.03083757019731224, 0.006786826056213767, -0.037660015338095945, 0.054996058143521355, -0.02112256612917281, -0.02465638116084107, -0.030929499009989776, -0.020639810445059026, -0.03324831337550174, -0.03441073620340442, 0.020664137064703426, -0.020125328514419668, -0.04291175432704841, 0.019750745944411553, -0.03870662568466015, -0.07054137005796633, 0.01789375451454263, -0.021545381052203987, -0.016846953985140023, -0.016655780767230143, -0.016101035892198155, -0.03315203288580673, 0.04872935353484082, -0.009486616496242377, -0.009330082999744025, -0.04044319639126871, -0.055761921327494204, -0.03371261999801385, 0.007054897906748442, -0.003387695758986348, 0.00342745223576181, -0.06400027803575707, 0.004382193885708157, -0.003307142138914169, -0.8234635718527955, 0.0073643940672468945, -0.02991227079780474, -0.022791179707438346, -0.027437390053050258, 0.004721769965684038, -0.029862838203586428, -0.02597767576569068, 0.0006607624996916979, -0.04463116146855143, -0.03879209600866482, -0.026325231115614814, -0.022899940229732744, 0.01966878673930598, -0.028527001443630833, 0.021137230941189702, -0.040978110408132616, -0.04060686545491212], [-0.10222484760750372, -0.06432289145878373, -0.06499378214176847, -0.05250362392705359, -0.06995931350579074, -0.09344982952957104, -0.0776123585086823, -0.0772711711334906, -0.04682485154925066, -0.07599247462543815, -0.07669281665259488, -0.047359482140608665, -0.07436345261105977, -0.06581339531738094, 0.7218218891022277, -0.0963723683954564, -0.06796382332523208, -0.08056650751651477, -0.07604079867199498, -0.07704386198323482, -0.0519711959579501, -0.07818333467501201, -0.08144249285255867, -0.0461384616665484, -0.07450749691898921, -0.05136511186010166, -0.06917599998828267, -0.07167040259166167, -0.08879898735831525, -0.059487103314254414, -0.0710264742966876, -0.07354326134873551, -0.0805606621533559, -0.08376532085204545, -0.0749225196061484, -0.10372577657668364, -0.06894266784701425, -0.09467280632258715, -0.08501728543814713, -0.03663613782544179, -0.05172836937008415, -0.044804308255043515, -0.16462729765316922, -0.07202459063275371, -0.08839392210274717, -0.09298479584747299, -0.07976677068573519, -0.03996089744735892, -0.08023915767690877, -0.05651087456226853, -0.08747501562226864, -0.0202967392254453, -0.07469946136066385, -0.07520061890230188, -0.08420353604047226, -0.07304228180577813, -0.08071030009737679, -0.0814532361019801, -0.040002154618246744, -0.07270911290780806, -0.09093076159989683, -0.04335666602254981, -0.08399638536246899, -0.11036335708242397, -0.04896138914823737, -0.07514550847679281, -0.07156654294581469, -0.07108031631016912, -0.06851820845640942, -0.08132989594331692, -0.0254228397465066, -0.06456454369984325, -0.06781283702730921, -0.08475499062051202, -0.09645584231424277, -0.08111265344400244, -0.056507324941984634, -0.06190608581770629, -0.05845479722338758, -0.10395777968784184, -0.058589914660447606, -0.06195754808284527, -0.7454695170517932, -0.05521919227823157, -0.07900332604588438, -0.07105328468159992, -0.07610219650872221, -0.0546819917987491, -0.07716332336316813, -0.07550282837867454, -0.05563889603011883, 0.0032381422262523323, -0.08720737549724025, -0.07702523112467906, -0.07367063683892668, -0.04173185291748075, -0.07664996289740499, -0.0435639704769182, -0.08522080991876058, -0.08500424830471807], [-0.07000075594643879, -0.05685986737026725, -0.05264443242015696, -0.04605551813896212, -0.0556274040818017, -0.06671250479927174, -0.05442676093843662, -0.060336105252500966, -0.04930000982330997, -0.056653447377778, -0.05794397531579569, -0.04729496854002113, -0.061950072863684535, -0.05275366164821286, 0.3493398665417616, -0.07452843630312231, -0.05228184308039437, -0.05766200910452772, -0.05691651288597926, -0.059780174797918646, -0.05042772069724317, -0.05466334294540746, -0.059365402322421844, -0.051054644260279974, -0.05776871428133846, -0.045655157792966194, -0.054815489293158354, -0.05259780150242651, -0.06484773242840267, -0.05414512383518399, -0.052871693953938134, -0.05238608494558513, -0.06283563222745199, -0.05956519171917335, -0.055634834077082224, -0.07937261484882155, -0.055808162390443165, -0.0674090605062133, -0.06395938206430522, -0.045793524281405734, -0.04970226283221843, -0.0471320128371692, -0.24049178073095934, -0.05654305117397792, -0.06277154259191098, -0.06404218044151748, -0.05711989581553802, -0.05370598129605247, -0.058276544390947045, -0.05595223579497876, -0.06621999088594466, -0.04264837222299998, -0.06031654272670742, -0.056566608464922966, -0.06480918856241305, -0.05784826403426431, -0.05566940140046735, -0.0586009157693827, -0.03974402607282228, -0.0562792738528301, -0.06337415498617205, -0.04557635738935804, -0.060137217430849384, -0.07986823300247486, -0.05425481291326046, -0.05730395158761199, -0.05769930201039955, -0.055480216850090316, -0.05385333919498343, -0.05872166344913284, -0.04613231786398928, -0.05379059056743859, -0.05786738536707886, -0.06023234600811612, -0.07051239987042518, -0.05884203545856668, -0.055843073625492706, -0.05376121809052648, -0.05518854700115321, -0.07425970696002386, -0.057525541935296055, -0.053566476941502926, -0.52171064819731, -0.053768330724601424, -0.058609961139609715, -0.05414990489979844, -0.05487372802623668, -0.04851153691459573, -0.05620980391236306, -0.05581865187874221, -0.0458141425826586, 0.0297342038005514, -0.06464708984552558, -0.05624180440646597, -0.054900123017911806, -0.04093467775958771, -0.05597069115358236, -0.04695538448948616, -0.061112739608954574, -0.05908904641233583], [-0.06685034213648101, -0.07384215551216033, -0.0668081932385631, -0.06560975428932816, -0.06856036954538826, -0.06691127238831397, -0.05924125731518606, -0.07026850788292978, -0.07377460892857421, -0.06399825654877536, -0.06687765304469079, -0.07198855036521111, -0.07643470422945944, -0.06718860225772177, 0.025255155501864298, -0.07576093481941526, -0.06463692447479763, -0.06277351708901015, -0.06468320755568117, -0.06967193159518772, -0.07366228946260381, -0.0594360399158314, -0.06509662135892313, -0.07885392216771121, -0.068786642476371, -0.06625848891845175, -0.06678371115594764, -0.06202182470687936, -0.06821765899793038, -0.07460397631394253, -0.06258113261711723, -0.060173411169294234, -0.07115757773251431, -0.06377984312033365, -0.06452716766047331, -0.0836471178751179, -0.06945847672319465, -0.06849673810645877, -0.0701352150046099, -0.07781133537450674, -0.07266293449094312, -0.07326077790750206, -0.2569820384344574, -0.0684959183570472, -0.06590531880457803, -0.06443401902050737, -0.06276169751363184, -0.08995072605563027, -0.06485729636934034, -0.08038949092628703, -0.07250947746581402, -0.08431744398962815, -0.07218523267923854, -0.06543324390492533, -0.07315841726958607, -0.0692129402901855, -0.059926260658582586, -0.0639407521125328, -0.0634565135505153, -0.06712913842046035, -0.06518362795513184, -0.07092373889895781, -0.06401690111263662, -0.07602610338693146, -0.08269385314451047, -0.06752996407376075, -0.07059768471799793, -0.06753885997475423, -0.06569014057187689, -0.06448515541388802, -0.08738991039762548, -0.06884294383708985, -0.07441881304990754, -0.0634252882607903, -0.0703315157106883, -0.06436723552899636, -0.07981315962589806, -0.07145809423641318, -0.07698644303443541, -0.07161994943515854, -0.0815455789749092, -0.07150288728251514, -0.27078345425063977, -0.07670403078760785, -0.06579023553427134, -0.06320149292639234, -0.061744883805181026, -0.06845746078020196, -0.06276325637118209, -0.06380396567172532, -0.06276513768166542, 0.05607712278903877, -0.06984103105116768, -0.06399762686368309, -0.06380603858578536, -0.06502926142305987, -0.06280112956444213, -0.07378887357609921, -0.06437310994260148, -0.0615687348087217], [-0.046452322689070076, -0.06648695698791182, -0.058576799309433956, -0.060950497631079986, -0.05981518067737049, -0.04752426592226996, -0.04447329048981904, -0.05897849060324709, -0.07083406849094506, -0.05048805435771201, -0.05537727156927783, -0.06963407717884411, -0.06843496921884985, -0.05967229642038609, -0.23949023028987387, -0.055090570247465345, -0.05613880632996277, -0.04844504679893714, -0.05157280089738723, -0.05859147232655568, -0.07033090839906189, -0.04499107325452332, -0.05107520788443728, -0.07744777270152883, -0.05903524708366526, -0.06213954133547656, -0.05691962059704688, -0.05166168724665088, -0.05180742668104614, -0.06988866860640774, -0.05185805859232489, -0.04898647633304932, -0.05778175274646013, -0.04901808733011835, -0.053463610480109336, -0.07048721931281667, -0.06097097179970515, -0.05100020742868706, -0.055836961015834796, -0.07902459175988633, -0.0695258911963122, -0.07176528027470226, -0.23043668110919266, -0.05918295734975653, -0.05059003534333191, -0.04749777645475854, -0.048984293338468016, -0.09263656634018981, -0.052224083929256815, -0.07755062530360023, -0.05869138473688551, -0.08953311045732325, -0.06186769472111414, -0.05365200956493619, -0.061496885855624614, -0.05881739094383308, -0.04613698858809185, -0.049892178833730275, -0.060881526006151945, -0.05676426115849431, -0.04989231412836083, -0.06878216572113025, -0.04828918841218131, -0.052975859898866565, -0.08161562349376582, -0.05750792266286577, -0.061521018582565944, -0.05848236397996717, -0.05566038436694811, -0.05094726260931891, -0.09253106239331367, -0.060940696431907054, -0.06752902664279826, -0.04711805953462513, -0.04978596067950834, -0.05005680719134889, -0.07675390421042465, -0.0651371035900309, -0.07295039984479756, -0.04997928531350886, -0.07840157954816554, -0.06570961294011446, 0.03030799543236939, -0.07311838473763105, -0.052759566738311905, -0.05071115633877845, -0.04886302046112299, -0.06388998253601076, -0.04922793851126651, -0.05149594923245929, -0.05692525930200489, 0.0691197722263032, -0.055279282271513804, -0.05227870246888249, -0.05233665301968725, -0.06283119589002278, -0.04934712848335819, -0.07230930395035481, -0.04785746376035462, -0.045188246772803815], [-0.047411630454370954, -0.0804656123079681, -0.0714336003367431, -0.07593923393779008, -0.07083203964042992, -0.05272958508728474, -0.05378909629026488, -0.06970355766394495, -0.08878932012609639, -0.06151705591743017, -0.06489184770740165, -0.08404562817829388, -0.07510349353619569, -0.07007201740035357, -0.4517458559597143, -0.06009191530866098, -0.06682627466151438, -0.05748128741368524, -0.062189689500472975, -0.06775978158547072, -0.08369674625760608, -0.05483101801006494, -0.05961075196361624, -0.09225793582460425, -0.06672025549410024, -0.07589243000626876, -0.07040666684144087, -0.06032059968942798, -0.059297781509394513, -0.08147300615827076, -0.062217484113582355, -0.05820877265693874, -0.0676967279078161, -0.05638539793934565, -0.06388901721864265, -0.06293028325390643, -0.07250969057625077, -0.056144513770844326, -0.0637599490875589, -0.09516633023427687, -0.08420297600109253, -0.08832722998482798, -0.21695224072646677, -0.0700722443510311, -0.05648191631438929, -0.0505738937298731, -0.05806591681060926, -0.10495884047959954, -0.06122429352595955, -0.08853452019082789, -0.0661955942614612, -0.10770851232479203, -0.072822040555453, -0.06404517389736683, -0.0673090785496883, -0.07097708672908214, -0.05403140661042384, -0.05925789965686136, -0.07857722488414683, -0.06762924482253582, -0.052453418761025244, -0.08609206276832446, -0.05637894577670332, -0.05149617240153412, -0.09588488859057596, -0.06569255156756364, -0.072851455178794, -0.06852357708863276, -0.06798719857302465, -0.05987171844937856, -0.10909777248653482, -0.07505442179681371, -0.07607987687501405, -0.05520159185845938, -0.053863333675893944, -0.05872442942370256, -0.08967041075061305, -0.0776894015874469, -0.0865351701057689, -0.05167609640335024, -0.08845938620535423, -0.07785014138005815, 0.3901559199975931, -0.08736493449835525, -0.06219856223630595, -0.06284074354897216, -0.0584833939078817, -0.07709856500739046, -0.05960584225608623, -0.06174259270166846, -0.07197190023355439, 0.0837809219768662, -0.06241892273121696, -0.06122741499426527, -0.06258576655963682, -0.07942221187094355, -0.058961663849610386, -0.08840234115522819, -0.055722720796499044, -0.052381913358509585], [-0.033068936058361094, -0.07403303391182575, -0.06399853350788327, -0.06939977603546577, -0.06143892906682864, -0.04394978801987276, -0.046196084654743376, -0.06140873595850317, -0.08499073295241559, -0.05547408617518036, -0.05510643726718299, -0.0759848006807298, -0.06024420699298774, -0.05941403580744196, -0.7410852955171741, -0.05316673677906733, -0.05697523225646886, -0.04918287447721895, -0.05510459520722141, -0.05717160116177056, -0.07466783823969213, -0.04782975529764223, -0.05030119918847985, -0.08420364672261109, -0.053647112919728214, -0.06779715471935163, -0.06499033174179847, -0.04878928480008769, -0.050625544756826166, -0.07110085595662846, -0.052993576159344934, -0.04795752909393189, -0.05987469615812491, -0.046042801412689766, -0.05510564501801096, -0.033649096554611846, -0.06359958963721807, -0.04504644234286559, -0.053787151074701556, -0.08819119715622638, -0.07679199482631975, -0.08246443747013507, -0.206950965475971, -0.060863177703408725, -0.04461463572012262, -0.03605166042849347, -0.04937059121886135, -0.09432568185046551, -0.051634681766584756, -0.07727706879451918, -0.05532079133069195, -0.10191366844921075, -0.06422839759408291, -0.05562862703559811, -0.05290730903918567, -0.06399652268837132, -0.04375512487023408, -0.05119690975031067, -0.07415003971111622, -0.05886508153080254, -0.03606808020408092, -0.08113687699411423, -0.048014850562794816, -0.03653008033755406, -0.08738926516242011, -0.05345541978336734, -0.06400225363053272, -0.05803151202620947, -0.06089614297991776, -0.05073809451470907, -0.10206213621022346, -0.06910130832295543, -0.0628793913089963, -0.04741956784728699, -0.044780046039487105, -0.049832943815184085, -0.08031658474045587, -0.06887441558132937, -0.07822239885528692, -0.03995577457901281, -0.07627032994982234, -0.06847178258227055, 0.640020368265469, -0.07957698542367109, -0.053366373721191136, -0.05761327206686452, -0.04980579005972472, -0.06850873983878408, -0.052609822759804296, -0.05356531898101644, -0.06618564858355741, 0.044824788995751215, -0.0515879639455478, -0.05088818561227655, -0.05369421409214956, -0.07371322556197156, -0.05069134499592091, -0.08183838769414972, -0.04782227074797259, -0.043221907581402624], [0.006706268732519319, -0.03458429091726336, -0.024585299043281713, -0.030758927475957636, -0.021070439479019366, -0.008238096964647595, -0.008856605705197066, -0.021796144156171753, -0.04639997517054527, -0.018573859079236074, -0.01479501638502041, -0.03695118502076253, -0.017736221764688875, -0.019095237334010254, -0.9045282502807799, -0.020587754623131335, -0.016906056404152242, -0.010928415027916773, -0.01726624698575046, -0.016179839944277276, -0.03484569102599184, -0.010694823081106971, -0.011095180846675433, -0.04436785856590491, -0.011712804377790704, -0.029152297917383434, -0.02704581800188894, -0.008024663452843497, -0.012979836685136054, -0.030832452354984177, -0.013193409381116695, -0.007927679262286411, -0.0213610569349364, -0.006472241109061382, -0.015466753025216134, 0.01482906212770005, -0.023348995562893052, -0.005926559995560117, -0.014044761905127033, -0.050180210444660325, -0.03769011937187929, -0.043807387653302894, -0.17176876561306348, -0.020574235842196472, -0.004032069247410586, 0.005695842205708538, -0.010574140295966749, -0.05723086221489549, -0.011835405147134076, -0.03754980743323402, -0.014620194395093138, -0.06454044296765438, -0.024106155940575223, -0.016261778681633157, -0.009808033533236579, -0.02503702400688708, -0.004054025230331756, -0.012925020634650241, -0.03619290919256341, -0.018971287283610774, 0.0072931540748341, -0.04247693040907536, -0.010353748413465879, 0.0015306943918336055, -0.047664451364487326, -0.011942762624812997, -0.023689851643540753, -0.017299226921034323, -0.022003380785909, -0.011499466015199225, -0.0653877390573826, -0.030314863924571455, -0.021199789812627077, -0.010511884468069345, -0.009839306120577254, -0.011071986330295137, -0.04025461219973827, -0.028592609586631887, -0.038258064789139956, -0.003345172528648029, -0.03633356177614076, -0.02836008502139086, 0.8123612264573438, -0.0396750815288867, -0.014104695454778207, -0.021022102037574947, -0.010845330584597076, -0.029170903534277655, -0.015053626336919472, -0.01463026855028017, -0.02797151146470776, -0.04470756741919514, -0.011317854508647647, -0.010485382184827996, -0.014082038477916364, -0.03571633369983046, -0.012165298961841691, -0.04281190769767653, -0.01103756943142763, -0.005251183901631856], [-0.10390559783519011, -0.022329846841258952, -0.023266571332604534, 0.0029747791979148936, -0.022795640518350924, -0.1049427362089214, -0.07164923604380338, -0.045727851786909524, 0.0034278711184570422, -0.06734601674528219, -0.04332789264029363, 0.022670524637664495, -0.01083803895607605, -0.01066547320389079, 0.8314154250258453, -0.11882718714669419, -0.019317467510924134, -0.06736273405527923, -0.062068464224349175, -0.03926977934939685, 0.016320523026701367, -0.07082720796389888, -0.06343427682256211, 0.02902336051201034, -0.023846139630624756, 0.011034830685971015, -0.0418308364960356, -0.029179949803660614, -0.0842696989777465, 0.008235962321262098, -0.03723100907555338, -0.037948477229443105, -0.06379486550428191, -0.06659680794918384, -0.04076609168482948, -0.04643688094411505, -0.022239297886754234, -0.08701806060610087, -0.06561772983161167, 0.0463260971530052, 0.01535331694981923, 0.024013872345117586, -0.21622250198813633, -0.027915367079009986, -0.06801624488779404, -0.07576685259721545, -0.06207841277459516, 0.0559307516458412, -0.05168955180969675, 0.021605048146680163, -0.06010758287491364, 0.07661669935504355, -0.03853143349757268, -0.048015432162710314, -0.037232513049347125, -0.042135657293985176, -0.057716675655270236, -0.06615351867701745, 0.011899810019587932, -0.03700023704486782, -0.060794857640095415, 0.016581374655496712, -0.07851461369718883, -0.12381085470673761, 0.031827261203829206, -0.02731175380060653, -0.027532776603727827, -0.023239719928481915, -0.03860519740755087, -0.05962692237473427, 0.07489462264532334, -0.025754334802662763, -0.0039761396153767175, -0.08346967573976255, -0.11340999160985857, -0.06608681415554478, 0.018055348405779475, -0.006054630439432689, 0.00949923394943654, -0.1172244840514352, 0.01967697100441434, -0.001445036153514968, -0.7901332542551109, 0.011941692417705499, -0.05734981707539449, -0.06291442504124732, -0.05497630133697345, 0.007026704276462336, -0.06502756546975157, -0.052022855720027655, -0.007298765524415762, 0.12833190158030572, -0.06558557608247796, -0.042777812607298585, -0.04431890008622202, 0.01979820071914323, -0.06093034547876585, 0.026297360984016895, -0.08561403718367391, -0.08040191688175177], [-0.14081348398771135, -0.07025269267002335, -0.06852129493187847, -0.04392205100975156, -0.06717773559718326, -0.14289900688435164, -0.11150017105973997, -0.08930723721307003, -0.04871001948632448, -0.10882971531921148, -0.08600438543600754, -0.026630430743925383, -0.05471326214851523, -0.054383448536191585, 0.6911321654262895, -0.15798478204107214, -0.06220561067727696, -0.10769396429600622, -0.10398417443221472, -0.08284736058880122, -0.0327520838849321, -0.1104147330404631, -0.1044226597019796, -0.023789161553255115, -0.0667534224583676, -0.03525602503363056, -0.08594657429392909, -0.07074572028909745, -0.12406804548820528, -0.038821428974447285, -0.07977647641887517, -0.07877460247743166, -0.10675681743343365, -0.106752421627048, -0.08287784598537073, -0.08158024026539666, -0.06726136342922584, -0.125878140254054, -0.10747001404486686, -0.006647661705881751, -0.0336380549338669, -0.02729519686146874, -0.32009517852391195, -0.07179949768863135, -0.10790196815691762, -0.1144017623950604, -0.10266132710279444, 0.004879613902281633, -0.0927591801875447, -0.026129263327447094, -0.10221592020530806, 0.016907427477075188, -0.08343113790186575, -0.09058396868476053, -0.07991481363150658, -0.086346820260272, -0.09724667762924222, -0.10651043814325926, -0.037922520854064584, -0.08059132356958096, -0.09998762150567034, -0.03518464066746939, -0.11828464752458542, -0.1610345300678806, -0.02093350569302016, -0.06977459060602115, -0.0724216404060627, -0.06675726012614966, -0.08277343949644342, -0.10039662178529019, 0.017780746298170835, -0.07171271289020661, -0.048945345434944845, -0.12270341779609026, -0.15151967366617858, -0.10689024968390684, -0.031701395219911305, -0.05317600179061273, -0.039679330580425644, -0.15429685612250316, -0.027390216269480804, -0.047710745235435593, -0.7247111503498027, -0.03826958523874746, -0.09912472710358522, -0.10522717366495007, -0.09617149629806612, -0.039571582100004284, -0.10595932803318671, -0.09391293502799775, -0.052758731450468686, 0.25847153074240364, -0.10686189409264363, -0.08433113142119221, -0.08670939860416736, -0.029222634261189335, -0.10230423487529171, -0.02565972042793045, -0.12499737180647531, -0.11933512551147504], [-0.12564319073349695, -0.07885964630604594, -0.07306378367378275, -0.05410379388727226, -0.0702559887935699, -0.13058999507668034, -0.10429336586058086, -0.0893098980782373, -0.06612011537322496, -0.10472132020557906, -0.08456624930357723, -0.04287350186990145, -0.05884504013077223, -0.05823780125906023, 0.4011717328757685, -0.1467430285699304, -0.06375486252969761, -0.1012986187203817, -0.10067422738485618, -0.08298536877692388, -0.047611608389949066, -0.10297862210783211, -0.0991501360131589, -0.04507832690294297, -0.06736452320354804, -0.04595628591907962, -0.08765336528019409, -0.06905110341391346, -0.11585684993418915, -0.04997083795815275, -0.07883421511374486, -0.07516144367748367, -0.1047823852111208, -0.09968521049922469, -0.08107155602660693, -0.07078177820877034, -0.0713998887483681, -0.11541486370328667, -0.10316760582410527, -0.031488992074264845, -0.0482173976224584, -0.04604077529672385, -0.3616596764505542, -0.0736869378221006, -0.09991917326685232, -0.10341005529276608, -0.09694223508288245, -0.0214662860918112, -0.08830157779886742, -0.041038422414227, -0.09835743609275524, -0.02084464781766685, -0.08590595017289135, -0.08890239983891705, -0.07831693629533293, -0.08775462833756066, -0.0898321973521644, -0.10034954059385444, -0.053233636351462346, -0.08131577001124841, -0.09053695934249238, -0.05336670070794341, -0.11038257731158416, -0.1455443761256173, -0.04278847303567693, -0.06937395291492499, -0.07582937666074786, -0.06856133962880448, -0.0844996670305263, -0.09496673191880013, -0.0175348345639987, -0.07733402915200019, -0.05552892472865757, -0.1138073876858613, -0.13884412020402787, -0.1012184558350055, -0.04772860237660532, -0.06213180178674749, -0.05346100406951042, -0.13942495840587432, -0.04137984416485334, -0.05625591513377735, -0.5331539678423252, -0.05368657199098785, -0.09549988286830641, -0.10290397619153344, -0.09188250317313319, -0.04993611809427093, -0.10102509285807953, -0.09103696827506964, -0.059695218051516896, 0.4087908345358415, -0.10149137748241038, -0.08116591013190501, -0.08498033852319961, -0.044578757964408085, -0.09801887315238075, -0.045477589014157806, -0.11619402759821452, -0.1098154456761696], [-0.1029802353739377, -0.07389133367203472, -0.06433049184056248, -0.04936448200983352, -0.05934798643421766, -0.11202495478869212, -0.08833382404222011, -0.07733658343402919, -0.06886740992042224, -0.09152852815844874, -0.07094661334025965, -0.04186659195869134, -0.04596635706645125, -0.04696907633312501, 0.035224680959537014, -0.13099539238136795, -0.05128554770206269, -0.08530819598946007, -0.08755416424256367, -0.07018033136825376, -0.0453451056627422, -0.08685052435331175, -0.08361689139703578, -0.048054552186532776, -0.05328631693391459, -0.04065055869611706, -0.0780310278080149, -0.05403174752460356, -0.09915892645084538, -0.04394111949520256, -0.0656518478974043, -0.05928534993701795, -0.09250469493220613, -0.08248687528010017, -0.06716302453536274, -0.04257021615176797, -0.06159426834018992, -0.09618867303256563, -0.08826793699560624, -0.037387766446531086, -0.04600808609469441, -0.04783714643835473, -0.39041385292482705, -0.06209590010862964, -0.08147670367675015, -0.08235240208037588, -0.0811077510989956, -0.02681671032597325, -0.07249291121819731, -0.03704035189442002, -0.08302802521849825, -0.03752682011985727, -0.0756668634592242, -0.07581426323768467, -0.06253514411242887, -0.07727659545097622, -0.07181487985664915, -0.08448775037903677, -0.05394467108811958, -0.06954498481182433, -0.06940946333151403, -0.05562026973799591, -0.09381764614526875, -0.12412344858298156, -0.04541253373995729, -0.054877984770216416, -0.06561481596857978, -0.05631383011201252, -0.07439409804728399, -0.07902349296576087, -0.03153973481443678, -0.07013378760927452, -0.04529289360294823, -0.09688598830632399, -0.12069918679842838, -0.08562024987303703, -0.04549772562782385, -0.05567548316119962, -0.05015196806917712, -0.11870639153875286, -0.03626948672698162, -0.04888513268579061, -0.26012265782761484, -0.05208392067754767, -0.08112097680730772, -0.09145053651530058, -0.07695628072659504, -0.044338286756644425, -0.0866652966642811, -0.07722436525347759, -0.05280534835670749, 0.4492561023560943, -0.08537210409053889, -0.06587278736868205, -0.07160005427640262, -0.044227250004677705, -0.0836345475885708, -0.04795633871724655, -0.09951947232643231, -0.09178607926382548], [-0.10753518224133694, -0.09248295859760161, -0.08091740277143267, -0.07024035918785394, -0.07455487935390517, -0.12001240181513155, -0.09894789676774415, -0.09088204902093958, -0.09318862770182912, -0.10410841626522425, -0.08329811765554707, -0.06640511891803876, -0.06032339795803384, -0.06279410335587562, -0.23087631118609525, -0.14029184178642498, -0.06597901589605551, -0.09588801035668083, -0.10005127376058014, -0.08291223330759007, -0.0681925318109852, -0.09769560319136336, -0.09425297253202973, -0.07452565958604505, -0.06577585817479212, -0.06205161937546224, -0.09377340334801722, -0.06600113094724475, -0.10881323676259463, -0.06445469109310846, -0.07867989103435051, -0.07073885360691909, -0.1051398271364433, -0.09185100023304081, -0.07995633491938015, -0.04298204791242467, -0.07743930466771667, -0.10373801748710185, -0.09897828096652714, 