[{"b": [-3.8738623144786763, -3.8802718038289647, -3.8562567131747163, -3.870109000311091, -3.6343845998767472, -4.268426714031116, -4.444093296500987, -3.8168250126625005, -4.1333750512033935, -4.2457438123374205, -3.8220816930752264, -4.120899538710932, -4.841998135718314, -3.728200385255439, -3.811106451306871, -4.427266541902118, -3.9000772283286382, -3.7427172559097417, -3.9211755420642627, -4.062328255923113, -3.7706290494558443, -3.6628206764590088, -3.940695851163394, -3.7305352803406815, -4.3780426531276, -3.8542543527544812, -4.187839088456004, -3.9423340320012814, -3.6983721722874656, -3.843141782862241, -3.762781165136405, -4.936391067503693, -4.011320528037271, -3.9946269585048544, -3.7123278121203453, -4.59053350324815, -4.805219169868468, -4.592730325838892, -3.9899176823568796, -4.707515425556955, -3.7623582698300817, -4.016259647213164, -3.627098796292729, -4.704260604410717, -3.608714038672056, -4.193968083566753, -3.612427043212507, -4.375870598191678, -3.607981286215039, -3.855818863130183, -3.6072820435142825, -3.9314686621841552, -3.755101620252014, -3.755153950171108, -4.514001011952678, -3.853988189380137, -4.1930355955905085, -4.05359158190066, -3.7640289370300404, -4.726343640141793, -4.321602127851805, -3.960568770160414, -4.105940032713584, -3.800025394889116, -3.833407543513848, -4.147963156062009, -3.816137881588748, -4.202742869207129, -4.099417657361308, -3.8664066920470606, -4.175146024810389, -4.316795572636769, -4.313009444117657, -3.7032475905498536, -3.714358851991907, -3.9153619282015955, -3.747057316044793, -3.7395146334387244, -3.830937353855762, -4.538060938721853, -4.090751770378702, -4.169688288687777, -3.6761927073224987, -3.6511245292357555, -3.828981333353181, -3.6575324968073164, -3.6494839341510232, -4.044795304690763, -4.525655133244552, -3.6015925695250464, -4.026345223634212, -3.786372731754572, -4.527067813430338, -3.8906570788155093, -4.170063548544876, -3.7579167104488405, -3.767962628233134, -3.9341573751939505, -4.016982029113522, -3.7527921885816458, -3.637977073328021, -3.7850003733319597, -4.214797248345753, -4.060307585028113, -4.491868475999677, -4.633388646518136, -4.077297336554343, -4.667028443206962, -3.672660905641098, -3.7512447311946526, -4.200413030395605, -3.6038896339570785, -4.011009752492414, -3.7733347734905305, -4.082636043151492, -4.04828532466947, -3.6155551570991293, -4.361071295621479, -4.65051739725067, -3.969930684648043, -3.634542373010537, -4.613399781174368, -4.112265572963678, -3.6313792887885965, -3.721940330354377, -3.6990304812344084, -4.661236929800372, -3.6797751889165182, -4.707350997317781, -4.465966820281806, -3.7707896733638533, -4.084202736579667, -3.5995631418526863, -3.833801988866856, -3.8988001290289565, -3.79123363569265, -3.692909711174707, -3.9072240721924896, -4.404171390605966, -4.078951082408295, -3.693464977366904, -3.9447280653535794, -3.638842203467338, -3.998183263056879, -3.9857764301748118, -3.8001892730081113, -3.9205112124649317, -4.101484037983508, -3.8008808636470928, -4.237525533899778, -4.036478447544039, -3.9764226727618346, -3.687562035312688, -3.7892722083282835, -3.839008769638634, -3.6576660206576603, -3.9042922549502577, -3.7193757440432447, -4.160302383567247, -3.805999533234003, -4.004999711190282, -3.774086744787535, -3.770965528285529, -4.110103047192364, -3.9286658631119056, -3.963259956445084, -3.7985205670261983, -4.503450576019218, -4.073918090316155, -3.9888885964114453, -3.7073982392822082, -4.313890665922244, -5.031926329008112, -4.225907374554377, -3.663760697613502, -3.855832956937333, -3.8008867877382544, -3.6709455932288053, -4.27094652728076, -4.454587286539133, -3.6157843382572534, -4.211118001377448, -4.065082713635282, -3.742208894675604, -5.0438758242605095, -3.8625196332270804, -3.707087201344468, -3.8886296823159507, -3.8285366343539375, -3.8077671493093233, -4.2690903322716744, -4.6599537762104974, -5.248226842035309, -4.014985981814163, -4.344672023753582, -3.7366026252890507, -4.064621378375755, -3.738344228480322, -4.645765271671501, -3.8891945402401835, -4.220948861319601, -3.6681997891023235, -3.8259796370632464, -4.007933648224304, -4.013869359818653, -3.8593873411061215, -3.7067893866409842, -3.6686994508270687, -4.135307124704527, -4.38574976291428, -3.857797022660649, -3.911311260975231, -4.221904918588552, -4.605453014003833, -3.874724653835796, -3.7727315296395423, -4.001286598225501, -3.949814326595244, -4.636629899446083, -4.2221837463995735, -4.135806749039173, -4.034653229643008, -4.181569698940461, -3.907386775983914, -4.236576008316486, -3.6408550914051174, -4.708886352918451, -3.7375727175485762, -4.171331512458565, -4.386715411658799, -4.207976517250417, -3.729939395068616, -4.727732236938209, -4.014323703325168, -4.037899211051527, -3.835914470595749, -3.743448815254088, -3.831724834705921, -3.681723006745355, -4.232367034231419, -3.945715542573449, -4.292874158621894, -3.903425145090223, -3.7635967633986134, -3.748099212304751, -3.8232893592939736, -4.393256957271466, -3.769168324904271, -3.699972973954789, -3.8227355669083676, -5.115944773330749, -4.221584030869879, -3.764041777315516, -4.125253287440478, -5.046608358985024, -3.6360614294602103, -3.708719528444983, -3.9080675825814475, -4.056419347997627, -4.296066443657189, -3.8877875110462656, -3.746626134260485, -4.384081662457454, -4.451308030469988, -3.629221487385701, -4.590136089557452, -4.023104928434183, -3.6191364638273957, -3.635429258384893, -4.752794119896589, -3.765057515600908, -4.181294387703945, -3.836163852438909, -4.46143330201441, -3.949617433377095, -4.507445980114895, -4.141085755278001, -3.7664305238652593, -3.9483308972675033, -3.8929403008867585, -4.210647777902416, -4.358764353225955, -5.198703596455595, -3.664063940951247, -3.7987063177719858, -3.711990768950626, -4.032888835340495, -4.14848453712459, -3.6158289498335656, -4.016960585194749, -3.983282703701441, -4.647245217060823, -3.7743150631280034, -4.046611461165423, -3.6917631205111414, -4.617776091343009, -3.816558795020188, -5.060870974787862, -4.859129037727817, -4.1638589743475, -3.8910292527610597, -4.6014707815523455, -3.7956243885384917, -4.658009081780532, -3.7888070502952944, -3.6621979563362324, -3.85688498193113, -3.9303018529272817, -4.819719617893251, -3.7307047478116266, -3.684503060038596, -3.780638375779041, -3.7213353414191848, -3.699809427659461, -3.9691371230532524, -4.226297031429114, -3.716451805046353, -3.888473806650669, -4.036845628882629, -3.6797460651915332, -4.556748813924033, -3.6721890943552777, -4.525052471298759, -3.8249818771068727, -3.72575630302508, -3.774968128010489, -3.715647977138862, -4.473946048483843, -4.158208798824316, -4.469243541752291, -4.39540392007186, -3.760940902539737, -3.8029867842029255, -4.0020178025849376, -3.99290484528237, -3.6428155379037874, -4.5568770248442565, -4.509929799970823, -4.642240996690516, -4.264174116565771, -4.369606506855641, -3.841840220703535, -3.6164672547626666, -3.884165898234219, -4.432135397982066, -3.961940328897634, -4.213447350660946, -3.749492908760126, -3.617687990198506, -3.9127901401329104, -3.8100595258834677, -4.039547237035535, -3.640118131115616, -3.62027179533221, -4.453517846728311, -3.9147544484489547, -3.7680547832022318, -3.8873040567384938, -4.0550549797172035, -4.065699752317633, -4.71218426488677, -3.8471710669636776, -4.703519988349129, -4.724730638223108, -4.4243281368428375, -3.7577921918212582, -3.8070178734343583, -3.9368802856823013, -4.718676002504995, -4.08886986391829, -4.1696170112954825, -3.817285726504976, -4.341550553781374, -4.289750404857066, -3.934074898192438, -3.902678347821573, -4.134600916872313, -3.813402328110237, -3.705108347579318, -3.604964453197071, -3.9685111519594756, -3.813010999557044, -4.277048608322994, -4.086759112628469, -3.841635854054831, -3.9934147820869104, -3.978791122532386, -3.815790818462871, -3.8389352731513595, -3.659548345397625, -4.10652532422202, -4.030640622886295, -4.65259299490469, -4.041362562641702, -3.6649324705919746, -3.7251708035446858, -3.7600369559186113, -3.6178531294013707, -3.7882756882245867, -4.645408587240482, -4.3877544004584506, -4.4418359446935645, -3.6259952321672833, -4.024788299400076, -3.7057730346170383, -3.9487393069179633, -4.0184355203236475, -3.6386534882335195, -3.988752536862705, -3.882469550672757, -4.558083735417839, -4.073751125221317, -4.041625426431058, -3.839811359750286, -4.255485287923253, -3.6131422807017857, -4.202104369661463, -3.993487069240205, -5.25591993046863, -3.820799270891701, -4.170976767684695, -3.6660391216293657, -3.7524562954890053, -3.796168381257115, -3.7194770523798706, -4.201474276004436, -3.890562323834516, -3.742230117998114, -3.660847371100233, -3.8055707766713303, -3.7958538474502004, -3.8304589885286005, -4.810058346838899, -3.8436352524351722, -3.8304710435519564, -3.8656216659350147, -3.8236505437346078, -4.030034055633303, -4.06253691925547, -3.760576485753736, -3.9560495421906015, -4.476676838059046, -4.222948003225949, -4.289475201302183, -4.446278018441323, -4.2020713991675995, -3.9362110957281575, -4.629139129262634, -3.672259155027597, -4.644667110591162, -4.225500234291899, -4.214094179039387, -3.8605376919578887, -4.150303013106845, -3.9336857238235305, -3.696650493648225, -4.012544698001103, -4.030344001116457, -3.7345921182188975, -3.6853978012927375, -3.9465908191670453, -4.244771753265156, -3.770603202228437, -4.27907456217824, -3.7389893321438334, -4.714622708996777, -3.643190185801323, -4.463964577510754, -3.7869968731911383, -4.821239626820979, -3.985588394445106, -4.058748001949577, -3.7155882303156877, -4.469405599500378, -3.7213229634401688, -3.6548197512722376, -3.648770126436675, -3.8163983811425477, -3.7954470173639328, -4.696446799265849, -4.815813640984847, -3.6654844951694696, -3.668758513069126, -3.691373848715543, -3.6965924527172995, -4.106150779890403, -3.861004463641231, -4.30245884829575, -4.072301252162727, -3.698360588628304, -3.798788315573454, -4.109484251112578, -3.930260465528038, -4.052472696388244, -4.80813550620971, -3.8951783928300383, -3.960088398003051, -4.1423414955340245, -3.634027246580417, -4.453788410554256], "name": "hidden0", "activation": "sigmoid", "bias": true, "W": [[-0.0023068498439658847, -0.0009392847259758228, 0.006627065967766251, -0.0024813255356221833, -0.005762599788969712, -0.006092627009365973, 0.0007391019292397984, -0.003520403494010082, 0.0040756228355550515, 0.006277842638920954, 0.0016788608786155893, -0.006270220493236171, -0.0059107941228667485, 0.004881255203187397, 0.0029220532859834327, -0.0036830161112097262, -0.0009071637167726751, -0.006573305253541982, -0.002842384550536367, 0.0039658036434721535, -0.0002997910715076401, -0.004081275114778489, 0.00017741512244713188, 0.004492602572416869, -0.002919622177139278, -0.0038952264122766307, -0.004665903724333725, 0.0013374316411526696, -0.0032860821481747807, 0.005654913269522343, -0.0052539186999616535, 0.005095795405685188, -0.004389837930307103, -0.0034009840736033054, 0.0037168401733153615, 0.002954989338028052, -0.0034781401741396318, 0.005932700877592538, -0.0007861747341538745, -0.0031109367519532227, 0.005752767402987809, 0.0033577576067435346, 0.0015709121946020114, -0.002181529131268937, -0.006675041480810254, -0.0025210902930891455, -0.00309238622506288, 8.585366929946166e-05, -0.0041253875965372435, 0.0027517725012294104, 0.004132513201548328, 0.0030813003583400004, 0.0064441468913751096, -0.0015842802670777382, 0.0012122240671029244, 0.0006757148662488381, 0.0009190565577127657, 0.0040955717191568, -0.00114974696833103, -0.005344572692624205, 0.0019282682397357886, -0.003612007346939169, -0.002809476831386815, -0.0013650246935406857, -0.005863782203715358, 0.002353907838839282, 0.001419015536116921, 0.006099241980971875, -0.0004907078997283776, -0.004644056936984672, 0.0026973921537505126, -7.132076758592211e-05, 0.0007687869425678703, -0.006207009244195323, -0.004763753939442661, -0.0056917754797671085, 0.005991234478964827, 0.006314862717027803, 0.001414496986000496, -0.0039258225930773995, 0.0012803573271378058, 0.002644030626922237, 0.0022905575063437195, -0.0026463076762166457, 0.004443336088770829, 0.004249528365530398, -0.00603192402104161, 0.0030375990404982165, 0.00033499816207735363, -0.001835346035183533, 0.004543897047548629, 0.003518297539694874, 0.0016592480190991332, -0.005810985138785732, -0.004931362837130984, 0.002504475767949881, 0.0020830838656194337, 0.0002562700839082202, 0.006051328428074918, -0.0004623797057014166, 0.0025337114280424788, -0.00022478571439148658, -0.000829961747600433, 0.005919531857456056, -0.0042041559343811595, 0.003849180540160034, 0.006392556260404732, 0.006174293340805118, -0.002483538860627633, -0.0007712116502418202, -0.006133299605515092, -0.003092635694684026, -0.001159754215344089, -0.004237614837665032, -0.0018367662599409892, -0.002140638162639189, -0.0017840618187199813, 0.0002759237616079722, 0.003281913848123131, -0.0012900387875607031, 0.003067872182199184, 0.0028225594082695402, 0.005677274986967084, 0.003362848318975858, 0.0001951421907729074, -0.005464700051576922, 0.0042185744012403934, 0.0019923756441193627, 0.00024545275525518923, -0.004729141749676034, -0.0005279361822408332, 0.0051356269741424255, -0.0029856360590664504, 0.004933967285503253, 0.0039456965446708035, -2.3220241626337443e-05, 0.0002278533200899834, -0.006146502513457653, 0.003815899179506866, 0.001956492756262896, 0.004685453512879526, -0.005732714359962758, -0.005603253918745919, 0.0037886021492901088, 0.002831271732707819, 0.003723282943263323, 0.00036657963360004023, 0.00462617464904968, -0.0015728090727454187, -0.0031024784909393912, 0.005385726358090702, 0.0036287561906418416, -0.003996567804280003, 0.0042793054279175805, 0.001257361317702668, -0.0056325696316515345, 0.0029767765131697268, -0.0006555746219792008, 0.001925369283651741, -0.003607113103450433, -0.0030613301030583792, 0.003445704597860575, -0.003662154636457687, -0.0055867167644700596, -0.006032006276454123, -0.0022058316372472525, 0.0019008416941123129, 0.004239130530921576, 0.0009549047263514958, 0.002690756200691564, 0.005921702019152119, -0.00440714386504334, -0.0019437720778215704, 0.004483143925725649, 0.0027081820048163465, -0.00040832484775446976, -0.005306904123321253, -0.0039285466253537425, -0.0034827029596046395, -0.00060923541564908, 0.00432605348733191, -0.00022176453284804623, -0.0004591868780087438, -0.0011502769952125111, -0.004957339527650063, 0.0026574986231030916, 0.0015564069819173063, -0.0027550416123346675, 0.0014692545764005392, 0.0031614243399777004, -0.0006333575885079742, -0.003926749949824533, 0.0023381370294477165, -0.003150528381951843, 0.0053452033184435074, 0.004664326708189493, -0.00649686266482132, 0.004723124701312106, 0.006054903574745762, 0.006229044379229691, 0.0033543221088160576, 0.006144067217854464, -0.002329408773002545, -0.0037715103420200434, 0.005209701722880982, -0.0014261583881296468, 0.0009093512682963529, 0.005078164883042051, -0.005847551308719341, 0.0016805249634354532, 0.001868186825769316, 0.0012431632037445193, 0.004074109443015947, -0.0018045553499006668, 0.0026523377213872037, 0.005821795209165671, -0.004063965270227487, 0.005094383701099089, -0.002927423027702705, 0.005462062048515958, 0.0019150181625344161, 0.0057182569395769975, 0.005694833879054951, 0.0006706799764721133, 0.0031857866719368633, 0.004241003396355853, -0.006106980746315085, -0.0007942446620622542, -0.005425710717244508, -0.003440265011910431, -0.004693675759688797, 0.0025542337533643864, 0.005603547717747279, -0.005059944084577826, 0.002910327582646036, 0.002617208614237428, -0.002507277340360153, 0.004927668016291672, 0.0044543081377882215, -0.0021401046374343994, -0.00012472533574304595, -0.0009321605936631745, -0.0017232776093890703, -0.002327672546235292, 0.003843960295562777, 0.002841606692156278, 0.002805107543453841, -0.003163309428573128, 0.0058805077720061275, 0.0019333366597056164, 0.0036214110798658016, 0.0015433804285779646, -0.005784151266506019, 0.0025566713776400017, 0.0003717044298242165, 0.0003623764541039499, 0.006638700772837788, -0.005647980594670352, 0.004418275305341189, 0.0012395544415137688, -0.002610529935446465, -0.003052729508700365, 0.0011617315922929248, 0.0059574174421280586, -0.005657337478206777, 0.0032106121602663803, 0.0018473373674218149, -0.0012586803790127473, 0.002031007442897541, -0.003498537338409775, 0.003852826369735812, 0.006074921306252441, 0.00383623024939818, -0.003003340150407556, -0.0021254738083732543, 0.001085735284425587, -0.0012130706932427485, 0.0025096465237197324, 0.0019887092032687347, -0.004144218104545719, 0.002490009481083329, -0.00019053027582572997, -0.0015408105341382901, -0.00481464987198372, 0.0025109469153301762, 0.004782682047072236, 0.0020500859080935553, 0.0064826542096106405, -0.0030810253861666007, 0.00031944922919567613, 0.003958725381404871, 5.401988802954362e-05, 0.0029436591163084533, -0.002023241717017755, 0.00570398705614935, 0.006113364189700142, 0.0019975757825578663, -2.708255018140562e-05, -0.0002703452483692245, 0.003809952505017181, -0.0006000422674555973, -0.005300844844468267, 0.0006023375584072129, 0.003496669545465412, 0.0011467738798682855, -0.0019282115834006782, 0.002887914770482602, -0.0014798158407528857, 0.003286523835829765, -0.0019108282210729235, 0.0023283408922120273, 0.0055607541895263705, -0.00413458136863464, -0.0054961891766979985, -0.0018019550064016848, -0.0004826290818720137, 0.002880619420263365, 0.005514159196007713, 0.006406981360983525, 0.001870356010845976, -0.0017782265293861048, -0.004069880118409456, 0.0005875518640466212, -0.006527965718586212, -0.0020460330580215616, 0.004444623026654193, 0.000704814451581675, -0.005727447507339568, 0.0066132280260557735, 0.003840827966205358, -0.004020020895737668, 0.002273091139726878, 0.002849170090313644, 0.0017691783619342232, -0.004716008147010877, -0.005557283847697014, -0.005002339265503172, 0.0046939059935968705, -0.0013633354915785069, 0.0002573754315614593, -0.005812344782606709, 0.004773995904069049, -0.00013882259112283396, 0.003923592606304304, 0.0016951684227027967, 0.005339897398179036, 0.0011601808050550803, 0.0012067522364518277, -0.0008507807210517321, 0.0007086781595037094, 0.0018068415126116742, 0.0017685359443575582, -0.006383958136320051, 0.0022990701044236445, -0.0017573142054948688, -0.002980809870799454, 0.00458150131694747, 0.004254176947194929, 0.004629448988079611, -0.005510739508030046, 0.004217934768770593, 0.00605885065634098, 0.004993083747076678, -0.004148498628471446, -0.00377482635527042, 0.004261482875050246, 0.0003112437205159996, -0.0038828237827057076, 0.0047249160017855, -0.00042625926908266496, -0.005957108261087701, -0.0010477682428111394, 0.0017281739955649087, -0.004469316554267052, -9.656901328751687e-05, 0.004144486322092672, 0.004755348088281909, 0.0030004556254423337, -0.00255237682108134, -0.00589272506216047, 0.00019912534492827797, 0.004588293139743827, 0.0012684599397376052, -0.0033640462368322794, 0.005638941441229137, -0.0032267027115387274, 0.005388406277508472, 0.004703216100432785, -0.005069211504989411, -0.004054689980619948, -0.0023679362598531023, 0.0058007515009329885, -0.001426753333748073, 0.0013469087409868445, -0.0030129136941335335, 0.00426499150161166, 0.0013584157099705927, -0.002970129641028257, -0.00023618540933998495, 0.00407945167396773, -0.006159661381386936, 0.004573628376963094, 0.005181434701477547, -3.882972613594716e-05, -0.006564610648134476, 0.003127946224200697, 0.00475816064752755, 8.652938782382907e-05, 0.004153778232726068, 0.0027724347669447883, -0.004534960529264644, 0.003492763075558931, 0.0035759749215105705, -0.0050212823765281, -0.002303156696488236, -0.003776952555966149, -0.0015645279133375154, 0.0023177117586497273, -0.0018830429819992086, -0.0016917608719996175, -0.0020806354561317495, -0.00327643722704196, 0.003520305582862288, -0.002757325288305984, 0.005255374339725652, 0.00032805567996753947, 0.004888576665693319, 8.12509011686894e-05, 0.0022541753075813477, -0.0027143977216259807, 0.00014793724620521412, -0.00589919064114063, -0.005785861716081639, -0.004641997791844108, 0.0024566960958664454, 0.005854340295127002, -0.0006128027644833392, 0.0023002920158154004, -0.0007225180454030173, 0.0040216077453451024, -0.004375319396454567, -0.002678189281327683, 0.006521793641155988, 0.003716121304736329, 0.000238122913147674, -0.005870544539683227, -0.0006767344015311718, 0.0051602527408129905, -0.00277094431293577, 0.0031156450291364582, -0.00394055118955897, 0.005173839608692638, -0.0022428281690684395, -0.00396712964857265, -0.003563642718429033, 0.0035656264142085487, 0.005924808267282602, -0.004734828600918272, 0.004568141221515671, 0.00535255947839326, -0.0039011405649813334, -0.0065084695456201725, -0.0012118433233843347, 0.004195435659543831, -0.0013611495021381907, 0.0011060013371761196, -0.00047061165354038415, 0.0012018253248004538, 0.0034015260844907527, 0.003927952250970255, -0.005182895135735364, -0.005367723427434656, 0.002453196343671466, -0.003765032174123246, -0.0003376393357455596, 0.001534100129028652, 0.003082411372710675, 0.003239043925031773, -0.006014572289032037, 0.005236894776636304, 0.005362658340959343, -0.004048586881638078, -0.0003862787594275879, -0.0027453905011112223, -0.005063999180189162, -0.0025246545437505557, 0.00010916485400834545, 0.006098377326469526, 0.0039658551926993885, 0.006495277478376639, 0.005276568982174963, 0.0024941655290511237, -0.004039549206389523, -0.006638119633468702, 0.005898909420314069, 0.000562500930194521, 3.026102279379087e-05, 0.0010195950819933276, 0.006004935960876452, -0.0006082753219347595], [0.0030159404807654, -1.5798538338769437e-05, -0.005851433629562828, -0.0055862753040979065, -0.0012020915769224265, 0.0015138817026197635, 0.004234748674609224, -0.001756996562011653, 0.003444761779404966, -5.051668385888616e-05, 0.001288025184901106, 0.0025155784487844455, 0.002339331340082409, 0.0041005012156254805, -0.005786191350507104, 0.0032783104658153876, -0.00018640073724615625, -0.0017984046220401969, -0.001868638572715491, -0.002187942946168333, -0.0008422512978977522, 0.0004059629006541161, 0.002002953612253966, -0.001995402232822565, 0.0025812306826178445, 0.0006888220398243814, 0.00039587267411558754, 0.004111552482660126, -0.003799237625531587, -0.004691299251270705, -0.0038376283711862203, -0.0061931643536466815, 0.004259021212606645, 0.0054868503945326875, -0.005576693996865439, 0.0013977141126643533, 0.006621181789138653, -0.0022123112331282903, -0.001589546347572919, -0.0028783296755609993, 0.004102102668123771, 0.003974457510779546, -0.002394735027201465, -0.00439633527891994, -0.005810632495272367, -0.004646211869106653, 0.0008757092977277615, 0.00442670832993675, -0.002194828327593183, 0.003861789219041001, -0.0032268669234748948, 0.004695487444357656, 0.0022175117257459314, -0.0014284699356985886, -0.0025859609728506967, -0.005534296074305822, -0.0055975996876398895, -0.006410108573855802, -0.004504178153316494, -0.0022689812830104235, 0.0016899293565227006, 0.00341203400343468, -0.004956004873432359, 0.003294503524593206, -0.0037143025143655346, -0.00020037361040053743, 0.004984368185964529, -0.0032152786521872216, 0.003322580392114349, -0.005707347573213067, 0.004964855075489969, 0.0030395332453986, 0.005886390550699439, -0.0060838102696573965, -0.005004396784663165, -0.002961520432077017, 0.0038862538653563652, -0.0045649416362571315, 0.006500995621076756, -0.005042385288911418, -0.0029004785341118803, 0.002338353234441584, 0.0055467232285151885, -0.002466643277781937, 0.0020856098327964676, 0.005112850356122118, -0.0006639056300174399, -0.004971473445692569, -0.0016362167997823521, 0.0007824005546420007, -0.002706436100402845, -0.0020870263358598456, 0.001825057267857676, -0.00012704011179303992, 0.000869637728580216, -0.00448392804952808, 0.0021008569776819123, -0.002476362979274781, -0.0014219398513786597, 0.004306126888822267, 0.003210080547005076, 0.004711980001638836, 0.001405987956593269, 0.0022798743526841647, -0.004153700569199058, 0.004315709846595478, -0.005533331397145312, 0.003398701900621404, 0.0028764764298286932, -0.006062663468110049, 0.0011768320223241545, -0.0004148180096311893, 0.003602255059446501, 0.0035196648098424, -0.006205683704414425, 0.006020901365269286, -0.0014979540953373941, 0.0053173272290602605, -0.002483705944482809, -0.0010025864047348333, 0.00491692829944718, 0.005171743571368176, -0.001225039971356543, 0.005940699911324406, 0.0028715202350717006, 0.0049081181471295685, -0.0035090174484636956, -0.0008075710171149655, -0.00014454574331347205, 0.004785674206612477, 0.0006775795292372905, -0.004143227363668343, -0.0011932952657593982, 0.0031025051528935643, -0.0020514365990844967, -0.0007629168357136386, 0.0033481222517910358, 0.0004154134454439881, -0.0003953541608069532, 0.0054179360054402124, 0.0022637054497735305, 0.0014122081618891294, 0.005191363677979594, -0.004952434900766466, -0.0011820679132338032, 0.0014773372018356116, -0.0034248958059103513, 0.0004326381318697242, 0.0012013432419215081, -0.0016038954309449882, -0.001353300028422566, -0.004097053382180307, -0.0037653503597660926, 0.005880829672570063, 0.005441964931034835, -0.0033272488220830523, 0.0018756390251978975, -0.0046183723119637265, -0.0042699074823676604, -0.0031013031891050833, -0.0033572290410129914, 0.00016914237951403223, 0.006614201000596257, -0.002706227067178128, 0.0032544519113906867, 0.0045669334444151406, -0.0016172537525177162, 0.00434157429983762, 0.0055318626908082615, 0.002222625822299595, 0.005539403776283487, -0.006279790183398403, 0.0024628690014929467, -0.0003007205966700295, 0.004388315245036378, 0.0065267270278765045, 0.004110359493018496, -0.00018659999089670225, 0.0003285190136644321, -0.001082854116736052, 0.0012591159157726592, 0.0020076032691837163, 0.006221408527435296, -0.003715882602671245, 0.005625143551273859, 0.004617953761214038, -0.006236911208886293, 0.0001799971045071897, -0.0048088340767673396, -0.0012748939805287528, -0.006221918547355689, -0.00628306046341879, 0.004359811173305221, 0.006665443565382572, 0.004199687467675231, -0.0016623726652543929, -0.0021082428886893267, 0.003595830013669518, -0.0028293103354587014, -2.5674532334386013e-06, 0.0014457563667576365, 0.00030629543837507164, -0.0020615001640033118, -0.006300142066244874, -0.000917876907938718, -0.0035481200682115246, 0.003436950257511915, 0.003956935248840908, -0.006121362776403759, 0.0015177736275202914, 0.0006634208917751737, -9.920542231391277e-05, 0.001275641973574964, -0.00010241249756755303, -0.002152716403767086, -0.005568865028687383, 0.0054212679950076375, -0.0038019132150606642, -0.006312883174634918, 0.005043367807329716, -0.0010246803620722776, -0.00022606861130316245, 0.001414708748260989, 0.0006452973365568119, -0.003888521648562227, -0.0009393261822249729, 0.0003271331183685471, 0.002748550034333249, 0.005502642922896329, 0.003633063889960909, -0.0005280960027302986, 0.0022170589889004846, 0.005945652777093126, 0.0010008200119013299, -0.00494327683294745, 0.001306091812403336, 0.003117389606149048, -0.005100968090918073, -7.033286673101861e-05, 0.002189947479124742, -0.002966133776997869, 0.0012584147334027173, 0.0054498713894027846, -0.005890916196836159, 0.004248867953099905, 0.00022688057567446252, -0.004077064223502669, 0.0024565014433832262, 0.005655056397616829, -0.0015916215062343917, -0.0007867743489959852, -0.003721841560324088, -0.0050050614205245526, 0.0013762104147146564, 0.00438400646693608, 0.0034679410735476575, 0.0036114890758735057, -0.004317893611982959, -0.004525956674148437, 0.0010286248992416455, 0.000312915044801309, 0.0009339324336002583, 0.0023999221527811095, 0.0005221804646961625, 0.006368864270237032, 0.00651540404007468, 0.004438385036499613, 0.0049140688903317785, -0.0026989910673558843, 0.001816932028136685, -0.003962078542081052, -0.0005823598299970285, 0.0030406186080898056, 0.00454463180610326, 0.0021020440114502205, -0.000404670117946493, -0.000511053698975378, -0.0002371589000687472, 0.0033370611697243146, 0.003170601771945369, -0.0063106283063750854, 0.003541083793802345, -0.004017408324821066, 0.0024155202244833846, 0.00033533882381608465, 0.0033256695552506834, 0.0020162669986879996, 0.0032325655677132624, 0.00048686048253605195, -0.004651888993083155, 0.004524343793374717, -0.0016483329794095873, 0.0019186460359682904, -0.002103703978326448, 0.004788231041124825, 0.00187773841925095, 0.002643274122501841, 0.0033870148744870278, -0.0035653697066676928, 0.004261354971440679, -0.0014284618535734522, -0.0029612100987132144, 0.002676041647676604, 0.004340167241882316, -0.0030762593317426833, 0.0012790942390237322, 0.00048369179817055625, -0.0008883553970441944, -0.0027031929462558745, -0.0010174356570055061, -0.0006475409508390175, -0.005670194787490932, -0.003962829691270618, 0.0014249000348980502, -0.0030822656270595356, -0.0026736071922302176, 0.0014994343509655466, -0.0007954118749181347, 0.005676365516486748, -0.0006477590631138989, 0.0005649462348696591, 0.0005376303256519548, 0.001500716462541644, -0.001060549205298465, -0.0017993853526515852, -0.005167255562152126, -0.00573048287298801, 0.0041880886077081516, -0.002280029308935259, 0.0038144793152567985, 0.004691241551294886, -0.000881291859671402, 0.004767500388138748, -0.005109007345294153, 0.0034405626160349694, 0.0062199984935590626, 0.006633282569898251, -0.0017611721678621585, 0.005640871979784229, -0.000593959553403839, 0.00539523263238739, 0.0053308993329677255, 0.003559840019811974, 0.0020849673630609954, -0.00260637272667621, 0.006284102406382991, -0.0028692410049974693, -0.00661470194285419, 0.002466870308731444, -0.00031293127743847146, 0.0053300038211070285, -0.005829872736367447, -0.006249278147727516, -0.002463705312113696, 0.006175429865191221, -0.0012512175427336453, 0.003841798947390873, -0.0009037854790772738, -0.0032276493351646104, 0.005442298892265094, -0.004774769040931487, 0.001983139466618166, -0.0025029481999005654, 0.005663038310531323, -0.005846676524358709, 0.0048817623404892405, 0.005280855588408251, 0.004732229747810906, -0.004825185330198257, -0.00213116769196893, -0.0019808560298149843, 5.079099880558669e-05, 0.002834113580014601, 0.003135998911898863, -0.006201302793670773, -0.000844450278721536, -0.003333931832125995, -0.0005315372641670613, 0.0014952335751022342, 0.0042531394643890615, 0.004980309841420558, 0.003164135941089126, -0.0031860036788901205, 0.004685052407877472, -0.005448226744391254, 0.003125665661788086, 0.006325841425214321, 0.0024661123057908053, 0.00038568212862539835, -0.006142461787252826, 0.0006380335444967232, 0.0019817398664891735, 0.006007658654400452, -0.006199158824182993, 0.00036178850519047093, 0.004979793161407953, -0.0015263137493240176, 0.00365214978070493, -0.001111295717347852, -0.004605699261796009, -0.001392429586669698, -0.004582354641386431, -0.001759420721300652, -0.003445964295489451, 0.0003079943885744281, -0.004557066674436296, -0.004407395844696533, 0.002163963474082884, 0.003455226516259482, -0.006520413513982238, -0.004890093549012333, -0.00532728079015743, -0.006579603044775131, 0.00037283893770766397, 0.0009640956593108068, 0.0049370162032997674, -0.0016003043309946278, -0.006224310703149727, 0.0014332796336867632, -0.002870057682048876, -0.0023103492089672317, -0.0027539420483694162, 0.0008631983232523425, -0.006003497834103534, 0.005362451881971373, -0.005551539436446243, -0.004215087754434219, 0.004806160958555329, 0.002121464851472621, 0.0018313064800590058, 0.0016812650076929682, 0.003654922126271607, -0.001533963113596236, -0.0034136035405219712, -0.006608234315795477, 0.0042376356182579015, -0.0033886564048381143, 0.005181809629715941, -0.006578275847931959, -0.004191495075463261, 0.0032479896726111237, -0.005620300587630324, 0.003975455772320125, 0.0014918354214584952, -0.0035533072447270233, -0.0017753468651798107, 0.005193321231488342, -0.0034717228091442434, 0.0005634096943725563, 0.00529889723104411, -0.006198616726990786, 0.0029916978000042874, 0.0004993664075694562, 0.002529434255023949, -0.0042201702147664985, -0.0062780538538303125, -0.0023855414212728466, 0.0008914882280699587, -0.0010710664603177647, -0.002875786971900695, 0.003121863426637285, -0.00016105735293436846, 0.005072724900882636, -0.005588954194184042, 0.005973805551768997, 0.0018157927409579045, 0.004294305450360416, -0.006013909658061988, 0.000886133908303622, -0.00663582812217695, 0.00146555650994294, -0.003856855955674029, 0.0033349973169537897, -0.001710505979432496, 0.005387915355601179, 0.004324931626543395, -0.0036788053917920236, 0.004128165864447296, 0.0037353359178147806, 0.0047164463328555305, -0.0036036151537371555, -0.0027081143489070744, 0.004506937437016166, -0.0049737659635004745, 0.005770916458718651, -0.006353842677090919, 0.0006196818322818457, -0.003551533322334373, 0.004903714609758197, -0.0017417867045066199, -0.0033932069334089467, -0.0005883149488658758, -0.004583047355251577, 0.0034253167879080147, 0.000605602848965696, -0.002584707611601075, -0.0033257646601256986, 0.006503063300936603, 0.0033768394136889104, -0.003203248092613168], [-0.006311216303300294, 0.0018124006985336288, -0.0020318710081033537, 0.00371583222128786, 0.004370698724480565, -0.0015570118961936326, -0.00299881344728462, -0.0055350181716907, 0.003358464925438474, -0.005399711429299268, 0.00021506266809512823, 0.003840307841943446, -0.0026932274597021894, -0.0004471883753494732, 0.002014360775554062, -0.0011914840885373908, -0.0043285720194582746, 0.002646851741972157, 0.005029574893892597, -0.005883888789462718, -0.0014079197989730681, -0.005733359528634879, -0.0028155193623715007, 0.001892836965963485, 0.006231339498011004, 0.0009333083342392462, -8.855237510979178e-05, 0.0020836281843627223, 0.002018909065120539, 0.0007493077130585785, -0.0029719489941428786, 0.002144536888594594, 0.0024439904027885504, -0.0051022219603544415, -0.0061596218983401285, -0.0009399062426536592, 0.0030690328653110595, 0.001706579809203257, 0.0016704365017319073, -0.006174281367743783, -0.0016787511737903298, -0.005438855378112371, -0.0032030500854537095, 0.002669466339870277, -0.0022478820655099443, -9.05097895938105e-05, 0.0015226611333803322, -0.004103346504810846, 0.00195424713580471, -0.003962029826034256, -0.0015801083894302125, 0.0038084311803848188, -0.005207778767647184, -0.003985803632435832, 0.0029042641372428314, 0.0020241478614376005, 0.005552344670039211, 0.0046430368444166275, -0.004239510026268352, 0.0035003088202163607, 0.0036628598501073826, 0.006597585864922489, 0.0031392959992396926, 0.006109150450101381, 0.005552673652846615, -0.003449161812930298, 0.0003582167848062341, -0.0012563721285467372, -0.005432633202543517, -0.002612016720705349, 0.006068421535330065, 0.001981215766383159, -0.0038544175524373747, -0.005083281754317273, 0.0022948336328328135, -0.003106423927369176, 0.004451731024873064, -0.0028352687955864064, 0.00042898285442846137, 0.0030618543691409107, -0.0034481839510234757, -0.003862061882208764, -0.005375227429448915, -0.004901647450127328, -0.006557863038694611, -0.004761932452083438, 0.005151007190951378, 0.005124303749620642, -0.0027878448990478607, -0.0022972132323283855, -0.0033015069074376147, 0.0021755552370958386, -0.002237748736953903, -0.0011726005980307096, -0.0025299604758918254, -0.002823995505960644, 0.0004020775315895699, 0.00013200908658243693, 0.003585597620133793, -0.005554243151133713, 0.005113001888654048, 0.002971235327623764, 0.006091288654961466, 0.002952464427637383, 0.005930655294446462, 0.0028647179004060745, 0.002578872182015699, -0.004952058868036271, 0.0023883104675831057, 0.000983075326785131, -0.00011213552979539582, 0.00315231917904157, 0.0015455530816928101, 0.0007439929823280479, 0.0022236108600034834, -0.0010361672919279633, -0.0038424638026066434, -0.004683999445947037, -0.004256564087387669, 0.004085237435836564, 0.0029392365125714926, -0.0029505213713456042, 0.000981244785572768, -0.0012041853202022909, -0.001736409972353053, 0.006547826691112404, -0.006511577114673585, -0.005062340567050832, 0.002165639170888137, 0.002194587121415401, 0.004688535445215855, -0.006298116553911956, -0.0008371441967537956, 0.0013708522585099115, -0.0058748346819653885, -0.0041829351620772896, 0.005344653707083969, 0.004603620832886247, 0.0017875103406472053, -0.002205053048343937, 0.0007174811070071983, -0.001915965465186318, -0.001228381138977143, -0.0014676506521980454, 0.0042413811454311175, -0.00020829848379758225, -0.00482216995884834, -0.005582122856636265, -0.004501049666428338, -0.005654230619120473, 0.005693799301349705, 0.002561410551619944, 0.006158089740069248, -0.0028020301862447254, -0.0028918633761188303, -0.0015938974978489094, 0.001415433711240759, -0.0004332019085607517, -0.0016709300841087548, 0.0048643383617684504, -0.0005581535033691979, 0.0043665136817098845, -0.003664584909837321, 0.003976726617696722, -0.004726879570133554, -0.006467134521137158, -0.003583709772991814, -0.0018986399952601388, -0.0051650725249759956, -0.006525009016304497, -0.0036282668351949603, 0.0006850952060124427, 0.005140459946384981, 0.003867885306458389, 0.005587806613535318, 0.0012347383707819294, -0.005948553490363063, 0.005804724113285303, 0.0033305364355244718, -0.0052380622826686835, -0.002257608771858206, -0.002249008051755695, -0.002298743858414426, -0.005689093349893132, 0.003909649222567509, 0.00636198278917687, 0.0020093693801714156, -0.006183275163570287, -0.0005732713277033126, 0.0011524458206822743, -0.00558777093881406, 0.004114197162264895, -0.003504222927439587, -0.0013172610510367693, 0.00543211539951759, -0.005770033486578908, -0.0006531091727297645, -0.002008853376739266, -0.000577283962285247, -0.0022314642972613703, 0.004990352621708216, -0.0021896741273766387, 0.001985356621149425, -0.004912683478237584, 3.6934033388257446e-05, 0.002928526807914656, -0.005236983401792621, -0.0028689495032020716, -0.006570468063316477, 0.001276656686501061, 0.0028136939950761043, -0.0010613248528903536, -0.0019024647968771738, -0.006409289127435947, 0.00492827270842542, 0.0004842980550782477, 0.001029729674577795, 0.004851457109032969, 0.002029433396132501, -0.0010374684889289322, 0.0017361932003353473, -0.00014319305725808256, -0.0028732544106000327, -0.003184392593946329, -0.0006960161792529041, 0.0014297583121985445, 0.005616157060588315, -0.0037281297592407867, 0.005079401469848888, 0.0023992429250683737, -0.004071314309009808, 0.004461672940975193, -0.0006064348257154564, -0.005797404805402284, -0.0003311204430693534, 0.002542302908395304, 0.003520724509421825, 0.003649934208420903, -0.004099724754749373, -0.005490668297197618, -0.0030221146170275634, 0.00023995649008496525, -0.003473215477330152, 0.0016118937799520954, -0.002229749385232395, -0.003369173594808094, -0.003936595776847835, -0.002246960614522924, -0.0014407683565116403, 0.002255632663655106, -0.0038825665259374816, 0.004001557037794817, -0.005809857675987199, -0.003604865627180903, -0.0031901741848264762, 0.0046089685792450414, -0.0013728457582788808, -0.006242990197421969, -0.0021014331023959747, -0.005746006636238947, -0.0015515197589709444, -0.0024081975532521797, -0.006544965042213338, -0.002097245678758256, 0.006176836355312934, -0.0017274607747223458, -0.0024834348002956363, -0.005599811675645814, 0.001834574671988186, -0.00023662678211300525, -0.0026056652049450658, 0.006371064571111717, 0.0036861315814525394, -0.005906545084568066, 0.0035432191186244083, -0.006193469485784048, 0.00563431741371224, 0.005893243855039596, 0.00621238607215628, 0.004179475925938882, -0.004674364008680794, 0.0055713292627554, 0.004529080770473619, 0.0013553307491359354, 0.0015382439732529425, -0.00078173896050122, 0.005928306810800661, -0.002018323477050201, 0.004008162658586226, -0.0003487272063908261, -0.0021087438104227295, 0.0003227997594633959, 0.005600943089243069, -0.004890139598080949, 0.0007801326994252775, -0.0035064567669007354, -0.006427396444897177, -0.0016307515520998868, 0.0014524751641975847, 0.006312640370494569, -0.0015218191623992527, -0.006075166421764675, 0.003339364041744519, -0.0043784893715588975, 0.004209577762627002, 0.0065912168741095595, 0.0012083187707488119, 0.0019050619611020174, 0.00215970787224697, -0.004680593057626986, 0.006388860529693652, 0.005317215171331814, -0.0029912729455966887, -0.0014965618452849236, 0.003514419193167745, -0.0064311035707802396, -0.0030316048706509687, -0.002861967689904649, -0.005965833644083995, 0.006235030960723547, -0.0014233292341921326, 0.0014224813774094268, 0.005983004822003133, -0.004908285778787011, 0.0024975962020457763, 0.00030601875493332665, 0.0024014739563928233, 0.00230152610516984, -0.0017689536926576265, -0.0019602421774996418, -0.0008016948578469816, 0.004700070514584207, 0.004076317272483744, 0.0018988292289892708, 1.3096805088590163e-05, 0.006676110113254448, -0.001149292071838174, -0.003682213963633213, 0.004618806020266034, 0.0023314762471646246, 0.0014410933594793205, -0.005369274081111357, -0.0006629739303642545, 0.004036890695596539, 0.005377558535673844, -0.0057167383210866545, -0.004998561804009258, 0.005159615405790829, 0.0008746416403783981, 0.0005331151688605762, 0.003965026963698901, -0.0038578951458518693, 0.00105835851618591, -0.0057655358454317, 0.00031197658694781755, 0.0022389708628081676, -0.0032969665439155963, 0.0048412846040747515, -0.005358489916812542, 0.0030945486629492297, -0.002548549563224478, -0.005983358758099603, 0.0006602976754465125, 0.005937481326278596, -0.0018748467838493963, -0.0025829520216100457, 0.0013503962222011635, 0.0014203156829419939, -0.0005494387634913749, -0.004912489875108606, 5.659419495294201e-05, 0.0028681517124743514, -0.005744668305570248, -0.005503023228948962, -0.006004692527222984, 0.006602413557494946, -0.000263168086507166, -0.0001514729500023993, -0.00040790171972157505, -0.0006579755932594198, 0.0025462232379864984, -0.0032117511178019788, -0.0012552583533949413, 0.003801500880847942, -0.0020066687430190014, 0.004946156985048107, 0.004075172245067162, 0.003823196614846187, -0.0034362365067381936, 0.005210650244272305, -0.0040103376556775705, -0.005681266133450757, 0.004197057802039493, 0.003151246312497551, 0.002909123586468507, 0.0045017996263414265, -0.0038622746030751885, -0.005638882550426321, 0.005912772396669806, -0.0034691556507905666, 0.00386480054082614, 0.00030655837857553557, -0.006648375438607315, -0.0005099530259406534, 0.00110544151181958, 0.005495000162159837, 0.004925084015683087, -0.001002056735034031, -0.0012238558704285286, -0.004624170244825923, 0.005016585296761802, -0.0065570417066735266, 0.003939461543562332, 0.00438432883623495, -0.006651696008456025, 0.0002411057617999469, 0.003967627296387262, -0.006579704324442622, -0.004077673081574341, 0.001534394505268458, -0.004825208094597111, 0.006018758579344864, -0.006547307500571336, 7.193347864581518e-05, 0.0028491562849949077, -0.005732804939299492, 0.00660913491493024, 0.005540245099006424, -0.0012716360950226595, 0.005587944550242827, 0.006265868233671182, 0.006227729332379049, -0.0010414494386395282, -0.0053889346843269395, -0.006141459083061882, 0.005536894363042409, 0.0012648819930828885, 0.001275460882328789, 4.292348674139483e-06, 0.003920811609923946, 0.002725635425713509, 0.0009831497628900092, -0.00011232783438946718, -0.0057565062915798946, -0.003510304074082039, 0.0010254562503548097, 0.001230499032082747, -0.002451101936796053, 0.002467639717654213, -0.0035373849543471145, 0.006590543920661365, 0.004502404611998426, 0.005662417107581516, -0.004767221143066994, -0.001471285655022153, 0.004168801474399149, -0.0018028275278702745, 0.0033516824762565823, -0.0054593526950609695, 0.005915130137224759, -0.0029330239538337983, -0.004929238757636181, -0.006272667896291195, 0.004292641326354266, 0.004602321288990483, -0.005086587331155755, -0.006065298183281335, -0.006610948948781579, 0.004313377757110796, -0.0019064889345420688, 0.0007133503645623605, -0.0007648966972465614, -0.0016963457282542355, -0.004502311444893801, 0.0012316641553601253, -0.0023985797751723947, 0.006488259331472813, -0.004902600156282709, 0.0037256743470697505, -0.006463862621188181, 0.003761172195022105, 0.003343156653611319, 0.006084059146519153, 0.004280898972955206, 0.0005881536019364128, 0.004919320919755436, 0.0013855563661256765, -0.005154547079095113, -0.0033435379989579404, 0.00501882155371915, 0.0011826696394109915, -0.000782685246064912, -0.005513584237140217, 0.006593442753664926, 0.0027439086415996044, 0.005216200656857064, 0.00029299562733345883, -0.005058574817054877, -0.00594115991668435, -0.002411043149435782], [0.004600466953959332, 0.0004928735966781925, 0.0053817782591908045, -0.004371360775435741, -0.00535469366786732, -0.0019512767556160305, 0.0005104249686839164, -0.0026940226805450057, 0.005438817985837026, -0.0034544855862705375, 0.005358862994838164, -0.00495071408430921, -0.003439224180033435, -0.005636016313913807, -0.004582777666858636, 0.002411484996188859, -0.0034964203396191783, 0.0017659401016496617, 0.0002814744985253063, -0.005494533975290802, 0.005588260872662811, -0.002847384608567865, 0.004047955043513151, 0.003155185340394687, -0.003630573070005631, -0.0032722764982537123, 0.00486626135191147, 0.00023991563656228945, -0.0017338115742161738, 0.006662724358269928, 0.0032290670190998137, -0.002637208639006435, -0.003736193222411561, -0.0012372094803556903, -0.0015562977098484436, -0.006234274184387571, -0.005422086668250563, -0.005435686923603533, -0.003943857195114899, 0.003779235794304752, 0.002058861155246355, -0.0021542660392826103, -0.0058516705765671966, -0.00412085664476891, 0.0011147265640887632, 0.001049153433824125, 0.005054272866026019, 0.00018432422448116158, -0.002073113465732968, -0.0027246839289462262, 0.0053227609524317265, 0.004200518358716589, -0.0031343397893929363, 0.0002546974015921586, 0.000760779426498548, -0.005313906522057109, -0.0037473323244952748, 0.005154431083934334, -0.0022549047263729187, 0.00231193409660438, -0.003591601573633507, -0.0024316450258569, -0.004146467705342347, -0.0043678834740357, -0.0002960848796056455, 0.006431913931912556, 0.0016398217599768489, -0.00024766730434480644, -0.002610195582631544, -0.005399399400204505, 0.0011337475304466819, 0.0012134665258387686, -0.0028259025680226427, -0.005946801721887621, -0.004135344371292103, -0.003847638191455591, -0.0038967914432419767, -0.004900880787891342, -0.0034046539824958448, -0.0003617552983663518, -0.0008322917813340848, 0.002203723814970269, 0.00548760441714685, -0.004222333104420324, -0.005634366254092131, -0.0007324193506542566, 0.004415618454769653, -0.0020685372470538514, 0.0019478466352627498, 0.0033781806160641404, 0.0016898430615762889, -0.0017104980303164516, -0.0032836040312777784, -0.002054345523206326, -0.0038449494218596655, 0.002714416927571146, 0.004180038503404581, -0.0014847470965105877, 0.005684554030542356, 0.0034696374478119197, -0.0003460937503784554, -0.0043245432853305016, -0.00503396297762789, 0.005532804175180124, -0.005364062226016867, -0.004551685157243857, 0.006478528254821777, 0.0019569072422930757, -0.0010759590440270075, 0.005947002130971128, -0.0019164390703679502, -0.002901380433015477, 0.004690439063969996, -0.006472052833711471, 0.006411762775618072, 0.006457214352044224, -0.00012856706302531517, -0.0008066378751522149, -0.0011679797650785736, 0.0002552266825437217, -0.005384545474309792, -0.0044978678013972975, -0.003367790621043588, 0.0052163654481154524, 0.001697588626721941, 0.006049751953249689, -0.001272497995537449, 0.004570613882614458, 0.0007028250855264607, -0.005197673059297296, -0.0012509018806106129, 0.001161121894595416, -0.0002913110376380322, -0.0008175152379770224, -0.0011207537264230133, 0.0013587087230784451, 0.0011072128244266745, -0.003163873263783402, -0.006418267868059275, 0.001956782877866536, 0.00042029561883790464, -0.004046615534516764, 0.00524910448718684, 0.006016182942616828, -0.005052071036719158, 0.004887282383966156, 0.005805138096498687, 0.004297281197880629, -0.0029313146464588057, 0.002160443625576121, -0.00415182054902608, 0.003050766505836041, 0.0010724584776507472, -0.003907697549874415, -0.0022998160639822766, 0.003848739680543209, -0.005337273993781169, 0.00410241812328832, 0.0003874797850755717, -0.0003350584200973811, -0.006642000027969592, 0.004528603482718686, -0.0008327856660035816, -0.0014069879778470958, -0.0012033345815247027, 0.0065240055030570164, -0.0057372489049022455, 0.0003818469965267268, -0.005296750912882553, -0.00015904619883045864, 0.0005344376329067468, 0.005894255991947241, -0.005637772750471733, 0.0061266570980158565, 0.004624173791220413, 0.003785904526849617, 0.0026408524809026918, -0.0010195327191011138, -0.004136821538343815, 0.004450560999934938, -0.0034839648987723577, -0.004369609526729176, 0.000924752657750728, 0.0027360941642401017, -0.004455426251798403, -0.0034418428666901572, 0.00145998143012078, -0.006499709360948132, -0.004953110282519272, -0.005298587093376629, -0.0021011840793820685, -0.0019903642742038364, 0.0018960615037039174, 0.0048511193199880015, 0.0019008355820489663, 0.0035265364411742176, -0.0029863313096403056, 0.004798283504405618, -0.005959755049630635, -0.0038736310184690347, 0.0017180014381308324, 0.0004635904346642125, -0.0022392349358305707, -0.0023355610168016884, -0.005743064878413292, 0.0026374076262694855, 0.0032625908145546855, -0.00631942859915582, -0.004786685548976411, 0.0026885980128414427, 0.0007142639114394712, 0.0012536803126831822, -0.0012864705101132586, 0.002693348593303911, 0.00595522856378543, -0.0065183319137158205, -0.006297420820593324, 0.0029843880960566324, 0.0005861702622640215, -0.0009447055493336555, 0.0006520801891049767, 0.003409477518421148, -0.0004205288602646306, 0.005167067769056681, 0.003954071545223361, 0.0027607436193226895, 0.0062474855232597494, -0.0025584708374429828, -0.003351411593319962, -0.0032711209352778046, -0.002635035532925767, 0.004852729760300819, -0.005200233927172685, -0.0026484142714975293, -0.003222696512997371, -0.0039049044123665487, -0.002193000257452888, 0.0030952683325163387, 2.4721702560142125e-05, 0.005636556410985071, 0.002871249004427158, 0.005903718714020306, 0.006403857323424943, -0.005231002466017726, -0.0030294990165286094, -0.004215958468117654, 0.0035107445964088794, -0.00606037685749481, 0.000848433587446321, -0.0021766959992972523, -0.005668423879506039, 0.0003345728184620745, 0.0031532753014651025, 0.0013516633011030608, -0.0036898973738794636, -0.0003353343654025141, -0.002817757648081886, -0.004206700126959076, -0.004007329162099038, 0.0008759984394653288, -0.005519547817940275, 0.0031654663561660103, 0.0047043394450268896, -0.001241356128272888, -0.00022676586355777696, -0.0017077638671389927, 0.0063133378818165985, 0.003988524619639659, 0.0011704180988477406, -0.0044354245122130475, -0.006600199964389547, 0.0021128500933164, 0.0010026759580679975, 0.0020698487846780625, -0.0026583944682758466, -0.006063113268215975, -0.00011465003355098566, -0.00625348569648979, -0.0008690015315004126, -0.004681245524586831, -0.005978491121193743, 0.004416310661648868, 0.004047074308305424, -0.006025423803749309, -0.003419127950974306, 0.006583616468371905, 0.004651781900289909, -0.004817395764174848, -0.0008123662016841059, -0.0015611018479907378, -0.005073151744589388, 0.003627377997105165, 0.004907317390463167, -0.0039328912884797245, 0.0031523734537658283, 0.006234323347822931, -0.0031059911736846563, 0.0007150950426749906, 0.00025719275769555604, -0.0012714299653841913, -0.004562304926954767, 0.004738593783761852, -0.0008446659387928544, -0.0002929978911347162, 0.0018173744947352119, -0.003758384714381538, 0.0020991874585649167, -0.0025989864514658133, 0.001598958752849174, 0.00027620068641219715, 0.006659337502074372, 0.003972601752076389, -0.00437043215006571, -0.004750951679136419, -0.0012279458652488461, 0.004995754872436164, 0.003686669602196079, -0.0038054523839365613, 0.005103766632957144, 0.00014366165309342974, 0.0027310420471191293, 0.005534979016430105, -0.001232907444654058, 0.001980797652025512, 0.006318571027634988, 0.0004754110153884213, 0.00033320125488880064, 0.004049039237406551, -0.0022418588109433465, 0.00637496364437932, -0.0063169767510607155, -0.00643017104647285, -0.0021135866871941095, 0.0050005954602933556, 0.0030629166747599525, -0.0013786625623593057, -3.028161540127493e-05, 0.003994869506440752, -0.003759663851255646, 0.001351285910963808, -0.0017907159552221525, 0.00037542055164511366, 0.006513158771588961, 0.004431471564495895, 0.0037233680017456977, -0.0031298132259040623, 0.0058710183478702035, 0.00479068933751545, 0.0007908490402436457, 0.002665046278063086, 0.000826081028040994, 0.00473010616784001, -0.002166069655236434, 0.006172524681084083, 0.0009840304526786722, -0.00591314435258782, -0.0024670886720128435, -0.005090151791994628, 0.005094290547381773, -0.0043698220487725465, -0.005827010540877738, 0.0012344093487166722, -0.00019438268273221085, -0.003350740598819881, 0.0023171496332191066, 0.0009831082048672875, -0.0027902412783382294, 0.004269926018526014, -0.004825800652971319, 0.005811193986801042, 0.00017096694220199624, 0.0029906142612400677, 0.005095499342183904, -0.005927650754625116, -0.0011474185431395005, 0.004315441782533634, -0.006212999520764938, 0.002264384241392686, -0.0018206603359829736, -0.0019890025068847713, 0.005585516197608005, 0.00022840788650204112, 0.0028759013527133556, 0.0011275372822360543, -0.006113416342020995, 0.0008147327473424927, -0.0032843770514959848, -0.004332469340618679, 0.0026099384032484876, 0.0044429406069874874, 0.0036943280327258665, -0.003644664981109196, 0.005835967008411306, 0.003247446192729925, -0.0037320325918289202, 0.005232567532260969, -0.0002829834658402648, -0.006133543540839767, -0.0026973570939966872, -0.0034774228705915958, -0.002873749467754245, -0.003020402379102828, -0.00040176873177226463, -0.005421350163594443, -0.0019809740908326694, 0.005428219233065675, 0.006106672844399142, -0.005600583337105344, 6.755191715099019e-06, -0.00127617807558294, -0.0013167414084642626, -0.002727315178282521, -0.005051911053648747, -0.003667314401744762, 0.003966310431955741, -0.005325328298067867, 0.0016202252557734823, 0.005538909917321866, 0.003994256042228108, -0.001063149449998097, -0.0024991599657641634, 0.0024190266970111397, -0.001808308660005654, 0.0008980807342616948, 0.006586600910229509, -0.001582820670177045, -0.004677053800071997, -0.004792168273102855, -0.0005651891762606418, 0.0007252944969867071, -0.003854915256849911, 0.0049242568375109114, -0.0026148433186740207, -0.0022434715308311867, 0.004518583321548476, 0.000223477182529725, -0.001254951504320267, 0.0013336812394518038, 0.002227353913838396, -0.002919195481713714, -0.00016133728824597272, 0.0015032178640767212, 0.00020905138091947625, 0.005024141193246985, 0.004773679389843425, 0.0021332320974166968, 0.0015369621820810247, -0.0011664410619757625, 0.0014226383338153052, -0.006370335550739396, 0.0002282265163817655, 0.004116078305074217, -0.000460371572572255, -0.0024124330673692598, -0.0018288128621632102, 0.0013459681131491273, 0.0007602448069231122, 0.0062849427767550925, 0.0021869623936071826, 0.0008906584149536632, 0.00015457138441208435, 0.006025727244773342, 0.003626125916579508, -0.005124574227915153, 0.0017352272744899648, 0.006658732299432309, -0.001443795695851877, -0.0014186153588547428, 0.0041754360306599176, -0.0006204505231105859, 0.001268818163800411, -0.00032568229267031375, -0.005679786962270064, -0.002445285304068972, -0.0006478904286840807, -0.005842419036775486, 0.0006189213234763639, 0.002642127215585841, 0.0002524038829485679, 0.004504302000365959, -0.0008288616414869466, 0.005190478807787545, -0.005189993124401434, -0.001935859122017777, 0.0027709769517557624, 0.0005811461632205549, 0.0059803311152581235, -0.0020476255774664314, -0.0035538207762997307, 0.0004789789936405432, -0.0013285694348930482, 0.006468019158130767, -0.005691529950771379, -0.001064025171729417, -0.0022171989859886294, 0.005463285829338361, 0.006432054867075375, 0.0054918040220338004, 0.00022155871324782285, 0.00338585927734733], [-0.004895169734377415, -0.004482425189617473, 0.00264763119412323, -0.0026837423863954745, -0.0015873968125481158, 0.00616943126967118, 0.003517419618266219, -0.0022461586682773, 0.0053754097244599125, -0.0015851576465965914, -0.0036458314347204207, -0.004362509106357582, 0.004109340143938725, -0.003536121341611778, -0.002413004567532003, 0.0021841355122613096, -0.0009134842846846815, -0.00046814095858185693, 0.0029712664928923673, 0.0019923429523323734, 0.006218816378647764, -0.0017365276483401343, 0.0034342438581815653, 0.005808745840730712, 0.005108694265321021, -0.0061662507201338665, -0.005441439764737849, -0.0028730121830423407, 0.002158450553068429, -0.0006323439550867143, 0.0023254676721745013, 0.002313670398145866, 0.005202062157315069, 0.003750669937010687, -0.0026105143547018772, -0.005086929620060668, -0.005884274772251406, -0.0033810113502249083, -0.006552296457992739, 0.006161126459466663, -0.0009691248183854561, 0.0013450545813550885, -0.0039127639315456614, 0.0006877030809396198, -0.00047587708224957833, 0.005143243142773053, 0.0016670826087522, -0.005147429206625113, -0.00552995113539709, 0.0042004574177960975, -0.0005731220958016557, -0.0007077110848137097, 0.005675112617073849, 0.0031725121403583887, 0.0023834339003908655, 0.0030212805190158324, -0.0022638371803793645, -0.00455170496937298, 0.0032177406867393375, -0.005662577341159326, 0.0007425710553463794, 0.0027736973190539966, 0.0011920519584029945, 0.005731770802261183, 0.0031515619043463246, 0.0033666162087449907, 0.0029812669644727987, 0.002289387207798668, 0.003934536254194778, -0.0020964445622068647, 0.005049167688526818, 0.0019264176509940333, 0.005359428322392068, -0.00010999522578763217, -0.002530433438589346, -0.00020332460096430692, -0.004759673561813003, -0.0008306961340051578, -0.0018626564928198276, -0.003889007485506001, 0.0009134126080488181, 0.0042265454068462485, -0.005765532400796026, 0.006637076141894534, 0.0016748995730785181, -0.002108051083158984, 0.0006980126126410456, 0.004118547882312223, -0.004210252447281093, -0.0028816907261606235, -0.006241799199762993, 0.0008300353730998693, -0.0013310593186163001, -0.003651286265439781, -0.0036102162427310578, -0.0033927637712680508, 0.002560395058668157, 0.001102741666608428, -0.006323703314358277, 0.0006867365915127911, -0.0030828911978918044, 0.0028934583759924006, -0.003385181990210785, 0.002805288058031363, 0.0064869705750172585, -0.004879698846930805, 0.0041181358873554254, 0.005831661551579486, 0.002405483729695378, -0.006057776057875245, 0.00028397177264776765, -0.005320263279153948, 0.00018650489140181707, -0.0019187815847178174, -0.0015018070061866143, -0.0015652408957524005, 0.002034317949649061, 0.000646445245758216, 0.004293296373496831, 0.0038201071395225906, 0.0028919500172335886, 0.0049825042169656265, 0.0001892794403186852, 0.005407632798684185, -0.004114781709506069, -0.0012914565534520252, 0.004065875559366874, -0.00032484210739067474, 0.0058272911229372976, -0.0008992315889624179, -0.0002555418235924225, 0.0042415752963567135, -0.005149578749464403, 0.0035845289768100695, -0.00553332516486259, -3.730090855579361e-05, 0.00017731013196442666, 0.005849453660436786, 0.002677952197322589, -3.6024221671088365e-05, -0.002027368826527593, 0.0038748658576499917, -0.004602275218336567, 8.670890664629321e-05, 0.0031654322943457996, -0.00025789203598502455, 0.002793978902581601, 0.0001334964597398653, 0.0018284279299501983, 0.005245490919250253, 0.00041932678354689103, 0.00383474893337994, -0.002467656266713743, -0.004347226985707071, -0.00013818326018548907, 0.0065313426649856185, -0.0028071920531806786, -1.0475664141415275e-05, -0.00646861183404004, 0.002154467721847763, -0.00016451190647018873, -0.0020097648840305556, 0.006107506532855024, 0.002111865282351238, -0.005965503979947922, 0.0019172912285624615, 0.004811695404798134, 0.002479348197572445, -0.002821864017783648, 0.005906921208012844, 0.0046222979512917355, -0.005615277970935223, 0.00023295202983931714, -0.004873771973674727, 0.0012453913698854807, -0.0039750207561556165, -0.0049048282049974825, -0.000291209059871103, 0.005657122401405329, -0.00041758159480346656, 0.006484547872025512, -0.006218056989432632, -0.005095587181108272, 0.006220311881068737, 1.2630097146508482e-05, 0.004817600974942633, 0.0027271340061777696, -0.005836640655970003, -0.004035570814123438, -0.005473139381123827, 0.006579570004197042, 0.002243755474851407, -0.002926082944284028, 0.004960059912942702, 0.006640997789013296, 0.006357182080463794, -0.0009372366397940698, -0.006294979089345479, -0.000735599966128908, -0.00032474710431436076, 0.005348480559865309, 0.005969331088284797, -0.002290516286777987, -0.0007133862498218352, 0.0034244979140421053, -0.004272933806962617, 0.0027807581774187927, 0.005165758442098793, -0.004993944215383263, 0.003856506874262698, 0.006216257424692111, -0.0015909094190892205, -0.00480757127687363, 0.001952780340977009, 0.006627499966270004, -0.0044919329271331625, -0.0005044463759286225, 0.00016916782297244533, -0.0029421638129095077, -0.0007693005938578253, -0.006536303210471193, 0.004428762364172728, 0.0010136357308568817, 0.004228655492689345, -0.004717289020036664, -0.0065887483761395095, 0.0025698531906562534, -0.006104514895219751, -0.0012921154462831022, 0.0021498276081242536, -0.005697814255433266, -2.7614025841514824e-05, -0.0011369676351335926, -0.006599011444596931, 0.0029197508712731877, -0.002860028424815283, 0.006039340728671668, -0.00565406714746712, -0.0033809332876021635, 0.001112661786917182, -0.004854619898482129, -0.002737579555872748, 0.006552483232190926, -0.0024915728621066817, -0.0022896689333447564, -0.005236679113415058, -0.004387357295401168, 0.004178300255015041, 0.005216204623624117, 0.002654199820721657, 0.003290104665505433, 0.0007294147202650021, 0.005409801010791783, -0.0036483192504305714, 0.002469389872967837, -0.004743937714088908, 0.0014560941659736491, -0.002019483465539404, 0.006199776997402208, -0.002124186518371188, -0.004558998583848381, -0.004650533732644596, -0.003932028902294185, -0.005167985776346745, -0.001351043970758069, -0.0031737491362521892, 0.004942897076376065, 0.0033849481720475407, 0.0010483680259479181, -0.0009829422192492948, -0.006382797832426448, -0.004351268215141143, -0.005118664025441554, -0.0021805199417146205, -0.0006150308216729989, 0.005478472850964318, -0.002430147341694744, -0.003044717380057738, 0.0034228144656166764, -4.385217162225806e-06, -0.003377360990569198, -0.006190304308396939, 0.004726546680382495, -0.006195052471435473, 0.006362134333878222, -0.005509486676953704, 0.0034050774357774964, 0.0018903365097673926, 0.002073332652528367, 0.006373265716942251, 0.005247141037578627, 0.0018893356652519588, -0.002530116295065053, -0.003027155769649278, -3.161952184998023e-05, -0.003624918742932126, 0.0033665823456286775, 0.005492026744954014, -0.0038461437598495416, -0.0004299388563145557, 0.0008275782792730932, -0.0023935570692194146, 0.0013753851233018794, -0.003500350487024984, -0.006279345009622419, 0.005767624317621013, -0.0029865333083458783, 0.0061947483680408, -0.003746179649867137, -0.002898258501192522, 0.0057163790381364, 0.0032217557861171707, -0.00109568351786005, 0.0020792011014657053, 0.001474507351678467, 0.003520499575321967, -0.0027513385663700896, -0.0025840929875318567, 0.006653791905644563, 0.0033221769016751933, 0.005612753804495404, 0.0006442664605105634, -0.005605559017557121, 0.00032866482950441584, -0.0011114526810274386, -0.0062968532034614316, 0.002913894740695498, 0.004255256845932623, -0.006678097218787858, 0.0009943562866264876, -0.00015949574868474994, 0.006671402693301159, -0.0003338632330224156, -0.001599214331197248, 0.00332767931115424, 0.002375652078456795, -0.0001894554914121114, -0.005890538118850685, -0.0044064806028616624, 0.0004907779311662279, 0.003593319143404439, 0.0021080243657181593, -0.005954301385732738, 0.005887465362418495, -0.004505431593996057, 0.0035804559982134834, 0.0027317364789955596, -0.0036614035642681306, -0.00185611532067295, -0.0027110924831019022, 0.0019079647224036426, -0.006012270430094056, -0.0005019300698642695, 0.0060573540857443075, -0.004886009986800809, -0.0009433981512019878, -0.0015337643948196995, 0.003279889438708266, -0.005420081992854727, -0.005873769871904048, 0.004566854711518563, -0.0004977689365843337, -0.00044936102313808174, -0.005999538416044603, -0.00439825402580394, 0.003813428267130653, -0.002981432043583643, -0.0018320062604619937, 0.0016027819502452696, -0.003701362961440905, 0.001144219628461334, 0.0023352756406160432, 0.0034438793547304793, -0.002759615415590809, -0.001918679887064081, -0.005441596483592107, -0.0018934790316789145, -0.0013222312198734832, 0.0014691923076835295, 0.0006941882811006175, -0.006420882775046107, -0.003735601019751879, -0.0024817918984589345, 6.690994121245817e-06, -0.006042759391253418, 0.0016019138448210646, 0.002069329432525923, 0.0004037575140433593, 0.004910337183706288, 0.0014889166177471194, -0.004273850118214143, 0.004665319413515866, -0.001361387152481506, 0.0017371390734803053, -0.005556576052287517, 0.001106130642307478, -0.005665366031117478, 0.005824755460744105, -0.0021241847018145894, 0.004889724361969421, 0.0011531919731020731, 0.0038801004306746596, 0.004177541229180926, -0.0050963996721018956, -0.0006808122508046464, 0.0063044168125687885, 0.004939640066315196, 0.001361554633403101, 0.0021664777748362715, 0.0008678808724643158, -0.0038405316188873657, 0.0030200281760318116, 0.005247952558677408, 0.0024241838163102077, -0.0031891650059494518, 0.0013535479816519415, 0.001012732842832434, -0.0033153727460087557, 0.004466866354369018, -0.004365210015957303, 0.006277604764346199, -0.000829311164534317, -0.004690523774798515, 0.003937409035040047, -0.004367628395095006, -0.003857784342998804, -0.0029665544023283652, 0.002431258486028293, -0.0024880978382535368, -0.0003398948939388967, 0.003481450623465316, -0.004946488013076895, -0.0029912283301415316, -0.003959988117894588, 0.006543543172707834, 0.0033769799434320118, -0.0010383877232315107, -0.00514025416317936, -0.002262224563234042, 0.0011065836871720707, 0.003046935589927945, -0.004325116841326452, 0.0026407560323541074, 0.005402313225758889, -0.004372785593111837, -0.005963062053919201, 0.006453774281271154, -0.006592802151159769, -0.003238289869843708, -0.004562306722290973, -0.0016693194667098423, -0.0063733918842537665, 0.004831159103895082, -0.0006988513037590134, 0.002447920204252607, -0.001839222076070366, 0.004254372937421994, 0.0032010960252393072, -0.0023384292630120374, 0.004051543482082493, -0.0043930804085777824, 0.001247592808329983, -0.006042854682622011, -0.0002282778828004609, 0.0013999039466848222, 0.0063601391252533805, 0.0022320182208460737, 0.0007455695237389828, -0.0011081909758800946, -0.0056520929549987945, -0.003781525027590398, 0.005372254302879497, -0.002445648435220818, -0.006005265187748253, -0.0013184616073893727, 0.00483438896137104, 0.0018989035557167772, -0.003875854962814584, 0.005975497198460775, -0.0014010417951677173, -0.006444090208832015, -0.002542090683860306, 0.00204209253660125, 0.0018636039232339573, 0.005926450915674998, -0.004347644720653035, -0.003434802845679181, 0.00037896267626881113, 0.002786697892414413, 0.0011896704760974135, 0.001698420059544033, -0.006009222208161081, 0.0007777804557033251, -0.0006703195657896871, 0.00021096998151463322, -0.002379045371094347, -0.003920801878012637, 0.0017043321667813238, 0.003996513955194384, -0.0049332527489548104], [0.006281158611397366, -0.0020257437514303047, -0.005363896039222707, -0.0009909329013661214, 0.004521327217927142, -0.0020161137893645437, -0.006176050748643792, -0.004265560391090947, -0.004249780852828152, 0.00384566628650088, -0.001386940512535127, 0.0023392521241219688, -0.006010167317533929, -0.005765030924176199, -0.0021251341795222203, -0.005312868565806611, -0.006542167482764843, 0.0005375285378085435, 0.0019198104524129898, 0.004675969111027867, -0.0018128799684444857, -0.0011657846316339877, 0.00443711225833626, 0.005000718054502362, 0.0013816262013417026, -0.0007205856078675405, -0.005143338899097215, -0.0013564860853400868, -0.0038515740966362285, 0.005814479915328079, 0.005981236626069391, -0.00027527327071853665, -0.004227888517081278, -0.0015414130876561633, -0.002876320772831638, -0.0025583547694711366, -0.005394548670330271, -0.005120057707267127, 0.005509751829299994, -0.00262585405578556, -0.0011823951970512158, -8.266299411229345e-05, -0.0024699562332673153, -0.0034553937234224935, -0.002587114513587183, 0.0014168540864932867, -0.006329684754887384, 0.00012526345469798317, -0.0004918345346081668, -0.003809131835036528, 0.0022321621953570645, 0.00012207788672823506, 0.006635998589814382, 0.003762106338253882, -0.004050270930006171, 0.003200141572787889, -0.0031811542844975113, -0.0003918948478616831, 0.0011103492096995213, 0.003637710238832425, 0.0031663883841422037, 0.0016413948306530969, 0.0001292261726305579, 0.00014153062041216872, 0.00032009922439848055, -0.002414233529598833, -0.005007189255519966, 0.0014509583756563316, -0.0044112090885604, -0.002956890178971711, -0.006416883720951986, -0.003028324115752313, -0.0006275581497863782, 0.0024866322406713504, 0.006230558543799276, 0.006036850208368118, 0.00655596843283796, 0.0031874306221289037, 0.0043888363576914035, -0.0036484077991833933, 0.004981935982248426, -0.0036604142449702948, 0.002888697863138869, 0.0014102325035294852, 0.006290876073559458, -0.004665989093779396, -0.0001072237977792414, -0.00247509983512264, 0.00398886582099928, 0.0038233109845084347, 0.0031753418197132005, 0.005051475319762526, 0.0035155075701932977, -0.0023298953367117056, -0.005221265229642887, -0.005725413059576176, -0.0011942104667473758, 0.0017730984971923035, 0.0057749848103964265, -0.004938313265743492, -0.0037856314008730407, -0.0036604290882628265, -0.0030480345703350334, -0.005980088401914094, -0.0016890767630345633, 6.417631680589677e-05, 0.005979521654915576, -0.0065807247434763825, -0.0021601004526053754, 0.0027862795725507395, -0.004398468530836711, -0.005636630799853867, -0.0004693662026087243, 0.006336421546923847, -0.0008760539829067098, -0.00428035571957889, -0.00579612342438329, -0.0004128704818433991, -0.004826109898603018, -0.005862776379974457, -0.003435913126116094, -0.0005594943176269963, -0.0054755751381671365, -0.006044741836468237, 0.00036921605591077597, -0.0037856675368337905, 0.0019063934135075322, 0.005811741938361755, -0.005144923560018715, -0.0043930159776057465, -0.0019467882268859435, 0.006528452201434573, 0.006389899427967571, -0.0012328895409503256, 0.004040810077473522, 0.003428120307501498, 0.0012609207746578429, 0.0042156944422261115, -0.0031269214064296993, -0.00314938422531248, -0.006303460284680513, 0.004156626462146119, -0.003370826052096536, 0.0016594090405065423, 0.0028958634211379806, -0.0045997726193716774, -0.001455590711291642, 0.0012953019160374072, -0.004677383272643248, 0.003100114023693923, 0.004876811486902132, -0.00586071809445742, -0.004017527229691482, 0.006077076675080248, 0.0056772679759059756, -0.00037889477757250845, -0.002042736836107089, -0.004129468718684124, 0.006163154850727866, -0.002753312699428855, -0.0009923326525840513, -0.00041771183813372136, 0.0024131842389270245, -0.0017848617170932238, -0.004733315301734109, -0.005624552393801193, -0.0030137995525225665, 0.002302252161998535, -0.004143091987066258, 0.0037771285850080752, 0.005633725996595774, -0.006100308169234076, 0.004623148284634802, 0.0027877768278140452, 0.0025619767584247914, -0.001750441735776824, -0.0047581933119927354, -0.0047961497339248154, -0.0028519036333469238, 0.00017095436573943024, 0.0035037167005016177, -0.0062736213431389505, -0.00017472883252404422, 0.00480094521001631, -0.0029074200238055157, 0.0013978665180102766, 0.0029107575561199747, 0.0030724440404256113, -0.001977587658357763, 0.0056777736408009346, 0.00635122666923411, -0.005530547383351875, -0.003756806077424497, -0.0011507015358438956, 0.0033052491227001006, 8.649355550553872e-05, 0.0035295251634017075, 0.00044196628350729914, -0.0065483083167028715, -0.00499328278128153, -0.006359840435993521, -0.005814619023645398, -0.0017375423077644822, 0.0020819340398561866, -0.0014171307861329538, -0.00042321256365883165, -0.005656213754844233, 0.005577361597122311, 0.005761495282167485, -0.004475073340113814, -0.0012541636504491524, 0.001194469108877753, 0.004601026271580879, 0.0022199170345318588, 0.0027228477935604075, 0.0014500847868901378, 0.00011661443751383624, -0.0014041154826556583, -0.002828771930563715, 0.0060427483266994484, -0.0040812882612394, -0.002552808686502142, 0.004534207465637758, 0.0005810897694802235, 0.004718198452799316, 0.00508582337355449, 0.0019532154658805853, -0.00010323667396644525, -0.004734016654903129, -0.002831630785333942, -0.00489814060617897, -0.005283276190836324, 0.0004548709387203738, 0.0003320777928473315, -0.005703053521548115, -0.003869009256874157, 0.0003988245549390201, -0.006264390058551148, 0.003133382048294471, 0.006018381904946252, 0.0014332705656128714, -0.002452314111560787, -0.00013730675541143804, 0.004328742569756979, 0.005669818932770661, -0.002799050349193745, -0.006650166939688199, -0.006546209792853826, -0.005510155900757433, -0.0066572734637606905, -0.0012305409074181576, -0.005946927373656644, -0.0036166768287488396, -0.005079490804566972, -0.005639227090929142, 0.005399550055819081, 0.003275447475289027, 0.005047515488895426, 0.00645326995770992, 0.005410736592001053, -0.0025463521838452437, -0.003293990521458464, -0.0021143832381953906, -0.0051783145791262164, 0.004874215244930372, 0.003812698568092695, 0.005256666497173237, 0.0038771028857087033, -0.00281453324849045, 0.0029877818444754354, 0.004415337671818893, 9.52215243447363e-06, 0.0011896601793062822, -0.0051965522590069835, 0.004061122793423657, 0.004021307005634504, 0.004906268883555045, 0.0006646998994676641, 0.002380664918240017, 0.0024409932333864905, 0.00020845699963623448, -0.0026180997055865267, -0.003954381372800117, -0.004150408351264651, -0.00011113673937356101, 0.003961588296603372, -0.0023584144855595952, -0.0020215339701541804, 0.003164248667368626, -0.0007655628127813512, -0.002151665567230654, -0.001578145992565677, 0.00011984763691885748, -0.005562596442569288, -0.0006479987068831414, 0.005187171023582731, -0.0057711968796233335, -0.0008017585549277558, 0.002570895539865342, 4.1132226416756775e-05, -0.0040555350422803406, 0.0032569727294601016, -0.0056557689841054744, -0.004812693076188065, 0.005081728902942112, 0.004738381750535525, -0.006070683239074545, -0.006131998184220877, -0.005232036688434983, -0.004216184199499066, -0.006308992674405972, -0.006291815785021162, 0.0036197577038551256, -0.001699988553066817, -0.0061082322270478995, -0.0040152215408683686, -0.0018437097292231378, -0.0013198130002941156, 0.0037926683410796805, 0.0021639481817439022, -0.0014180011868466123, 0.005888307254737934, -0.0021794963658827845, 0.0021358089869418857, 0.0011962968341694908, -0.0022642529773804687, 0.00510955687167346, 0.004375481568219911, 0.0033976703679152453, 0.004147397073374605, -0.0024451442827532082, -0.0017111496249354965, -0.004144267334941766, -8.516245487246699e-05, 0.005210353753592553, -0.00025499024840615033, 0.004867872935165057, -0.0020725311254154192, -0.005673966401485556, 0.0062886261444768205, -0.0004087311490732855, 0.003800544160525729, 0.0032576020225153317, -0.0026234037762942943, 0.0026300978926307892, -0.0011101177586114125, -0.0019500689343120371, 0.0014723304451717653, 0.0062734524426024925, 0.004752978190140222, -0.005380153554777455, -0.0036469058707075948, -0.0046046222402927, 0.0012887091699477326, 0.0030412629478027676, -0.0008899519557898936, 0.0033122108070300646, -0.004531239609961844, 0.004254749667125468, 0.0020140418583479026, 0.0011312477997729314, 0.00481196748517177, 0.0001416284791547339, -0.004904126087118696, -0.006138341075139503, -0.0008505921015818256, 0.005114298819576889, -0.004290407868679445, 0.006380483432016082, -0.002195608531144772, -0.0053260872999410375, 0.002532400231530202, 0.0011832466180995696, 0.0021703760201055087, -0.0047921690867342255, 0.0019258186571095137, -0.0005474388019737858, 0.005365220772592716, 0.004776956370377973, -0.00556841958504661, -0.0005037964682058845, -0.0019896218282460278, -0.00331859171683636, -0.003250394611366149, 0.0022277130691166183, -0.004041542173128649, 0.004561626497639124, -0.0003446149404683094, 0.006085186672394785, -0.003853811214291177, 0.0006524012597610941, 0.0020615539784555395, 0.004728838989637929, 0.00392145825052392, 0.006595414779016637, 4.5650472085466854e-05, 0.004341645673559401, -0.0025625729648001533, 0.0013063157687853708, -0.0026035599321510223, -0.006061557359558878, -0.0034370807539800207, 0.0029130607182752794, -0.0008432181713369796, 0.0016340183976228492, 9.849280853965296e-05, 0.004513996088426573, 0.0011397722333435503, -0.004483345675607991, -0.0053856805094570845, 0.002912575819922813, 0.0016160316108025216, -0.002489498500309007, 0.003424485193969774, 0.003213769615688138, -0.004501240586576551, 0.004532646193287626, -0.0037241812969576365, 0.0020320397676427816, -0.0059798305961868015, -0.003113778126716049, 0.0062292171918033835, 0.0036894225111232483, -0.0062190354206976065, -0.0022277342703112646, 0.006522941161445473, -0.0004499834665720568, 0.002508086164438164, -0.00023731619606368555, 0.003084444332325311, -0.0006997180202978078, -0.002276526521771519, -0.004301209958945423, 0.0006885651939023665, -0.004036593244143789, -0.0062167055031092005, -0.0017520387022277653, 0.0021150719257579153, 0.005790365812521018, 0.0029289102606495517, -0.002101772063522971, -0.00022656491818559885, 0.004541489492396321, -0.0023221730972892963, 0.000182594526077543, 0.00454338830407791, -0.002611013156324483, 0.0010102343941777194, 0.001565101783184785, -0.0013336805809525695, -0.005125180817502385, 0.005309131916655188, 0.0026199249422000073, -0.0016666303738752635, -0.002177499734132684, -0.004526790781294899, -0.00014824267857704499, 0.004084211527471534, -0.00516722785873148, -0.0006417082602691933, -0.005876950313017498, -0.0008201635657713943, -0.003790206463072977, -0.0041531333312125615, -0.003978011334070639, 0.0013585643881541913, -0.006493849896097271, -0.0030690539570308643, 0.0009200483960251272, 0.0003768131085964983, -0.0034443571501901033, -0.0003167463874444254, 0.0034256363371880476, -0.0028648303588571923, 0.0012768018316352363, 0.002026214447657922, 0.006141854777955271, 0.004266799084155642, -0.0016693449501028587, 0.004517921566118702, 0.0027466177340415114, -0.0037941107942642137, -0.0030611272626468494, 0.004625801305497394, 0.0007732571757252995, 0.004973997605883817, 0.005962395251357921, -0.006500146987018929, 0.0032146055201769342, 0.00037563392685690774, 0.0027720404670989658, 0.006524414179391412, -0.000998663496137635, 0.004071308201507677, 0.002747838367319539, 0.0017095671829139903, 0.005762568186281824, -0.0014875301947457444, 0.0023784642144263762, 0.0011750275646919804], [-0.39735073949279737, -0.4024094490850797, -0.35096620784155064, -0.33323517922500195, -0.3952653266690812, -0.3156077021371321, -0.6525513891453795, -0.3499487244178712, -0.3218506940566729, -0.36463664164738585, -0.40064743990363344, -0.6225527711290747, -0.2903623963518643, -0.36183254700611445, -0.35134385651922695, -0.30797832437368766, -0.42245491361853854, -0.3548408457185152, -0.39735410486324024, -0.29767146423330876, -0.3478599748451948, -0.41177950344310477, -0.42881155426295836, -0.35206666544285764, -0.3116582177224853, -0.3543526221566423, -0.3684838732564633, -0.31615847844440115, -0.3685971415169375, -0.35274242882777274, -0.3739294650713898, -0.7043201921016997, -0.3239370201538649, -0.3288630692892729, -0.36301659840801254, -0.29669333963448236, -0.2793729315414118, -0.28905509277059394, -0.3247758691053612, -0.29479227488045795, -0.3577662440902401, -0.32045780992938006, -0.37428427156063043, -0.3088713741880316, -0.39588710130493904, -0.3207762972326862, -0.40773087879429504, -0.3523339187467062, -0.40159074026339103, -0.3458473654638866, -0.41977239113958825, -0.3865568615615063, -0.3609073658037596, -0.39438190421943564, -0.29872961581170604, -0.3441924723600913, -0.31694558463972833, -0.32226324961306896, -0.34618291858879735, -0.2856139197048941, -0.3192020010086728, -0.33359529144728534, -0.3889370762044522, -0.34911451747527367, -0.3345447478594449, -0.3684516555741778, -0.3672460427888376, -0.3505945014939747, -0.3291396135784326, -0.3471000075143701, -0.323619121465214, -0.3749464765196445, -0.3132398856168484, -0.3612152290831844, -0.36933310438769573, -0.34476553485648326, -0.3603946982321861, -0.3636738086074827, -0.33692912020290167, -0.33418075449542634, -0.30144959255101483, -0.3283187802619803, -0.3849716337409768, -0.39223646021372743, -0.3922490341417695, -0.3924125526423531, -0.369167277993731, -0.3330754502553205, -0.6324540579223139, -0.39293272405060586, -0.3103187194131891, -0.4175347581291381, -0.29983081463632355, -0.34150933700342156, -0.37593594002669084, -0.4457386046139247, -0.4069469626716211, -0.40019985373502387, -0.3233498800146344, -0.40626086402103345, -0.3697502494646274, -0.35134919625663746, -0.32181441663357807, -0.33866728520800843, -0.29898175427726476, -0.2875321389103021, -0.3198089719229444, -0.29146377014028507, -0.3714624812832057, -0.35245905957665213, -0.3700459873851541, -0.40306039314255354, -0.32707792690789705, -0.3489454947192771, -0.31969040409134625, -0.44816086950586614, -0.3785868125733585, -0.30598811462298536, -0.2937803039090712, -0.3292952548041092, -0.3973384055866413, -0.2900381767835647, -0.29506119854344093, -0.4081674953726022, -0.3577312329935936, -0.3551933799069133, -0.29386166361289606, -0.3573138923231777, -0.2886760971778596, -0.364826596377921, -0.4018859651830538, -0.3268559688854054, -0.39839385281265394, -0.37683913635586586, -0.34118951691360816, -0.36204619956624123, -0.358101006547811, -0.39756357081543203, -0.30173993325676607, -0.3231372344873414, -0.4049300713716545, -0.33033940581371274, -0.4032377189002123, -0.43148215724723044, -0.3296957262525073, -0.35527148322234275, -0.4074341930326335, -0.31270182816342085, -0.35794321418673525, -0.31567666538895023, -0.31278117919956183, -0.33076711607494136, -0.36722128065742016, -0.3583134133239245, -0.3406983936678987, -0.38261249656923385, -0.3757552271706777, -0.35434827387101175, -0.3187712471083105, -0.35681505154815024, -0.3133666151257322, -0.5297549583973252, -0.35496013669286836, -0.367174624086401, -0.39491511223236786, -0.33126588786060773, -0.35217568504993835, -0.32195814579393844, -0.30135567628489923, -0.3999876449655169, -0.39835993936584796, -0.3120683351436431, -0.7139617307349932, -0.3182379554916837, -0.380908414248798, -0.3675762627558767, -0.38207772828569164, -0.3834546965480769, -0.38044035913305646, -0.3464195855662302, -0.4047134076851177, -0.3058635720256885, -0.3098232627045356, -0.3748538832413747, -0.7184365508619107, -0.32701272800975634, -0.35865759077147497, -0.33609803872008803, -0.33263227325418965, -0.40156918442174944, -0.2875959942256906, -0.2893666827190477, -0.738953314518621, -0.3096230768565473, -0.3153352744724052, -0.35484226353630405, -0.3349915687163355, -0.36496531377677466, -0.29887387922288583, -0.3359080999087476, -0.30092910825715524, -0.43029627720801006, -0.4272886389705842, -0.3387795845487676, -0.4127555101301738, -0.3493131709544031, -0.3746026269623696, -0.389105191495554, -0.29911271682084, -0.3584456349647856, -0.4625435515262526, -0.3290360193029923, -0.30577505788168535, -0.29105949679585086, -0.3302813015003359, -0.35962560022172185, -0.5576741190397441, -0.335477731538695, -0.2934423131319759, -0.3218897820897445, -0.40291235397509295, -0.3290364830443945, -0.2928356236822852, -0.3459871513953146, -0.3663393437930239, -0.39111912427845114, -0.6855741589468516, -0.3692717890055216, -0.29355815778967265, -0.3053283726254084, -0.31234516736684353, -0.35142408846067763, -0.3151748338382892, -0.31294655690436163, -0.33247523420460595, -0.3554819711171334, -0.36082575453927535, -0.3503980317625994, -0.4033981626669629, -0.3154054077434912, -0.3336382940454518, -0.31299073244790393, -0.40052795600574603, -0.34803642607996593, -0.35920542731641125, -0.3446858476577448, -0.307138415968566, -0.36081277117325744, -0.35941824392059246, -0.3380981832476854, -0.7235192922317891, -0.31359075928193964, -0.35243496276130715, -0.36973563991298514, -0.7229679247719006, -0.3973816522164202, -0.36126118718958217, -0.3430315215680079, -0.4370052323252288, -0.31883421313801, -0.339272686897939, -0.35627444777970296, -0.35840984409671134, -0.33714760799600646, -0.3875150039276059, -0.3341903110189634, -0.4614214712230183, -0.4003548959691656, -0.37966555903940086, -0.2839115215782808, -0.35195311195965634, -0.3295868731999332, -0.34644324009428074, -0.3800523101128302, -0.3237299095945891, -0.3180217640950378, -0.2996392990619282, -0.3482519531763429, -0.3371282513621939, -0.3264446467269339, -0.37965266734327496, -0.308707000302122, -0.7344922498798244, -0.3655306165095126, -0.33998028890442233, -0.4011182061741352, -0.32721568396243045, -0.3166667129546874, -0.3896868969473054, -0.32917796901445145, -0.3352003239624445, -0.2943029775821588, -0.36476271373332786, -0.3159832522890822, -0.40969166309446065, -0.6839393754381161, -0.3463509099192901, -0.7201984062742486, -0.2938137756241705, -0.3736935981491016, -0.3455006224766583, -0.29502503706147554, -0.3505266326419791, -0.6956651729355218, -0.345215708780104, -0.3718533463224578, -0.33657921658003154, -0.3241058758626031, -0.27972748061245684, -0.4033117244272312, -0.4193136743651969, -0.3536786094224798, -0.39475015563710725, -0.3653844890193371, -0.36312041858160055, -0.3922089507144717, -0.37364794566626475, -0.4264420941634589, -0.31007825958962987, -0.3787104494372542, -0.29765145942708093, -0.3785640694618276, -0.3030451196808851, -0.3401038599716094, -0.35962414211838567, -0.3629590507238368, -0.3618024864672824, -0.3274957181577142, -0.29062612467855836, -0.30421702963394803, -0.3064720999156652, -0.35726014609683077, -0.4102911242511567, -0.39801936880521216, -0.32558378614377853, -0.4079730531205527, -0.2968386656666645, -0.3034662944870897, -0.29160419551135175, -0.6367694489265077, -0.3073085370837253, -0.3448216139512069, -0.38338734723320833, -0.32321467271023213, -0.3101448816465261, -0.3232857340225717, -0.3229713945671372, -0.3493521998267266, -0.3707081542274151, -0.3787376756759416, -0.3934395644838257, -0.3191284411455448, -0.38407340544628754, -0.37999094948480544, -0.3082242132732881, -0.3346358650285968, -0.4877606717907797, -0.345861572052923, -0.39353833688699896, -0.3368570656532708, -0.2822305079662009, -0.34169914106742183, -0.2911073360061776, -0.305949815270896, -0.30828135491293324, -0.357576226329417, -0.3474639771084572, -0.33957269287155656, -0.30381460815311734, -0.32235393685711294, -0.3682058149626107, -0.3456360387915848, -0.3129417807928101, -0.30183140244218, -0.33459349342273725, -0.3367237045498942, -0.3248563583258438, -0.35014174271460863, -0.40758698805367494, -0.3909750040327794, -0.32090598554381133, -0.3415361650546395, -0.3135486868256436, -0.37941827938720407, -0.33891863712852965, -0.3316237488119471, -0.38904580434238933, -0.33337188226265746, -0.3362316268473894, -0.37631042617161253, -0.3221221806586617, -0.4142783179979054, -0.2966695430849866, -0.3251576369222616, -0.46281646689192824, -0.3634645193395953, -0.35954766140770567, -0.397629087664192, -0.343722908456705, -0.3208084956282763, -0.3136233518183788, -0.3044712865495189, -0.3724591034989402, -0.3799497851661082, -0.4111655561438667, -0.41068374885504794, -0.3293105510223656, -0.38782079926141766, -0.3274720681857555, -0.3929204155258111, -0.29514005090784673, -0.5260774995131134, -0.3207209728064746, -0.38557700505208564, -0.314449319967089, -0.387639898972223, -0.3718496621043369, -0.33331883027616366, -0.7342287259937034, -0.34419901806588543, -0.3073828855294454, -0.3648357558760927, -0.36061473042890335, -0.3518496316489898, -0.3666901109637165, -0.32317957315553625, -0.39924548124509085, -0.3600331001127126, -0.39772031481244957, -0.4074147684047592, -0.3506086258044217, -0.3516612989294983, -0.2898551088623794, -0.34147670386454204, -0.4031424322729114, -0.33665933099149764, -0.34671683932791414, -0.39694127373219545, -0.3102990014006691, -0.356520965558239, -0.31829846342961643, -0.3026263172615504, -0.32772744351471556, -0.31512266810003575, -0.3610999552172182, -0.3212610655773062, -0.3394216976882645, -0.29352357027100273, -0.37465881181115973, -0.2915670803087964, -0.3144109735345124, -0.3687637520020401, -0.3347156183036824, -0.30990287601681404, -0.4004321963020614, -0.41685918894569235, -0.3216893666379429, -0.3260722574911074, -0.35240720916834833, -0.3622350022190774, -0.4006742892431596, -0.3228169371670141, -0.3478454952731362, -0.31895842571742916, -0.3493367107715148, -0.28107665262569576, -0.4159063005066153, -0.3012604339279558, -0.39522082435202044, -0.2952818479984639, -0.33347489590075224, -0.3209167621628399, -0.36691142425036266, -0.29527377955649076, -0.3743895199758662, -0.4509010485938049, -0.47678266877906694, -0.34498112729277747, -0.35707241319713856, -0.28544660093211915, -0.27824898126562925, -0.37308190040241246, -0.36683076120938585, -0.38627221486314156, -0.4217517186331571, -0.31065199215265443, -0.33984677827115634, -0.30694326833172253, -0.31427723700711596, -0.3685169710446156, -0.3677284098824152, -0.3211269077368834, -0.32719830823254686, -0.3367160428028946, -0.28389589324442394, -0.3765380863837489, -0.33522765516368064, -0.3269129210879801, -0.3940881067423914, -0.30037254445881884], [-0.0048467490914227375, -0.004469641564723065, -0.006104552369894866, 0.00297096287590947, -0.0029497866921479733, 0.002162374654007149, 0.0035646949409695716, 0.0033056402523125522, 0.0004534346880819755, -0.0063101633725738335, 0.003630915012007272, -0.0018695897848117393, -0.005700190142953075, 0.002991990388623391, 0.0034115610340805375, 0.00014935049838479217, 0.006430676860013212, 0.0011093622697822064, 0.0013657869027117037, -0.005048208116248445, 0.001205566964810104, 0.0010911131811479362, -0.004449148125743721, -0.0012307684381502643, 0.005182158795743904, 0.00014347392056812138, -0.004807719736711716, 0.0014904293967020312, -0.005757062512451375, 0.00496870984316327, -0.005721316745058482, 0.0056709962891668565, -0.0019300608057499964, 0.0021798269414674705, -0.003132723449857312, 0.0046581066612028325, -0.005624135289726576, 0.005243908295968266, -0.0006495335602459596, 0.0009696672540931132, -0.0008493435007928138, -0.0029251327680471155, -0.0013695136881559432, -0.0030941847715686976, 0.005195128922837785, -0.006389203433914996, 0.001446426810188256, -0.003236985546699359, 0.003961019962789149, 0.0045388995184714315, -0.006020098150583217, -0.00046367883958205603, -0.005436052880018141, -0.00633431375608435, 0.0017164029520666166, -0.006328217706980357, 0.0040444265216238034, -0.004122425211919979, 0.0043664039449024935, -0.0007509954033058262, 0.0022600468942425, -0.002666852072556217, 0.004904583013983602, -0.0016290802741131527, 0.004097612212521187, -0.006608032005071629, -0.00586046998755475, 0.0022484316161396323, 0.0005617168946786381, -0.00554388785136539, 0.005451445598658724, -0.0020021205346541495, -0.003851304067154189, -0.0028553094244448754, -0.001806747669543116, 0.0008919931034614199, 0.0038520335852057974, -0.005209312477036994, -0.0031769294002508305, 0.00024181666437958802, -0.005438064577434938, -0.002676214798154992, 0.0038531196831183847, 0.003009200477012671, 0.0024842389471403993, 0.0016708169093074296, 0.005499225885998942, 0.0054962807754704735, -0.0008092292874050547, -0.0052310058925256345, 0.005005890184472502, 0.0022575806916949434, -0.002008011666381289, -0.0004394859672323714, -0.0061877362419214205, 0.002194338644602579, -0.0020297427400748943, -0.0022781196903052547, 0.00039569753026377243, 0.006592570589338679, -0.0006769157525779506, 0.005049532116596858, -0.002894231525791267, -0.005581500785645322, -0.0056523336808848405, -0.0040816076344124454, 0.0007930429390220337, 0.005417138174718356, -0.001794411329718812, 0.004130081633613986, 0.006039191618694547, -0.003951112280561144, -0.004484495686904418, -0.0007311848611820788, -0.0030233687602129458, 0.0009348828908685606, 0.004145288660507241, 0.005126428435431841, -0.0006419257828978951, 4.153299715464792e-05, -0.0026585673854211925, 0.004574945559595759, 0.0007590829078195333, 0.003975017165929131, 0.005180492209077653, -0.005235109900026403, 0.0007424695890227884, 0.003042343114528949, -0.0003828709354774981, -0.0050911217720616825, 0.006527835403735168, -0.004037048549215392, -0.006567243213159888, 0.00041147039074820115, 0.0025349017633714923, -0.005475892845164743, -0.0001153519725579662, -0.0008056841193255673, -0.0007567364490646181, -0.004883458254306931, 0.005924756967742801, -0.0063213530708903405, 0.004090197057896878, -0.0032904048382455114, 0.0013401345175861848, 0.003311687522339414, -0.006136411299007244, 0.004751639808635072, 0.0040900027719200874, 0.0010501068847183779, 0.002884631526494652, 0.005142984449328495, -0.003159917117409259, -0.003574637257424261, -0.0017556254658923336, 0.00024197646227130902, -0.0031386522454039433, -0.0064240763601218, 0.004237841785465023, 0.0032726705974871787, -0.0038621877836523136, -0.00026732367699572096, -0.0055607051411133476, 0.00514679815080626, 0.002153503832659956, 0.006021629238436382, 0.0021709461920279317, -0.0056826859211396965, 0.005288185850247225, 0.0011345808841865688, -0.0005586979079238456, 0.0006025813591818259, 0.0048632543499306, 0.006257325625675409, -0.002854271594898293, 0.005880005941823277, 0.0035819152280852145, 0.005873729407760629, -0.0008179574930634746, 0.004080776556977476, -0.003499964104464959, 0.0013007651482730403, -0.005675672045366551, -0.0008114724167306, 0.00181558867415259, 0.004695512096602652, 0.0014463551742992411, -0.002298768357679779, 0.001799740794763289, 0.001610259236979228, 9.631261939755173e-05, -0.005544867610797062, -0.0005717240156810289, -0.005303879890397733, 0.001337937676600672, -0.000506590384404077, -0.0036129580106233424, -0.0016000422100732588, 0.006231280381393291, -0.00014424067244750102, 0.0016203695239062968, -0.005162101081495341, 0.005391083516139968, 0.0013774303144111068, -0.002298591772912128, -0.0007886159098243133, -0.001780931400325354, 0.006427693369848638, -0.0021986038165776665, 0.003650021419346183, -0.0026847510499620575, -0.0036059363317875585, 0.003347831988415551, -0.005239477200291326, -0.005527944006067028, -0.0004219397986135805, -0.0020456429448829747, -0.0005661876784453557, -0.0039826107705582415, -0.0011527558068931115, 0.0023948062968986127, -0.0014002968069015242, -0.006026966582935546, -0.00021623728427058123, 0.0044504718013868684, -0.0034112963523215065, -0.00337008664258842, -0.0056230502650985005, -0.004945087849937551, 0.000372131279334288, 0.004765623313970918, -0.005488934316378852, -0.001768465712346483, -0.002676131081629029, -0.0037083951561541987, -0.0027285704357178767, -0.0061876436841135415, -0.0037034450216585635, -0.0050677069006788734, 0.005785490569717562, 0.006433594154508356, -0.0047550791722969004, 0.004906784079395161, 0.0021675661970220745, 0.005733124730544873, 0.0011754344397621442, 0.002673009478352394, -0.0026394685211069886, -0.0011213379824493825, 0.004288077083843201, 0.003981875282251039, -0.0025658169560474507, 0.0021792986631031133, -0.00147251012350126, 0.0031174359280101652, 0.0010236478294237737, -0.0041806690609582356, 0.0031916507883503944, 0.002118763729230236, -0.002674341794568042, 0.0005772098045896895, 0.000904317529406521, 0.004377302299407514, 0.004985755897907729, 0.003225783347535348, 0.002156593028149818, 0.0021851018324487814, 0.001425325233675903, 0.002412902631504938, 0.0001264191406252993, 0.006452807138808006, -0.003558053741444522, -0.002157933773414486, 8.904129526770746e-05, -0.0042872691511336505, 0.000373804436982691, -0.0025566542456885288, -0.003625768173582213, -0.00519785490978559, 0.0010368412282611562, -0.006036015930271254, -0.00011861993965277013, 0.001237622616337957, 0.0019245298374066175, 4.861679485326051e-05, -0.003387440704393086, 0.004115837802381216, -0.0019357503085541965, 0.0055062007023950815, 0.005939115413391758, 0.004444996658953347, -0.0014236645440940203, 0.003065801347743288, 0.0008491038168468266, -0.0014082838774290471, 0.0025245921209937957, 0.005012674330339507, 0.0017288830347531139, -0.004605099406525227, 0.004516854355898153, -0.0036041854343850186, -0.000721331805151247, -0.00514584421405183, -0.0021946796168085185, -0.002999254426744774, -0.006273823820088759, -0.003054903905893306, 0.0011546810867233625, -0.004732684094768345, 0.0047747084985125116, 0.0034388284327857223, 0.005831352852836844, -0.0058189080785432164, -0.0035674663177005057, -0.0008872870966638665, -0.003412982493322002, 0.0036731850963949877, -0.006659135543532487, 0.002905684292208607, 0.0025936548140177095, 0.00043595387697086723, -0.0029245436697583867, -0.0006519858093087581, -6.832894650330814e-05, -0.006086378739407179, 0.005646420736043634, -0.0017742739489172885, 0.003111099606474548, 0.0039076180988674, 0.0064816924758059, 0.004624716504852823, -0.0017910014242283813, -0.00029928502930583396, -0.0038955030624562145, 0.00457607610241383, -0.004144750168986968, -0.0047364027155651954, 0.004004002212328076, 0.004538911643689962, -0.0038348485713597933, -0.005994451791380974, -0.0027479277827910597, 0.00557301410075687, 0.00460536093953258, 0.004645023392219333, -0.0018478895686499376, 0.004868443006804526, 0.001341331144812507, 0.0007276287019183091, 0.0034319003320386243, -0.004953389412566761, -0.004817097220028469, 0.005871238320689367, 0.005323664794999383, -0.003917607774941442, 0.006445478537901297, 0.00030909436409872637, -0.0022512645384843645, 0.003520096361472855, -0.005808953214614473, 0.001041716160413329, -0.0038662097146237883, 0.005643353688954209, -0.00157705196140198, 0.005079516133726764, 0.003261022751338344, -0.0026592351037800057, -0.004266762902596585, -0.004698858100899767, -0.0009331001380834379, -0.0050069342918682945, -0.0036630693524844, 0.0033757170232466614, 0.0023878494388344, -0.0007035440054234129, 0.003820808499881645, 0.0006056185291356195, -0.0018073844586011072, -0.0003762709130357975, 0.0032888814894459985, -0.004105180578639334, 0.005675764180938936, 0.00033342134667024576, -0.003252432893974981, -0.001852975927630562, 0.0035455248526067304, -0.006071418087779386, -0.001420197414605209, -0.00272105704480533, 0.0006246149263677841, 0.005592748971092821, 0.0022837683619604814, 0.0038170844853055545, -0.003978853358700045, 0.0025071291929298287, -0.00558951867698956, 0.0014694038449464728, 0.006061248030554799, 0.001617186549033633, 0.005355065351804972, -0.0037365543552950325, 0.002294488585392768, -0.003850280394626746, 0.004393450625345272, -0.0060447390202445226, -0.00592567732977457, 0.0033754850908994027, 0.006085312582955603, 0.006480637317982306, 0.0065055439339738825, 0.003544965374661781, -0.0017625765261359394, -0.006113122518900114, 0.0018894045628562938, -0.0018154798084793462, 0.0038431370894377805, 0.00494533994140497, -0.0024508994714408086, -0.005600379024017201, -0.0052914824995546755, 0.005822625132053788, -0.004767918051391117, -0.005456031967088559, -0.005631673773658432, 0.005030161646758446, -0.005993084112370408, -0.0030917317177343025, -0.0018025258385195805, -0.005850899711145854, -0.006466643981069163, 0.0028291874979329704, 0.0006812707494094238, -0.0044257750571002, -0.005897586218518989, -0.0011022022428010566, 0.0008786612264806088, 0.003619952324314571, -0.0005131787287794346, -0.002252000204097268, -0.0013727903448266113, 0.004809279459245608, 0.0001565437575572395, -0.0015735276651811468, -0.0009981142110019278, -0.0006214949004860012, 