[{"b": [-4.094583505070943, -4.08860763961337, -4.091375223585194, -4.089379892403878, -4.094040879613557, -4.092782232263435, -4.090052458483258, -4.098970013299715, -4.090144607210509, -4.09339276306973, -4.08623340168791, -4.095747052319007, -4.1115773270646585, -4.109456255309116, -4.088308277910907, -4.096359248434719, -4.096833774560079, -4.087483114312777, -4.099163604982798, -4.091846689549114, -4.088334218995475, -4.093163043756589, -4.089423542066748, -4.104433159927924, -4.095419391659584, -4.095499341454354, -4.094405426197954, -4.093497562982541, -4.095053420689552, -4.086098239201226, -4.097341603298583, -4.093260205134451, -4.092453107090326, -4.090108747176319, -4.090446494416386, -4.088724595764589, -4.093891245250238, -4.089555829079008, -4.092407605271096, -4.087749259252373, -4.090909073509049, -4.096429205602493, -4.137054470904517, -4.099431064353849, -4.098922524504674, -4.086059667311708, -4.097088732969967, -4.090673367865631, -4.102841055534541, -4.089124843811645, -4.114751711702839, -4.097146569682497, -4.087772501815191, -4.1363916042810915, -4.085704396411109, -4.095271775605213, -4.097255615897128, -4.104896452136031, -4.091676218646864, -4.09520766618486, -4.090626707931923, -4.088656539547314, -4.091980753023971, -4.093496552392081, -4.0911450902478546, -4.098332455086828, -4.089977163733226, -4.1048649060376, -4.089109850265494, -4.097645922161583, -4.088686960648241, -4.0894827713991715, -4.102449425641737, -4.096986771220259, -4.086721979087365, -4.119721883365222, -4.115789717602434, -4.087003896364807, -4.093598901499196, -4.08770084813164, -4.091298217898362, -4.475170527701721, -4.0880885313864415, -4.091888531279152, -4.09698596873392, -4.126728039053426, -4.089191220193189, -4.09468856456728, -4.094612100825408, -4.109151227754235, -4.094674615947504, -4.10543956856997, -4.088747620800562, -4.093802258672697, -4.096079645810109, -4.090944969214119, -4.087641888760326, -4.089845716932952, -4.108347209267323, -4.095348745227922, -4.095145772996513, -4.101158584657897, -4.092969148639117, -4.106275797332212, -4.086368122503699, -4.092323183006996, -4.0915147596817745, -4.0898523315433515, -4.088466527836552, -4.088098857932756, -4.112063531457367, -4.138527487258915, -4.128773859790682, -4.087736673848016, -4.089233606649273, -4.09237642311681, -4.094785532988221, -4.088535580961817, -4.085298682059204, -4.092817416622314, -4.090349325150658, -4.091051061735553, -4.090231678440574, -4.089413285523139, -4.15626174412963, -4.095197668256301, -4.113518666979171, -4.088695091553065, -4.092312190780153, -4.094316086387744, -4.088799163335472, -4.089111393637564, -4.090689686870514, -4.087535016343036, -4.098863207900903, -4.08788492978584, -4.1094973414427605, -4.110781416674433, -4.09468350670166, -4.110820733080019, -4.090611373803454, -4.088796552296929, -4.088339210924828, -4.088637816942405, -4.090304357932784, -4.116599926785663, -4.091758559617473, -4.084248426038074, -4.091397740416605, -4.103699187480241, -4.090652935203766, -4.10366258712066, -4.09068454781034, -4.08688914320879, -4.101569826054857, -4.089466620483471, -4.08648827374746, -4.119782785499318, -4.086654126422108, -4.089462644258937, -4.096551137917665, -4.092018693126324, -4.088926888875913, -4.087167055953285, -4.103578037542163, -4.088793818084073, -4.097297743795906, -4.08619522249435, -4.085809115178537, -4.09053092311608, -4.092746353994655, -4.095132367125502, -4.107720074051855, -4.094924031215171, -4.096783925399396, -4.101547790304506, -4.100264393691299, -4.08941394140564, -4.0900705041684065, -4.087415599365959, -4.08831780325027, -4.1154128757504065, -4.088762398396814, -4.093717820594821, -4.088901792297698, -4.099406366605002, -4.090089288022941, -4.106083695442109, -4.093053622660734, -4.111574373086185, -4.0968858527776435, -4.092003006410525, -4.090009720672323, -4.10202819668039, -4.08694474299746, -4.086052829995284, -4.091467460783141, -4.085850759069862, -4.087087732139793, -4.120961938128232, -4.086163469171319, -4.094644203946322, -4.087480199573873, -4.119423533028905, -4.085717573063286, -4.086597784110234, -4.089881414896962, -4.094783545185575, -4.0902445777394885, -4.095949501402975, -4.097626388590687, -4.095769184113687, -4.1159523226699966, -4.088028330631465, -4.088112670818051, -4.08575474616948, -4.090856071594096, -4.087542635884298, -4.09181452989717, -4.088107020480575, -4.085541356529925, -4.0926079853624255, -4.098872965199414, -4.094776979464188, -4.089780638542434, -4.0868176403010805, -4.088111210458085, -4.086983958559854, -4.125886419508317, -4.09068485720102, -4.102201964050553, -4.102862516728696, -4.104792005791631, -4.100166953680038, -4.106349114634196, -4.0911495807919485, -4.0947227426427375, -4.102245732528082, -4.090726731593257, -4.087041746598189, -4.0919344340865065, -4.086514740861617, -4.089636670357346, -4.1097587572966, -4.09153669946212, -4.089102246443165, -4.09245446797178, -4.092359931399522, -4.086772077261507, -4.088883161065337, -4.0884666547761155, -4.109226488682795, -4.0875363782148, -4.088122891025809, -4.087408172094067, -4.0923368979614, -4.088377997404584, -4.095031588844121, -4.086437756387419, -4.086028715964314, -4.095324900991956, -4.091953202601396, -4.1094641336818025, -4.088690635678523, -4.089001430324793, -4.093559768238317, -4.090061966935747, -4.094846712727633, -4.088255885042805, -4.095798927330248, -4.095742258244414, -4.091456076097642, -4.086045642885937, -4.091343271896296, -4.0895582255019205, -4.087951308284416, -4.091847503424499, -4.090834751937626, -4.088561849011734, -4.086538789257685, -4.0908140670699025, -4.090602584151246, -4.121449446464423, -4.088156173378582, -4.104527970623975, -4.088820260302323, -4.093482339918454, -4.088181368349607, -4.096891920871616, -4.097624273988435, -4.099629222202024, -4.114262011837339, -4.09126647122316, -4.087185890343642, -4.091438558927261, -4.086427150542324, -4.093547336871258, -4.101438770623389, -4.089588741255477, -4.093369991932473, -4.10035672659033, -4.089055207292448, -4.086886912577449, -4.092336875106742, -4.0919121424888205, -4.0950569304723885, -4.096065159579787, -4.095626867188122, -4.095157654853144, -4.086616029280545, -4.0916716979471905, -4.093518663081817, -4.088574769093892, -4.087747753386988, -4.089465250943342, -4.096550915586139, -4.091358143549198, -4.10187125465592, -4.10942556645883, -4.090220850345659, -4.087388702629409, -4.099030215259791, -4.087553930941399, -4.08766240898305, -4.090956602204388, -4.08733070449341, -4.114011632854988, -4.095657106175034, -4.0895623660096385, -4.137592159322621, -4.090576258135473, -4.092216433442907, -4.088798895878404, -4.089699935041632, -4.089334792566437, -4.163014798781145, -4.0961839153998625, -4.118307615095251, -4.089243208155851, -4.090599377465311, -4.087487346769227, -4.089473857418681, -4.08979367320756, -4.094805861783982, -4.0886396265257, -4.090451507746565, -4.094259350723947, -4.092648887979914, -4.096853297644277, -4.097074912595428, -4.093674391940326, -4.100087286129037, -4.093573713967505, -4.0874350902600805, -4.106457649160092, -4.089957855136001, -4.091463279907672, -4.091533214383953, -4.669123306023145, -4.089964523801233, -4.090804372674533, -4.088349617815256, -4.089863929962756, -4.09980717518674, -4.096868096078926, -4.128598643984748, -4.096114444355304, -4.092622040516933, -4.089490971483608, -4.110262816604125, -4.089521814858471, -4.0883594622509225, -4.0869632929042545, -4.092037121595538, -4.099065629309566, -4.096511495727961, -4.094460428374804, -4.105465962883136, -4.105485875260757, -4.093959207035937, -4.087368894903769, -4.0914997048047175, -4.110567991204157, -4.091719793319931, -4.0898829261588165, -4.087502996563808, -4.1145774411544815, -4.0923145384271065, -4.090697154616548, -4.089478790828768, -4.093485755953181, -4.087461859836128, -4.095156894919512, -4.130365367500248, -4.094922428614524, -4.125608416725766, -4.08861926666901, -4.091618535307208, -4.0933584503514915, -4.111651872471328, -4.088668720765898, -4.088956644044803, -4.088735729205824, -4.0874179323657565, -4.091418420482606, -4.090029092708424, -4.0891395459939615, -4.969279755962921, -4.0905733005511635, -4.093065057365611, -4.089896536394586, -4.091212128397872, -4.093600793562971, -4.098251719662407, -4.089345297333899, -4.086612489711342, -4.089063744856222, -4.087934894372447, -4.094297060803888, -4.091267525442845, -4.0918473473305985, -4.091469270722037, -4.0879601867180595, -4.094813349343985, -4.0887069552686395, -4.092730886814944, -4.104617468097356, -4.093759968369811, -4.1330128880352985, -4.101566907706779, -4.089798473026709, -4.089439678882577, -4.09007125994667, -4.090868497707077, -4.089667354439849, -4.089055603347629, -4.0900490955934945, -4.087831071664004, -4.095513205912028, -4.089040938437167, -4.088788474645581, -4.085222660700952, -4.104238220357068, -4.087489631910309, -4.088485986290455, -4.09156503181959, -4.1007330984429515, -4.090630828335496, -4.090850595950257, -4.086482569353116, -4.087139084420299, -4.089840341051765, -4.097069462185672, -4.0897116579169, -4.088984920221532, -4.087582081381455, -4.098911386144353, -4.0876261129694464, -4.091098955087402, -4.090977774512073, -4.09144825439003, -4.086723942659511, -4.095650017530573, -4.087827601213596, -4.09065428613549, -4.0961583353242315, -4.087966178502277, -4.094306930415369, -4.090944067464117, -4.088565058584255, -4.089769744624417, -4.091715639028326, -4.1088554470940295, -4.111694633036667, -4.090771440386881, -4.09277539843481, -4.090292980817667, -4.093040287558822, -4.094180994798753, -4.090361931386318, -4.094004596276906, -4.095886194596505, -4.090970301129946, -4.0891766187609635, -4.086715633626185, -4.090074391858855, -4.094988207427219, -4.087430235861421, -4.09197862374393, -4.104753486050948, -4.11132980195939, -4.0918931329124515, -4.095500551995777, -4.102492124652786, -4.092615412330868, -4.092668437506522, -4.089747421154448, -4.089827953357294, -4.088594802543831, -4.100641649758176], "name": "hidden0", "activation": "sigmoid", "bias": true, "W": [[0.06922766080374147, 0.03080373062555566, -0.01471270742052622, -0.0017687269142747288, 0.006662864311434759, 0.019550748953076458, 0.06710674393467977, -0.05343825036648904, 0.02078002875741048, 0.063745762082585, 0.005921128365778253, -0.014785505636403292, -0.08199351888523967, -0.04331441830798143, 0.04459933992449119, -0.008268661426231937, -0.06920172424018811, 0.05016568802262105, 0.12883151835289944, 0.0505634690247061, 0.04765935954727738, -0.03422308461073135, 0.06002825485331154, -0.06343662883307644, 0.05818353431118903, 0.04860000659624981, 0.09019730623440134, -0.024094810824468144, 0.08124274099691564, 0.021864975957922347, -0.037794440916315376, 0.0835794430566556, 0.047383033219350015, 0.04150090948312319, 0.004524644017191904, 0.059823081391722634, -0.02618009635012448, 0.03543002731695126, -0.009540158913533277, 0.040063790799915254, 0.012790055347643848, -0.01228258309531738, -0.029780482370089872, -0.022729856211640857, 0.10810183853138879, 0.023523800698497768, 0.03321616908793128, 0.08656402467013889, -0.0960358457659365, -0.006672188015537418, -0.13325500125867557, 0.010482221763500875, 0.07020110130092223, -0.076785720994178, 0.04391439716441493, 0.012454585242266974, -0.03160162778557119, -0.041998978395839284, -0.006053142546995606, -0.020160735360617757, 0.012177750944949528, 0.024808599980936763, 0.08699867458078496, 0.08235467101788813, -0.004321789662367277, -0.025705229678716534, 0.07796388858004023, 0.13097029390872314, -0.018393046225791347, -0.06384115666723895, 0.025744230734850968, 0.010041156570688619, -0.05502661363784859, -0.0038214736687723094, 0.040252361674704536, -0.03646775741227455, -0.023390065699043668, 0.01833488597453777, -0.04793262374971839, 0.026258518658918446, -0.01774798434578755, -0.26447447457245604, 0.06633590440317307, 0.0024132426261314764, 0.002874959155707137, 0.054867151354370695, 0.02322284258457621, -0.009618856363098715, 0.021536642781210407, -0.0846506247001437, 0.009475489222618956, -0.11380587166614511, 0.050949565231806965, 0.05485280840342245, 0.015555867471846898, 0.024822020407274936, 0.036326920632725336, 0.043642618056749787, -0.037227824652462806, 0.10698514615502312, 0.07203427303944315, 0.01192391180136156, 0.07999271931739924, 0.1281676443671969, 0.059491866088619255, 0.0609934020440195, -0.029189741185419612, 0.08032887582865525, 0.037614848048100454, 0.018566562038652534, -0.041235308079403274, -0.04315777352369448, -0.03932224604849881, 0.07346377763501405, 0.05270526964125413, -0.009752692926606972, 0.081185346173595, 0.07786622730221976, 0.031280752218889464, 0.07271007985922097, 0.021002676563199037, 0.02831238535713357, 0.06462865258178978, 0.03691576549585997, -0.06786667104932383, 0.03385791513192128, -0.10130117762014011, 0.07943392008105163, 0.10068308818815994, -0.015233951881095449, 0.04970351419026318, 0.006675979542217067, 0.025717824108720467, 0.01860212153913579, -0.08240891060900889, 0.04041822412890859, 0.11665859380831385, -0.07684972224722547, -0.04549252506747389, -0.049578963926930744, -0.024047076142179907, 0.01550829759741675, 0.0714602322064026, 0.019486167756306596, 0.03276473477116105, -0.13077601131437305, -0.025483701813757715, 0.023298585783810673, 0.001253351397954689, 0.1006017426070057, 0.0224985888107747, 0.12905612114537202, 0.013375210657494446, 0.004140413074555549, -0.08160763768911446, 0.0351761377651553, 0.0400348580963157, -0.11305357529524084, 0.009794328917700382, 0.03849389281652147, -0.010375280365448727, 0.03388674480903599, 0.0008854431832759466, 0.06697985614276529, 0.10696063842338298, 0.04350805840253091, -0.04362657708623979, 0.04223502930697671, 0.045339587271912625, 0.03614235602466392, -0.025179496091190252, 0.05446226308478815, -0.06686977647612509, -0.0029048800250561905, -0.06909800542942038, -0.030873678162624672, 0.0813787155649576, 0.045799978757306535, 0.06248147246851316, 0.06378329356373769, 0.055383529455104684, -0.11919069817757201, 0.006692434604679326, -0.017659077854459193, 0.037671718682025596, -0.057190499850661915, 0.004863271620388768, -0.06709338772421097, 0.0019214290775124909, -0.049079257690512856, -0.036110459936788235, -0.0414449867426533, 0.0004293928603098944, -0.09962887947230435, 0.05172517472092368, 0.01771783421851475, 0.06236361760567489, 0.032556375214586514, 0.014365851943651338, -0.07623936899110453, 0.056295624027898644, 0.045659579967393, 0.0445971312173095, 0.15618652982171602, 0.028659892995476603, 0.027876178972655978, 0.05496151852021684, 0.005609151277632453, -0.012294056249316487, -0.011503229457024177, 0.08684434534319123, 0.047723253364215026, -0.06992762402077213, -0.006006883546020643, 0.02671211001452348, 0.003266548581992783, 0.06626913113503768, 0.03590015074823123, 0.023958097264974266, 0.029748256546712235, 0.011539385453672972, 0.0344441043937168, -0.029974862118956985, 0.04565300796644674, 0.026472439330562664, 0.012505238763543081, -0.006114922210228488, 0.02688934864056516, -0.07728488165304487, 0.061782863731946296, 0.10068333045350554, -0.04748038870275286, 0.12300010082794433, 0.06796508690150148, 9.022081183279073e-05, 0.046771070405993806, -0.0632742801516037, 0.10895706804845115, -0.014235830759613466, 0.019222372765312898, -0.012220987260324716, 0.041857631403604184, -0.005847785110700287, -0.06725351635158612, -0.010765332183885585, 0.06850387301967974, 0.07719430628123108, -0.015418968646170414, 0.020078612959916173, 0.01352882649224886, 0.054666229256754226, 0.16939761922756616, 0.01252973199186296, 0.0394061446144462, 0.007996775213721333, 0.05387818797757454, 0.047518680946945904, 0.013683504589782697, 0.045685879456976386, 0.031553582207344506, -0.058035996687745846, 0.051623934858153454, 0.1421831106845713, 0.009827584907518604, 0.03892513192488265, 0.0606759283357043, 0.028695515021916352, 0.11726957502408666, 0.025432190838263685, -0.0636721812019127, -0.019440995916291653, 0.00020089714513722365, 0.016640779633024582, 0.03410913668528655, 0.07166742556505727, 0.07210147462216343, 0.07813871998589643, 0.043992280443294264, 0.04563966022577651, 0.02406290005638594, 0.01981428182471681, 0.0504402037810329, 0.12043788393043332, 0.008236463732244058, 0.011240032801008012, 0.01163075196248992, -0.021461733620432383, 0.024274971783288295, 0.06494637327337313, 0.0841599895578452, -0.05375096526211587, -0.04244044474420319, 0.06822561675055239, 0.04120441465814582, 0.08641919530184482, 0.012635345054229976, 0.09077547399061288, -0.0356880863005477, 0.055035899660720256, -0.0013777575002548528, -0.028787654589028336, -0.004534543437484629, 0.04340028128926296, 0.10681492668998635, 0.03352577094939051, 0.0036179162234636253, -0.021535001267555597, -0.005955186678122779, 0.08323521241389548, 0.009441683371746418, 0.021392460965120767, 0.020752408585321895, 0.05387290966806186, 0.013988717438004323, 0.06283737577218801, 0.0452831164606152, 0.05946824255228139, -0.019755842941844255, -0.09448867766237455, 0.005751300519952791, 0.05027049491339861, -0.028414880981657516, 0.03778906336569594, 0.04128287369267977, 0.041473365046265365, 0.07138651297693217, -0.04499225637415184, 0.0975800759571618, 0.037577333501798794, -0.14611936808833853, 0.08565950916829664, -0.03474386036124824, -0.012718789733602543, -0.006613447609906856, 0.03402842269834506, -0.15512523089227181, -0.052118276101257806, -0.14724287937263472, 0.0408970408527122, 0.060967483378527476, 0.006017039216154468, 0.07037216785950362, 0.00868519937085399, 0.10565256162623633, 0.04889296505505065, 0.06049816956101322, -0.045368424897845705, -0.02310667036609052, -0.03323629451485974, -0.006417168644764533, 0.009206195146951668, 0.003437695878888336, 0.08610185681357077, 0.01044597411317176, -0.04559829753733277, 0.014765712798809593, 0.05474152457666476, 0.020550228730291234, -0.7329028743103119, -0.01713766425431444, 0.05455757946634677, 0.02621684255732223, 0.06100975310983014, 0.02074663240566764, 0.06313601965292336, -0.17866666167583425, -0.00708357705683805, -0.00020092866125866432, 0.034785749390010536, 0.07333009719064824, 0.03054248155565989, 0.018782234604463915, 0.04796531885852158, 0.03046916890683202, 0.0037777156482869, 0.09547927351188665, -0.01555254763078957, 0.14210166043939212, -0.04210494235465276, 0.021892882000779955, 0.009350070745780478, 0.028470994045253346, -0.044797622234951325, 0.02197397429265814, 0.03781827464095335, 0.03988222659925901, -0.06443425179051983, -0.01584216754048987, 0.024106803419088274, -0.021760951364789262, -0.030587357264223704, 0.02180662766274133, 0.10340130124625097, -0.0918282097524184, 0.09088844502912972, -0.046584312111622714, 0.01566077366531125, 0.03599772190786182, 0.015897437080638618, -0.1274935617815315, 0.0016143408851271876, 0.05728869463001709, 0.047418613912777324, 0.040390972482916294, 0.05299667486250514, 0.05707656697837738, 0.040856424442792943, 0.4853001940666555, 0.05204023707419327, 0.0710722081629778, 0.005609537800859326, 0.02952276164670388, 0.059922375449252115, -0.03498457285849703, 0.007337741900033334, 0.020473859306196968, 0.07754557123745767, 0.047628208755359114, 0.08282072719400763, 0.015268921966848783, 0.0746644673201413, -0.003665909413165404, 0.022083161328565942, 0.03760238615456624, 0.04225909344892176, 0.07640704146913423, -0.0799575245667752, 0.03135272544081986, -0.06401337283625257, -0.05810015584522704, -0.012984418788835612, 0.051415799556183354, -0.012543465696405418, 0.09412918681620172, 0.03980894580555067, 0.06147477950238751, 0.018331561911509874, 0.009228701933955606, -0.04163321080924599, 0.006636434041130021, 0.009102565010104181, 0.05774231674361177, -0.09549619150030261, 0.06494958484440258, 0.03800668957552533, 0.10622219915577807, 0.13318249994292178, 0.04806584615916741, 0.03238687679799016, 0.019132317058259567, 0.029668498847796317, 0.05710485213063555, 0.12050236723083352, -0.0014680852934950094, 0.003901141106513258, -0.015316334090342732, -0.06571776934984837, 0.023488247337017185, 0.054554634976303217, 0.071255589893446, 0.06935939467098397, 0.026950616039894657, -0.057860565964207286, 0.03211553297211562, 0.018097256703258825, -0.01954194934668569, 0.02907571172096179, 0.010363958914157654, 0.10040296466517601, 0.0383960103238058, 0.06002316401430813, 0.08336848312775282, 0.1531911622686451, -0.08133638381945402, -0.011858091654124712, 0.013614960468698286, 0.004581443279288354, 0.07421736903076455, 0.07371647196744895, 0.04176626706858596, 0.082385223259604, -0.0051622682788243415, 0.07707539968473447, 0.04374933731591341, 0.03351858458022016, 0.0468608038789175, -0.02440899570494412, 0.05988776395682267, -0.0045272049699775635, -0.03660041440981478, -0.06736526250451959, 0.06475855070969443, -0.022419793781362458, -0.04231098274052556, 0.07742413452745212, 0.06227018176279297, 0.019554084305467692, 0.0501527498278473, 0.03235661982833124, -0.029785869112592844], [0.041405848460032244, -0.007093578527802791, -0.03893960072198235, -0.0406785035087528, -0.034120324146576946, -0.010417306511378151, 0.03384219496313175, -0.09176672871433195, -0.015203513994904482, 0.019782910396506388, -0.025534342890385732, -0.05653612634240336, -0.12295434493060632, -0.08737994953284825, 0.00598837251232054, -0.050351122669699225, -0.10358669164746974, 0.01671607607113548, 0.10160021559172774, 0.0170676324828587, 0.020589617374951644, -0.07124399711946151, 0.023834099792707533, -0.10412806915123578, 0.011704548697128591, 0.006869400069240106, 0.058033732343551844, -0.06352902479106087, 0.04467840134858313, -0.01213095380742308, -0.07829121703390371, 0.05854219449809509, 0.022229401686824076, 0.0067761455139998825, -0.03038194706981925, 0.02354792922672898, -0.06633172023933175, -0.002706885397546983, -0.046788614917686856, 0.007165608229524306, -0.027437435157320892, -0.05418583056009835, -0.08672189834749859, -0.06762877052323113, 0.08417141090474853, -0.01291776713663387, -0.012206080599012162, 0.05283785460673113, -0.12361285853707572, -0.03857776958820355, -0.16450898150814325, -0.006166140211097608, 0.034768622808361065, -0.12448726926731513, 0.007653887002203038, -0.029804660599683765, -0.06893038509584203, -0.08632669672864798, -0.04518517450277836, -0.06033804740702562, -0.0260848389069798, -0.011502451604778087, 0.05606584162078976, 0.04015621228918857, -0.044571343171050624, -0.06702069233891363, 0.04586901097313431, 0.08447197703235965, -0.05105095952933814, -0.09242775053044039, -0.010440266645798347, -0.014709723118841578, -0.09406040734164378, -0.047014808082549264, 0.004183428059140073, -0.08635895934936653, -0.07429333162256788, -0.0183639845333569, -0.0799215337315885, -0.010783982830857169, -0.05214844378593831, -0.142208249341184, 0.03492898421510271, -0.03545425268711001, -0.039408945578642406, -0.010637781291566001, -0.01596217051687252, -0.046694552310514004, -0.0018871544068918115, -0.12355906913760505, -0.030823111498808283, -0.14468960979503617, 0.02095282915136126, 0.03072444554505327, -0.02940407529289158, -0.003639137190064388, 0.0033257861130467233, 0.016011144791535946, -0.08267379075214819, 0.07398030972776588, 0.046398873474567955, -0.034276266381132334, 0.05154450284708095, 0.10638250448431268, 0.023779018097127905, 0.03730298958987115, -0.0661404599253355, 0.04681891431215949, 0.005655149666303048, -0.012040912974334322, -0.08833397990428547, -0.09847311268036617, -0.09236161176669873, 0.039054033471648354, 0.02351355152122792, -0.04964295019813513, 0.054278876641900446, 0.04495151786141939, -0.003215195700126995, 0.046712816199690865, -0.01958696136017733, -0.01126153950811698, 0.038651977549091256, 0.0007518040672358739, -0.1219487256818465, -0.009395940705093113, -0.13890925054716713, 0.041067461328547085, 0.06902150034657317, -0.05592653660495795, 0.019177994700118817, -0.027519124444411087, -0.015063429226597792, -0.014149856950028374, -0.11196645990228897, 0.0025959973730335355, 0.10176856198631773, -0.11825110727290522, -0.08030562871098426, -0.0946922076544215, -0.055722535203237895, -0.01662142495280793, 0.041976242786510846, -0.01437163171764235, -0.0070148844961084155, -0.16349648663148167, -0.057804242974005104, -0.005031969914342125, -0.025739733562727272, 0.08019460442050802, -0.017571776526465577, 0.10631129893193106, -0.02438170231540457, -0.028768070320967065, -0.1107157958166741, -0.005690022225756842, 0.010507333121106603, -0.15124530124273516, -0.020834150599239203, 0.00832475160079485, -0.05217047459365163, -0.0021744937483224, -0.033056702871327934, 0.03620531346700998, 0.0879402292705066, 0.009031362088089634, -0.0824415007663685, 0.007508950033137868, 0.0065903562235039796, -0.0028539067860513536, -0.057303543020450105, 0.008519107435216696, -0.1082074915499367, -0.042675860096313356, -0.10307222153069744, -0.07567336693713306, 0.06319822474899067, 0.017327704278900544, 0.032049354691865754, 0.032010188910908226, 0.027481493032464104, -0.153310103553887, -0.030946733757478886, -0.058486319896577425, 0.006697376107497536, -0.09402373272865994, -0.020671537087087764, -0.10769483695148144, -0.03927214068482138, -0.09313504826403814, -0.07622987299384487, -0.07485577428192375, -0.038066267548863324, -0.12669383388323616, 0.01610649758298108, -0.02045595565092723, 0.028856965675480024, -0.0019302795167980222, -0.019151578491128782, -0.12108292222315643, 0.025038612790924248, 0.0030184534242993295, 0.012367727124241591, 0.09686488364168114, -0.008508500561835079, -0.01007156090786733, 0.02361734338883947, -0.013944167329879067, -0.046096198512004874, -0.049198950549469746, 0.06506707730204087, 0.027697554071738007, -0.11434911134721114, -0.04023568610758575, -0.009233181751111043, -0.02679367650173518, 0.03105060455357117, -0.004262271261504869, -0.011113567207721692, -0.011155583153762272, -0.02072195405404167, 0.007704709074324694, -0.07214311143395083, 0.0008614020768347796, -0.013503159339037726, -0.022115170307440927, -0.03669129944178551, -0.006283355248445513, -0.12218210371372841, 0.022864043089977606, 0.05260763065302427, -0.09049313951850442, 0.10234952232673306, 0.04816987878153717, -0.04939212303924827, 0.004098861961879016, -0.09703338633369524, 0.08556977000143726, -0.05024609690167699, -0.011688829428433455, -0.042084553369795545, 0.006598217971584636, -0.04466059462508187, -0.10911332012602352, -0.03483323236890596, 0.030946245764893337, 0.050247671248045626, -0.03714114960950966, -0.015310648731506785, -0.023326101450545363, 0.024542019482068106, 0.12734499596233004, -0.026987534907924368, 0.009561892323187887, -0.022554549652211073, 0.01348838224039835, 0.01646138023441657, -0.03093664620024141, 0.0156557345653512, 0.0002573307114304794, -0.09178364388970978, 0.018946253750239225, 0.12098778747754331, -0.02207777827636669, 0.0064539327009282025, 0.03698287888597805, -0.00789946774914128, 0.08643528742969975, -0.01044377954559873, -0.09353262971950894, -0.03753670618391399, -0.03656769157716662, -0.015810539829395554, -0.0023447851747043277, 0.040050511232210026, 0.043727978174568964, 0.04659197627749702, 0.02018577624324281, 0.015962440715522167, -0.010714137698193555, -0.020283919012453414, 0.00915869830782311, 0.054851918879466506, -0.026456539719438767, -0.037735323048907386, -0.021099189709410143, -0.058631441971609286, -0.011961693858217387, 0.0427511193126423, 0.06432429424993943, -0.09311577516728387, -0.08989852456815262, 0.035959705231185204, 0.007006017991642088, 0.056031377247821375, -0.01939482139830862, 0.06346416454640147, -0.05172961223365949, 0.01599945716568165, -0.04343420428269512, -0.07087035452282157, -0.036584579880707235, 0.009468650668199997, 0.07411456967583224, -0.009134633757854964, -0.035731088093906585, -0.061519819065845374, -0.048097765844131495, 0.05635174630155872, -0.02143019252355536, -0.017534422508482635, -0.020911582558053577, 0.016442102944558334, -0.01999619290147051, 0.03290963792939313, -0.0010281201518312006, 0.03378797446274857, -0.06623642281063363, -0.13294835390599255, -0.029527550871624387, 0.011708985849935575, -0.06991374615575854, 0.004861079629964787, 0.01523197345651314, 0.014819822941002727, 0.03433276181068457, -0.0923978828483321, 0.07177327922903218, 0.011289785836387175, -0.1820671770240341, 0.05636975269886605, -0.06275773866274971, -0.05071313733431706, -0.04529794381432553, -0.0026012724422145406, -0.25131127529569597, -0.0893338106422902, -0.17146245846207372, 0.0019410664191769906, 0.022725096200018446, -0.031069823574989625, 0.034919300834659966, -0.02956990653267381, 0.07480192575956418, 0.021255050119519878, 0.023069467556618033, -0.07722678370051492, -0.059057384776721976, -0.07209755077434893, -0.04882528249205496, -0.02993834865895007, -0.04256722049505848, 0.05536872873069482, -0.01711774058490002, -0.09057492241242816, -0.020919662426641117, 0.01387146412129408, -0.019534453451045226, -0.6617201842094482, -0.05420026900788868, 0.027034590748186742, -0.0094033682159479, 0.022276667948743015, -0.02700548771720367, 0.04273940051865499, -0.20201206003931724, -0.048693088173321034, -0.03981198163417606, 0.010273015383568495, 0.06199639114630209, -0.007844738085342915, -0.016164420072834765, 0.011082479060554712, -0.00949074431846104, -0.04316207524976858, 0.07096484551891473, -0.05631780442072405, 0.11727884355835305, -0.08744475999146602, 0.0015222627486786934, -0.025210160535439532, -0.009080291108487428, -0.09150969277249373, -0.011179801530739466, 0.011445067235234144, 0.013015870342191127, -0.10857270522791837, -0.05541681878849157, -0.012720838908553278, -0.05329656599730413, -0.06937145035789494, -0.014602881617496946, 0.06515616870950833, -0.1366370329074467, 0.06338052047934652, -0.09755586855903224, -0.023799233265402536, 0.0021103984981263343, -0.022918488745953782, -0.15758099701402534, -0.032187881688217554, 0.02306111678898231, 0.011612065850047476, 0.0028384015962581023, 0.01346105788969758, 0.018552719309694585, 0.0046015012117072126, 0.35006910538006725, 0.013267716100229225, 0.04349363378665061, -0.03343902255128931, -0.015030229744376108, 0.03266560799912368, -0.075473196966258, -0.02811963245504351, -0.01572633643738042, 0.04288603439047158, 0.015370084266384384, 0.055930994016333606, -0.01985473550766753, 0.046015548027061544, -0.04209117209582029, -0.01220087586674191, 0.017887935606372384, 0.01425211332191224, 0.05191293323109997, -0.11785994829429093, -0.012608251631956665, -0.11393738869672831, -0.10013489790611138, -0.0472481197038922, 0.02380004928936824, -0.04814810574593719, 0.059284229312657595, 0.01251709164441643, 0.0234246650823712, -0.014942664570577047, -0.025309269090392623, -0.07981454042790355, -0.024753987656508755, -0.02950234788036535, 0.026764808521461257, -0.12859521200544557, 0.028680623335611607, 0.0026501969348259186, 0.07764147268589913, 0.09362959549808923, 0.02004834335929253, 0.007514314994570979, -0.009872430466731358, -0.007100434711009011, 0.018990686022684528, 0.08732302266343006, -0.039092899596973325, -0.03337131768336777, -0.04708094483759671, -0.1027365017387935, -0.004932108880981672, 0.018906757192068607, 0.039273313859964264, 0.041637316009708006, -0.00790629177099274, -0.09366947064619033, -0.0004138797720860147, -0.0067423878125546614, -0.059753247088240105, -0.002687694850235926, -0.0315486363936527, 0.06953880464552249, -0.001280855990263184, 0.02321606146325888, 0.052560835128882696, 0.12825755714911263, -0.12188573135427404, -0.04937155529318524, -0.029120828235516212, -0.033817612007763016, 0.040909771836163594, 0.03712569332387667, 0.002483509886656522, 0.05587781015244536, -0.04560075304707539, 0.049289826115450255, 0.008005236335700609, 0.005002674274193469, 0.009006638233699888, -0.06329903446476576, 0.031265190435299496, -0.045374967690185106, -0.0810229062749436, -0.10974729069982352, 0.025468316685466952, -0.06175381115587764, -0.08520815162663181, 0.045005360398267455, 0.021626208851107852, -0.013136378844942594, 0.017689619486972234, 0.0004439344485946558, -0.07230891514595102], [0.04806452067678669, -0.009145540971073698, -0.014406229085166575, -0.041121785411650943, -0.038946069132148035, 0.0003459997225244891, 0.03390089771372549, -0.08850408844465808, -0.013502573974850197, 0.005004828957640314, -0.014281410054548792, -0.06120390668877834, -0.12366283376616587, -0.09513972468892186, 0.001434170087651468, -0.0561409508043534, -0.09214075323893317, 0.019199974992008113, 0.09914068141303779, 0.018705871586123173, 0.03245689703462831, -0.06645196766080302, 0.020737615464114997, -0.1047820085118967, -0.006045957009178762, -0.0036479990668918487, 0.05570496755403988, -0.0634667538555413, 0.03755776148226691, -0.00675798526841, -0.07941959996151594, 0.06688761241585711, 0.036208328698091555, 0.007990203945967465, -0.025269519253175027, 0.020469710015234382, -0.06732653583368535, -0.005756191001425628, -0.04439490728943152, 0.011729610444952378, -0.03147291002867715, -0.059366515828747524, -0.11354289092011738, -0.07661761770913765, 0.08923857676922975, -0.011486564981024131, -0.02646293810581167, 0.04946543936857228, -0.09886964402464407, -0.027184630347117367, -0.14648065424035484, 0.02493220953759965, 0.03164585790423694, -0.13762289124655763, 0.006992770978691944, -0.037479221931407174, -0.0655379500452345, -0.09384539987598714, -0.04599466352476253, -0.06209587578295527, -0.027027513672654317, -0.0104966693683472, 0.0561455164629176, 0.025590998985916023, -0.04710286861932304, -0.07057450768927229, 0.0460188934540333, 0.05764393922013408, -0.039654482092174065, -0.07116932798011318, -0.00932433076807706, 0.005937248867532178, -0.09244638815404867, -0.05488043175842969, 0.004062352395187646, -0.10326086487764069, -0.0929691397224923, -0.016960117449314072, -0.06537692409368896, -0.01088604961442941, -0.04417802959754116, 0.05800363163256181, 0.03795221646216616, -0.03509276775216667, -0.04652608528354336, -0.05155961089730187, -0.019262533189737866, -0.044397395322548494, 0.018189225266848685, -0.12061705213310904, -0.03525045853210668, -0.12546111999135767, 0.028072149230792848, 0.04477148137256035, -0.04124968339965292, 0.009099229337232916, 0.008262984816099803, 0.02745210393174114, -0.09259636962789608, 0.06800872451501282, 0.05551983050302303, -0.04819031209550044, 0.05591955558468597, 0.11004251963571825, 0.021891170103790745, 0.051221581493446765, -0.061363718093049885, 0.04473456621932095, 0.011752338088808571, -0.0013234572796793798, -0.10063676065871845, -0.12265007853057204, -0.11350922979173152, 0.03695131442946594, 0.03152479605288089, -0.05138845382838444, 0.060328638313876685, 0.0441921605608298, 0.00040160444703067085, 0.055577733209116124, -0.024841531091730797, -0.015927191015042464, 0.04918402170165448, 0.0004955178363310089, -0.14472908551561983, -0.02054644940572044, -0.133473407674064, 0.032655606612722994, 0.06608767828599152, -0.05874941154356366, 0.025753233441506387, -0.02121161350783182, -0.021164548996804106, -0.006697221659476485, -0.091200579272001, -0.0002697966219631307, 0.11560244083619237, -0.11991341150719301, -0.07106601303813899, -0.10351333737311474, -0.042303381084360894, -0.008034407489092179, 0.04689292388185419, -0.008939758522039357, -0.012292680150290364, -0.1484901564420351, -0.04560197969358377, 0.009194000899396045, -0.007745290003792375, 0.09036624916181031, -0.02230951896117666, 0.10895891702442956, -0.02469557959527613, -0.019823157724561013, -0.08968216856588233, -0.012677054861912306, 0.020231948145618378, -0.14678041781196174, -0.008819056102423268, 0.016838983349988706, -0.05734069122466757, -0.002365067523194854, -0.025741297104346642, 0.040156259723574894, 0.09886560752723823, 0.010623609868336978, -0.08048052973540447, 0.009244971959976716, 0.0021065226742800693, -0.007434102952056988, -0.0449818512491736, -0.008152247348086927, -0.10997780120520116, -0.045259628609687116, -0.09095480926483752, -0.08427931111451858, 0.07991828070050068, 0.027289186396941553, 0.036702092963108744, 0.03503436871405989, 0.03703254562201455, -0.14118865740177486, -0.03010983967005748, -0.06120322943705738, 0.014257497640822549, -0.08814878773802513, -0.0005930860401471662, -0.10814132709851973, -0.04409325060367792, -0.10070685167618068, -0.07688574181927088, -0.06307091004133766, -0.038177817646910264, -0.10054173262895909, 0.01526433110077304, -0.021117324385082605, 0.02897941126095477, 0.0014460993286535804, -0.012323643636046858, -0.1288475762500921, 0.02993404133194022, -0.00829060320979081, 0.017324746592170644, 0.0526234867891651, -0.008782564086700494, -0.011582664426293366, 0.02809877536919603, 0.014213247327718639, -0.037460373152097666, -0.04793212869445488, 0.07654516197812418, 0.04827654887657231, -0.12141580945316739, -0.03249031538972684, -0.007768051541052963, -0.01290481489490349, 0.028312551930214893, -0.010035174699924631, -0.008640629307037281, -0.01741069679854651, -0.011305458539336182, 0.021366411294160483, -0.07667918049702269, -0.013372788525007954, -0.018391292576365015, -0.01681417692793054, -0.022912182804194946, -0.00039934132660954594, -0.13060916470267359, 0.015547469109334288, 0.02775174924117218, -0.0954344516218643, 0.10840815370792282, 0.06506959959374704, -0.06719085960880795, -0.006891737557567151, -0.0845640568350612, 0.09079505895018025, -0.045126361688961836, -0.0013434300509387273, -0.027125485073204485, 0.0075789513704681965, -0.044581363289893, -0.11200317788915776, -0.010538445215416744, 0.024933558901273353, 0.05715691860432611, -0.008701820239558539, -0.011991682081578189, -0.02199726272703573, 0.031001774538691483, 0.10038114199043077, -0.029375742528037794, 0.018654638537471287, -0.010304817942782766, 0.004675694174744136, 0.022591997629210336, -0.04198697491619983, 0.02385751809084919, 0.008517924509399834, -0.07979019222316254, 0.021641207977740093, 0.12274928177965821, -0.012420927824116891, 0.011575364944057838, 0.050702142142551594, -0.007982623644409641, 0.08172904391264693, -0.008750784328671865, -0.07424264595294393, -0.003461710682371898, -0.03416858532524269, -0.0073646091787760585, -0.0030354721587726625, 0.04183044440429235, 0.05012583894662666, 0.04721961224591662, 0.03688523125340494, 0.024350869231378816, -0.0068912449794797746, -0.02483142543363437, -0.000132925812348549, 0.008282229340109248, -0.021030403764154864, -0.05556559621928375, -0.01301393015171035, -0.05523159123328717, -0.010713658038503266, 0.05736904966386655, 0.07879351086131474, -0.09165091220384483, -0.10274144128227027, 0.037002668007087, 0.009528730605085632, 0.05708566858413651, -0.00991692695715003, 0.06763055053239043, -0.013113911769928495, 0.009474082755811167, -0.04930358924642236, -0.075583155757469, -0.0256091138396819, 0.01216283412411828, 0.06896958121760366, -0.01885544691673758, -0.03828445166107038, -0.06294576400871492, -0.05400377607649905, 0.06204318743222294, -0.009800615413417871, -0.020620417549458335, -0.028247400736210217, 0.012448918495987275, -0.013969236248109064, 0.038358578578217124, -0.01747296255578947, 0.045370880196588394, -0.07801693183257358, -0.12864883456462842, -0.025074145695159512, 0.006726535075053056, -0.07359650744267222, 0.009659550508934878, 0.02961867527049706, 0.027853777631690457, 0.028937742991602174, -0.10491097151335078, 0.07653938101990383, 0.025572429271894195, -0.17444775392613174, 0.05916282098492412, -0.04224628041805083, -0.0485793247432288, -0.044966104475151016, -0.003251076486315289, -0.30432686728811337, -0.08394176126833876, -0.1400886213131255, -0.0028101691440667134, 0.01645663582575078, -0.029029813582829595, 0.03153240221689779, -0.03005301310940117, 0.0718917403253309, 0.03208332886723316, 0.01799805607899127, -0.06278913993437407, -0.05334768715231999, -0.07093183453654045, -0.055353006301221294, -0.03249030245843598, -0.055350397659224004, 0.05569791394098068, -0.0004909964918132891, -0.09896107347779867, -0.01806406895900653, 0.004482635412036079, -0.024242236771871782, -0.5149316012086632, -0.0503825596137773, 0.03685138188487569, -0.007450021844479241, 0.01540007913641026, -0.043503650468436406, 0.06010577365553099, -0.169370109096947, -0.05385835208021367, -0.041945132135665315, 0.027582083035927473, 0.08761504579098459, -0.01068575660853823, -0.012353438752547605, 0.00884215876400209, -0.0150572965956743, -0.05700905862722744, 0.07763187238480335, -0.059181415228727566, 0.11499832957781851, -0.09637620395244903, 0.026043314234588184, -0.01955396244536285, -0.010832378816537057, -0.10271655996184959, -0.005488259813731737, 0.02554032326425684, 0.026481981215057425, -0.11547526069865396, -0.05613346864480371, -0.012793155426432803, -0.03969814863388364, -0.0677968062657545, -0.013221911606007105, 0.052918283782636466, -0.14433408691366062, 0.06707272185352546, -0.11552352114970575, -0.026553828565038184, 0.004994296057234807, -0.02560730451074453, -0.1371824764884799, -0.024673900070404053, 0.023223374664985315, 0.01077373493682314, 0.0004919939995041297, 0.006139542772619316, 0.012420566364877931, 0.003760586797966348, 0.2437595906182732, 0.00730088559036296, 0.05041616717441877, -0.034855249548954116, -0.026904615187495227, 0.04167092490742466, -0.07701083572386315, -0.023980702645004234, -0.013753303961566595, 0.03973450355293605, 0.01980391413098836, 0.061811029432444146, -0.01640762700167155, 0.05114984323038367, -0.04196820110698716, -0.007583890841674805, 0.04063359988664775, 0.025474818826637675, 0.062188784901298796, -0.1129596529015976, -0.02424832425969557, -0.1302309273760667, -0.10266235158155718, -0.0391830139803706, 0.03416360446690792, -0.04238833238549786, 0.05330257030911948, 0.02507004153585067, 0.01760463952298987, -0.008734296282048396, -0.019689417479122142, -0.07669561970730139, -0.013970305657065403, -0.03040051369697573, 0.03206349722534963, -0.11435194504660051, 0.025139289878292604, 0.0036478522882812683, 0.07797732601898398, 0.0751376611594371, 0.030183590105919266, 0.024450932421192114, 0.0035100956044923125, -0.007076924368342648, 0.01345519969136552, 0.07893881417407227, -0.03757962265795793, -0.031751553331892855, -0.03422576815221495, -0.09646470486888607, 0.008531159453026396, 0.017038435065719556, 0.04034459223428828, 0.04885048400444357, -0.00462269082266601, -0.08535564758573948, 0.005655525029705497, 0.01240685289793523, -0.06176733777987213, 0.004893898760659441, -0.03839499959540856, 0.0678955733847805, -0.00677371004577735, 0.019262518242317606, 0.05340329195501335, 0.12369676599946873, -0.12215742460902584, -0.04690972590492878, -0.037193210274869576, -0.03421981426336687, 0.03947693741670947, 0.03105798817955315, -0.003047460366487372, 0.06237907982547882, -0.04908642027516922, 0.0552643210101249, 0.00761714306214402, 0.01705959645481819, 0.005067069861380521, -0.06263106263960706, 0.03924638576097697, -0.048954689845819035, -0.08907600114907142, -0.11355966612099566, 0.01708076957917358, -0.06202545936309661, -0.09037260789400553, 0.04442223337005299, 0.011546994284310004, -0.006078974536323058, 0.021173513256706713, 0.007293541305361992, -0.07763867121652927], [0.03868947762736649, -0.025789257711432718, 0.0034554345508765218, -0.05400725781350898, -0.0575608929178402, -3.115772584262101e-05, 0.017159798029749523, -0.09450884609233454, -0.024871764344585403, -0.028909942432163382, -0.01343477126795888, -0.07863385078467042, -0.13331834457201447, -0.11480596415718958, -0.01913275238543246, -0.07519120268049337, -0.08744968286904534, 0.006647037541080603, 0.07296144702020547, 0.0052813223274890955, 0.03068798965434878, -0.07138549242192217, 0.0009189542684844636, -0.11523691235333727, -0.04309274359470108, -0.031365363904228144, 0.03419436344412923, -0.07472148400290295, 0.011459946455585991, -0.013916831934897197, -0.09151120883281341, 0.057525973322261996, 0.03689098035404942, -0.005315355272449793, -0.03159364463633512, 0.0006814226854130756, -0.07976901648225271, -0.023790402171762547, -0.053337926416414196, 0.002431523144461974, -0.049466178227826264, -0.0774672163249873, -0.15459946171383757, -0.0989387127457622, 0.07361294917867622, -0.023538270987441025, -0.057856873068678, 0.027005396144658193, -0.07656450168268791, -0.025299278969069448, -0.13161700053754707, 0.0475310722322897, 0.010880049610615167, -0.16113163011755197, -0.008912678898365821, -0.05975015480668361, -0.07214585398787556, -0.11341296287209104, -0.05912414825006482, -0.07573332002235574, -0.041142015064124994, -0.02303079536704904, 0.03750879103596843, -0.00942233386620724, -0.062429557638228717, -0.08613470861908064, 0.02838678127488547, 0.004669593790599474, -0.0371304475269995, -0.05434114856421138, -0.02179440137258729, 0.017431317710551054, -0.1003580967148687, -0.07670093654800138, -0.010893707470913692, -0.13364529606328945, -0.12622449951370382, -0.028672784962099154, -0.05762371994882672, -0.024892515109755712, -0.04587397813210882, 0.25853735941036565, 0.024586865194089567, -0.04707382482200961, -0.06760826429817264, -0.11312510672323166, -0.03695917768312025, -0.0533407996267141, 0.028107312071098435, -0.1257806391692399, -0.05342144171249594, -0.10968437986508373, 0.02075150616634084, 0.04481617239624807, -0.06884776598608928, 0.010531693410783577, -0.0002915030471598024, 0.025659417940617837, -0.11512310357439885, 0.04064871116469308, 0.04849487859160775, -0.0778880302255542, 0.04280987888650432, 0.09048973661059626, 0.003317197889286712, 0.050341007748316166, -0.06661218270582149, 0.02430838464624521, 0.00440786327666339, -0.001908958290944574, -0.12579051380734368, -0.15993274644280076, -0.1481885560446997, 0.01707147337946647, 0.02509083040082559, -0.06553841585766958, 0.04898581495879031, 0.02543061871662728, -0.009488673838906359, 0.04805940311041711, -0.04478055010635087, -0.03551451397796107, 0.04426896918713472, -0.014317537863410288, -0.17838681460421707, -0.04827764122601757, -0.13495727514197342, 0.0049991768760244285, 0.042642244223134514, -0.07391369635683322, 0.017963888977166227, -0.02620088463083221, -0.04237515725029813, -0.01111599959459338, -0.07438630019200897, -0.018471855048698915, 0.1078438759588079, -0.13095205865484966, -0.06994358732616172, -0.124189675369302, -0.03701442839822882, -0.010825479426370058, 0.03509922339745817, -0.01579529150488476, -0.03291641028908627, -0.13732523874306748, -0.04166856593346311, 0.012154158397421356, 0.0014442737014045462, 0.08113074611377838, -0.041644044489061616, 0.08820786328064499, -0.03810227650349974, -0.02160320924662419, -0.07237679926600149, -0.03556496629846225, 0.016743314840946683, -0.14889570770907706, -0.007306297270280207, 0.012230306637191024, -0.07553755835838802, -0.016712047278528035, -0.02923708618765847, 0.02770617830393262, 0.08944343631590722, -0.0023914029589177017, -0.08851360155780107, -0.003686992055060344, -0.01845222053049204, -0.027411446331481588, -0.040890742219240696, -0.04373067637247019, -0.12154550166141438, -0.06059707144448414, -0.08546340521761228, -0.10581110893442931, 0.07959448196337589, 0.02365631252127513, 0.02559598906292804, 0.02193510278415661, 0.03199184638205496, -0.13386374406229778, -0.04184101647860669, -0.07617331337472687, 0.008599681129760004, -0.09073266401499377, 0.010720429445080637, -0.11816277275607501, -0.06244156996238127, -0.1198270549762282, -0.08845904552604567, -0.05905194833241512, -0.05072215602221337, -0.07642087170745093, -0.0013615279202300083, -0.03539854077006554, 0.0128555299486624, -0.008869024145113043, -0.017283295047403648, -0.14680062463747948, 0.01947951988393829, -0.036832685274848995, 0.008050903230146848, -0.02057496454037971, -0.023248700242021185, -0.02747785677575626, 0.017536169068549715, 0.034298655619620665, -0.03861813081085805, -0.058044190350683963, 0.07015962544218605, 0.05599108771288408, -0.13906262944932984, -0.035126059474008584, -0.01987098941802981, -0.008778091795320873, 0.008454897395197324, -0.03153545088075403, -0.01922504412423346, -0.0391093705337788, -0.013033322624810988, 0.023039516760772486, -0.09325993761963855, -0.04545355847515071, -0.038149521951407195, -0.023483413874191943, -0.018245647926185275, -0.007283236661302962, -0.14913684976211672, -0.009314569702807451, -0.020290739919292408, -0.1117962377843123, 0.09193896325796273, 0.06675456286331928, -0.10087272400084799, -0.03528888890892984, -0.07888082141505957, 0.07540415783553196, -0.050519238637265734, -0.002445362610303953, -0.020517239077363088, -0.006142596401180922, -0.05668636711166311, -0.12487782593553559, 0.006781931035858892, 0.000954465853637915, 0.047076283132246384, 0.013593531842984683, -0.021517406779761213, -0.0334637786523067, 0.02256284657891344, 0.043192936218751546, -0.04544792819271626, 0.01459137390621771, -0.008349941283257733, -0.02147234059908946, 0.014475267604258546, -0.06855069181158534, 0.01818230440432953, 0.00403291188706684, -0.0748235729384894, 0.009350597221809748, 0.09942959363901314, -0.013627813990266673, 0.003006070735101274, 0.049667939801839665, -0.022060581304404733, 0.05450015218923173, -0.020455073543860107, -0.05994679911792153, 0.02529843715206275, -0.04352595002205885, -0.010507593502185823, -0.018057859159989944, 0.026618567726200127, 0.03990083533950697, 0.03010406011790057, 0.04081180463025346, 0.01900506046810715, -0.016070583590286087, -0.04379435515924327, -0.02665104488426984, -0.06395721213463787, -0.027275933891079004, -0.08994647252230607, -0.016160666076445382, -0.06239515901558524, -0.02296581184389303, 0.05696179309586452, 0.07579395421768947, -0.09995989239926446, -0.12838964394806304, 0.021277434623560455, -0.0022970717703395065, 0.03961631853628788, -0.011597615601428813, 0.053121888280592264, 0.022059972914274105, -0.014030405828176974, -0.06883302233712157, -0.09237257775613818, -0.024351685965025988, 0.00027947484338750766, 0.04248682211741709, -0.044855514724957864, -0.053847308321467766, -0.07602815763520514, -0.07333176310511261, 0.05011466387699488, -0.008736256450719156, -0.03788684206243379, -0.05062160092616881, -0.008000858118460113, -0.019784351435551812, 0.028119383911179477, -0.05219271385455568, 0.04221191447374659, -0.10374366841749386, -0.1318766899119219, -0.032262990295337426, -0.014664025252109678, -0.08911984168245597, 0.0007236894487880781, 0.03125219297200753, 0.02814029004468378, 0.005394790286909531, -0.13005849957764073, 0.06187204166278191, 0.027455768421580703, -0.17127438284486524, 0.04362460785737785, -0.027743603037331647, -0.05785969710351145, -0.0567362668277661, -0.01831978321487665, -0.3264750758618786, -0.08747700985986077, -0.10821508165544243, -0.023293424847248573, -0.007152314507003429, -0.03932851188653157, 0.010551006310705387, -0.043509083794984645, 0.04802203900200281, 0.02908830909064692, -0.004157469118793682, -0.05516411952447814, -0.05764890359228698, -0.08028044722035499, -0.07535272993746076, -0.048332808517272924, -0.08335471926818723, 0.03750948193124612, 0.006347409431187859, -0.11943941679115823, -0.02772986578909963, -0.022424505523345024, -0.043465765270026394, -0.3479794735813788, -0.057372256837346175, 0.03228453250077299, -0.018973807153468542, -0.00901007014624926, -0.07684067258709487, 0.06271934987098016, -0.13555967104143252, -0.07222738140052232, -0.05690131526591023, 0.03308942924914904, 0.09734515520808944, -0.028193295421855193, -0.021123839508834487, -0.009196864804776418, -0.035806871018690255, -0.0864226008984556, 0.06525481254220526, -0.07435520210879083, 0.08732970757102923, -0.11765346099975525, 0.04063845305215443, -0.02561317127077245, -0.026855655237417966, -0.12644143232202174, -0.012073993712942913, 0.027269487229676787, 0.027209620352456707, -0.1331075975800534, -0.0687206995106732, -0.02651546873333836, -0.03434581179361646, -0.0768685584875826, -0.025170832407206, 0.01896664263050666, -0.16123478549162706, 0.052035603109059816, -0.14641579356730716, -0.04319978427598785, -0.005869288594267843, -0.04197034111128607, -0.11946280640735142, -0.027981276999112722, 0.007431133988173586, -0.005435240777304448, -0.017097420292568718, -0.01817078547674274, -0.010751187298776898, -0.012021564831874951, 0.06603668456007411, -0.015310962075606015, 0.04106480924456655, -0.04928902334926733, -0.055474627671176314, 0.035798137447389675, -0.08973387621181503, -0.03166906416511844, -0.02495476902421302, 0.0183627004306616, 0.009676932842398485, 0.05005538017912749, -0.025331877597897373, 0.039409734861937246, -0.05405171403609464, -0.015591503271657366, 0.05164634443358539, 0.02353744337232108, 0.05570643943499705, -0.11598293916613692, -0.05243945100500376, -0.1580777495243039, -0.11573459229486731, -0.04103801655724165, 0.030463082491659924, -0.04709527869673261, 0.027085824120268883, 0.024941345935481415, -0.005589195865939154, -0.014576738976708086, -0.025752790532309347, -0.08344442644987488, -0.013636725187130386, -0.0444360285695223, 0.02196112735235737, -0.10523683662893424, 0.004313690778964551, -0.009763245543757296, 0.05733934475799432, 0.031166182478511294, 0.026629399509272043, 0.02982514697895039, 0.005945419732375312, -0.02118397261189187, -0.009008408504293393, 0.04737265147017214, -0.04805830609404717, -0.04236075474431756, -0.03018721980338566, -0.0983730064718331, 0.010729572576099081, -0.0008569669776268906, 0.024366481189207947, 0.039910155826374596, -0.014682304199561153, -0.08504066004761497, -0.001341945219404375, 0.021543585447037484, -0.07563055623692683, -9.630979101358952e-05, -0.059610736594775386, 0.04588061434787621, -0.028057302431737863, -0.001536678354590104, 0.035987826476943416, 0.09229734899390539, -0.13133443036781356, -0.05567972982523049, -0.06016525704917897, -0.047374377633427694, 0.020512455875976356, 0.006820041421961601, -0.02442069924898981, 0.05132274465453073, -0.06538421856439551, 0.044099273123351476, -0.007796111376683534, 0.016750182649366015, -0.014768700143738961, -0.07300731494513509, 0.03200929101589526, -0.06561350948171725, -0.10953248499346016, -0.12744244518778838, -0.009300064335036938, -0.07365381846936273, -0.10716609556566577, 0.02610965630238957, -0.01659058767077001, -0.01097996732178246, 0.009823064694915434, 0.0012383319239540607, -0.09514990306264554], [0.045161357259142, -0.025234164879040975, 0.03761488191368127, -0.049565238512599794, -0.058884908193901644, 0.016199115931714653, 0.01692470977288158, -0.08372127183811308, -0.01915642973571526, -0.04524042782463778, 0.004311323588249256, -0.07879628250934494, -0.12658840427747461, -0.11747923068072605, -0.022475269471617158, -0.07691448417838569, -0.06631708340467939, 0.01093976370747856, 0.061135621393904424, 0.008502452429016526, 0.045084030951731136, -0.05936025293271347, -0.002041094683090594, -0.10901503938801634, -0.06232303941289532, -0.04176465662881537, 0.028613416996052188, -0.06881811572057035, 0.0019144490878029862, -0.004020524534208476, -0.08654443702945809, 0.06337330143640894, 0.05346439129578547, -0.001704642298453231, -0.02090978845010334, -0.002212082681952257, -0.07503784547933841, -0.024600938791813666, -0.045198477947515976, 0.010014159697116729, -0.05008776577922927, -0.07821569278936745, -0.1776774254232838, -0.10382335482655505, 0.07241812307389515, -0.0183673263474321, -0.07162055230817223, 0.02085268147245699, -0.03879392141199796, -0.006548166255009885, -0.10181195356893394, 0.08549399794500341, 0.006844237868275724, -0.16799813271085953, -0.007725655418520752, -0.06457240073108808, -0.06182637248678377, -0.11588035973129261, -0.05505480237440824, -0.07223966328490829, -0.0379944559291836, -0.018444657938893435, 0.03476991373975147, -0.027233611165174913, -0.060405581743112634, -0.08460234483148098, 0.02704105857189684, -0.031040230739506458, -0.017669297176689216, -0.021374502644625537, -0.01717332537158077, 0.04527844132818119, -0.09157387387972067, -0.08113208936891551, -0.008745651964804414, -0.14666711648624747, -0.14188598323236784, -0.023144848524981318, -0.0333209947683707, -0.021706438501906837, -0.030648758944087078, 0.43139666829881035, 0.027609927649390097, -0.04189038564498393, -0.07130143459895896, -0.1544528629921126, -0.03737013014006008, -0.045237875962264196, 0.05405920689337638, -0.11462497871668327, -0.05429407736654817, -0.07853561023852063, 0.029880357642101785, 0.060557707909392834, -0.07886014420495303, 0.028505804800993764, 0.0080529648611507, 0.040089344897454166, -0.12049659262114386, 0.029007916383170247, 0.056967069326956686, -0.08994113129297053, 0.04543257871590531, 0.08432538854651773, 0.001621279990818159, 0.06503204598488325, -0.05486867198175228, 0.020259828073321367, 0.0137684688685481, 0.014237613315423961, -0.13379870411138856, -0.1794864342473409, -0.1653496131085104, 0.01379765990443789, 0.03500944421005099, -0.06246688160749803, 0.053138457359400454, 0.02300061451984506, -0.0022773107433136063, 0.05610784182006763, -0.04731593977340016, -0.037837194212693194, 0.05513509438599537, -0.01210120619192989, -0.19485969382637677, -0.0585967528010918, -0.12052186271823327, -0.0056779086231253184, 0.0349088045220007, -0.07183027196489834, 0.026655158803548906, -0.014165146801325445, -0.046169443383673556, 0.0014288739939162663, -0.041660863575582435, -0.019455712121710735, 0.11277199282512548, -0.12553374143789456, -0.05208154235813235, -0.12786210300435366, -0.014925184591006248, 0.0033100462164800623, 0.039378343648329615, -0.005681265605725784, -0.03621888184666127, -0.11100559150025983, -0.020933969041945503, 0.03175980075536833, 0.027060724783825648, 0.08593897366307968, -0.043625412674305225, 0.08106667452477347, -0.03430883574710452, -0.006396524448856312, -0.039151186738369974, -0.04101209032552167, 0.029825954345203857, -0.13522494193024373, 0.011017813951312544, 0.024185986437662732, -0.07642284094683557, -0.014069389653255961, -0.015747562215077185, 0.0316054374124309, 0.09370179065402794, 0.0015149661922167915, -0.07965142666133956, 0.0003446633452351443, -0.021714753648732092, -0.030179516125407764, -0.02002716936140637, -0.06159116946716402, -0.1164610652703116, -0.058742080482162805, -0.0635897037517842, -0.1100897621993588, 0.09354573532901429, 0.036318128944386366, 0.030794706225090757, 0.025337925358234432, 0.043145180894948315, -0.11105740114040885, -0.0363401472261008, -0.07391703377602515, 0.019571736958607526, -0.07668032407639541, 0.03848111961347586, -0.11160666168025123, -0.06338160989265501, -0.12205115831016008, -0.08300322402562962, -0.038289713596750534, -0.04598666705882453, -0.03692082835231586, -0.0009991291808143794, -0.03236050949263396, 0.013317865763116866, -0.002203169079539717, -0.005230963254015862, -0.14812362271949742, 0.025535825429059578, -0.04790961534486266, 0.015496974108583587, -0.0734715432313691, -0.02047534024585629, -0.026142909598580844, 0.02348100727216945, 0.0701842487565751, -0.022817160982329783, -0.051123078213354406, 0.07842352583912622, 0.07905744204893472, -0.14003556264667696, -0.02072994297484633, -0.014879240058288022, 0.012157214735804868, 0.005279462113544829, -0.03558721649635659, -0.012871623061520834, -0.04329285738948914, 0.002204545540024362, 0.04095963824430428, -0.09266104225470942, -0.05988321883361316, -0.04052827979891412, -0.013071272583896293, 0.003246291083834937, 0.002776724967976573, -0.15116476826489428, -0.017008671085730617, -0.05046747088538042, -0.11117902456194917, 0.088893914295944, 0.08329881368120044, -0.11677254449139177, -0.04617364821824408, -0.05670819183620496, 0.07428461952703547, -0.03884308536763121, 0.013223542648882628, 0.002792047140868779, -0.0027955048249673035, -0.05154013873132426, -0.12113532602154363, 0.04045430605355905, -0.006088858856623369, 0.052661685546487064, 0.05200487030443925, -0.013887059356446197, -0.02775446581662446, 0.03050911726013818, 0.0019621486390217174, -0.04410428966905806, 0.02706960369850449, 0.010444505326506244, -0.03039800895902725, 0.02292066856575893, -0.07749380829194989, 0.02909676697515861, 0.016316048695289912, -0.053292372040516324, 0.013632043429898995, 0.08891571401300677, 0.0020379087928413227, 0.011190740950639676, 0.06413803089921262, -0.019083246676933653, 0.042524404204892896, -0.01505099558387005, -0.02943762633120435, 0.06978596342805546, -0.035753158308164404, 0.0033308485458687447, -0.01602796336750279, 0.027715611353580655, 0.045663639497568506, 0.02912290204116635, 0.06063870797016335, 0.030158655861172255, -0.008212556006161295, -0.04540540004432351, -0.035724985063810284, -0.11473969379050034, -0.01648458933087441, -0.10655940867260556, -0.0023575566981556564, -0.0525897316585178, -0.018135234731788394, 0.07176104466937304, 0.08729620634239282, -0.09149660600266887, -0.13688998070527994, 0.021882908349060336, 0.002827260035660639, 0.03804262726977325, 0.003670405474202375, 0.053995946124758804, 0.0725404292577539, -0.020328168792155904, -0.07092662602011249, -0.09203344957347324, -0.006164477688403301, 0.0052269933006444495, 0.03182975598216197, -0.05330345130657019, -0.05220635621253994, -0.07196202704419545, -0.0753041718355421, 0.05365013767299061, 0.009139567226145253, -0.037931330243193014, -0.055579817360190464, -0.011352555813192127, -0.008552757394802858, 0.034184237411901804, -0.0691596273640209, 0.054904287764612106, -0.11196826775390402, -0.11896042013794982, -0.022390469801668537, -0.01877919464553169, -0.08749817692101418, 0.008605366170869213, 0.04908734871594858, 0.04467417985920777, -0.001207973702495128, -0.13806440783851706, 0.0622073655449776, 0.04552341601807392, -0.15308627880539866, 0.043885145022850874, 0.0032704539295156996, -0.04993780161452029, -0.05125129440590774, -0.016301275926318803, -0.32207469962901636, -0.07428704100440522, -0.06262917350578728, -0.026519080062261526, -0.01373544768024357, -0.03239927363709228, 0.006308734449919392, -0.03970395426000985, 0.039652379445511254, 0.04234974222391681, -0.009349041293975733, -0.030921150390249095, -0.045035320506954364, -0.07258717927155314, -0.07802327291479655, -0.046950203598154806, -0.09375479139545367, 0.03515444073183849, 0.02978699997460767, -0.12283429436809477, -0.02032900337267283, -0.03202958850662819, -0.04542177908465284, -0.18114127294638918, -0.04728928318144529, 0.04379958825796753, -0.013453158366037579, -0.01635733684203588, -0.0923427513870153, 0.08039477761000557, -0.08914149406357906, -0.07330720105904039, -0.054601011464059324, 0.05470647766710445, 0.12052901783321293, -0.028457351644932412, -0.012824770515638323, -0.010141752579766544, -0.03927122798301486, -0.09812325472112167, 0.06772875805962922, -0.0722614301133667, 0.07304853306885753, -0.12175332481285733, 0.07096508786996514, -0.014646137010739378, -0.02577289874161673, -0.1330163575651021, -0.0018292095605647114, 0.045236132978725974, 0.04422038416372577, -0.13398161804592906, -0.06411338248022982, -0.023122627756772297, -0.012212901249864225, -0.06885643109288977, -0.019974829720851017, 0.0016082067544133396, -0.16182321674772018, 0.05233797252362747, -0.15997968821363673, -0.04246790689625322, 7.946977999340551e-05, -0.04113733082706202, -0.08670113170047387, -0.014311775405164519, 0.008398019784357634, -0.004614108350129641, -0.01746724303823556, -0.025267991984480077, -0.016783378281710306, -0.010782043219501979, -0.06641553150732879, -0.02076664672716554, 0.047511899139017724, -0.04638842314645782, -0.0663923840100829, 0.045889757554494995, -0.08544005178594713, -0.022287098486451516, -0.019019438931356308, 0.013583862314746425, 0.01622665687276612, 0.053756249345993046, -0.017263127792248006, 0.04352812048452442, -0.04897012028549292, -0.0065363356323838336, 0.0780946603212778, 0.0379581320821581, 0.06455398603721584, -0.10264822088409692, -0.06303669383662916, -0.1689940297110661, -0.11192936126910165, -0.02590961565336972, 0.04296696070794714, -0.03474863297154641, 0.017117093619955063, 0.041117250222020924, -0.011716576241552902, -0.0035144518463895227, -0.014747505354373039, -0.07330374643877428, 0.0035338032496026375, -0.04116834683114541, 0.02839555029754492, -0.08024128923395946, 0.0003855104294441911, -0.006173121446396185, 0.05195899851984843, 0.0033230660479858904, 0.039340011897390205, 0.05133096563814244, 0.025072280247006973, -0.01812626675856237, -0.014390617721795297, 0.03122324097635762, -0.04129361578156894, -0.035761139334226956, -0.009268180876158, -0.08371523209268789, 0.029485834356747488, -0.0019297115820681927, 0.02467943449363368, 0.04682274744231463, -0.007758645605972393, -0.06812136743446603, 0.008505705784782956, 0.0469402726336241, -0.07231758454193676, 0.011729000576373357, -0.06342382111405787, 0.03959593006350398, -0.03205226610465852, -0.005364428660434015, 0.03452184770319636, 0.07400199677410088, -0.12415787454036661, -0.04731095301372275, -0.06565635129641578, -0.04328525755212422, 0.017867090799993598, -0.0007912205818693377, -0.028504681326231917, 0.055715293402424405, -0.06442358408955881, 0.04868198330714725, -0.006222445549873938, 0.032952225379175644, -0.017473071843609227, -0.06629348899162385, 0.04100593272788879, -0.06494973866453674, -0.11284925788644101, -0.12467309735301166, -0.018597670079869243, -0.0681680632155185, -0.10688712484705214, 0.024022660764441196, -0.027474149848656548, 0.000987033858972343, 0.01510526663590295, 0.011985148639663726, -0.09555617009104836], [0.04090317851188207, -0.030862367203102415, 0.05928158256988489, -0.05073979972663769, -0.06469470601537733, 0.02268299194739417, 0.008452025990111392, -0.07796001275362079, -0.020420386274383855, -0.06416630839728904, 0.012619550736451898, -0.082918507585033, -0.12297137700139807, -0.12233066361227324, -0.031623197800993236, -0.08239486270939506, -0.051872231409629294, 0.006827722312346103, 0.038996703755043965, 0.003647668085387206, 0.04782911627695049, -0.053444587909552525, -0.011817241877613623, -0.10654323851559827, -0.0828567828042339, -0.055870256660008805, 0.014699086740490228, -0.06800729835003794, -0.013723295030240178, -0.002378142062278125, -0.08590505958752795, 0.056925360998327096, 0.05773490561525703, -0.005674179189008106, -0.017680967690771016, -0.011923458408465338, -0.07503064700896268, -0.03133610611264374, -0.04324353162033666, 0.008924803601686421, -0.055642893788005014, -0.08275105015158654, -0.1968935503364111, -0.11110162778918803, 0.05887828176687688, -0.020260720269012874, -0.08741194651699469, 0.006902992102955978, -0.009790528811059077, 0.0032822685465488145, -0.0779007407075342, 0.10722856809326572, -0.004461759462586977, -0.17440182414065256, -0.013693159141761752, -0.07307208078095684, -0.05721640915585838, -0.12067807699792403, -0.05637369091734164, -0.0734078269787655, -0.04069548412977131, -0.020796074157698324, 0.02281168799552151, -0.04833808148277268, -0.06328600324509076, -0.0870397042030059, 0.016940118930739937, -0.06613768481642379, -0.006661437233799205, 0.0023700934110093917, -0.019527019232955724, 0.06055955401697987, -0.0873504798205708, -0.08879599353086952, -0.013782448872911954, -0.1591250999245626, -0.15669998013711145, -0.024464803205631477, -0.017182428652774886, -0.025165565524710127, -0.022944816840047327, 0.5813497422672219, 0.021278911368335984, -0.042651763756376686, -0.07858440583402541, -0.1874630353258146, -0.04331141867177122, -0.043213224634504936, 0.06706262239815389, -0.10744547362259259, -0.05981645244372478, -0.05432461098288921, 0.02893243897115957, 0.063563829634514, -0.09128692789700872, 0.03584017577672305, 0.007793550441309856, 0.04329341231200731, -0.1275547186128421, 0.009725204851920768, 0.05361152074934841, -0.10353688852108736, 0.037549291374895044, 0.06532279312404274, -0.007403579861745791, 0.06659022091927591, -0.04941832218664821, 0.008148456915730897, 0.014015672335743443, 0.020628088010287763, -0.14271616334497567, -0.1958166596280678, -0.18043078139343544, 0.002719572854687013, 0.03446272069638417, -0.06439911330651382, 0.04614806500011014, 0.012075944382366442, -0.0031224912676551904, 0.05231137221897076, -0.054604435598972996, -0.04535437386273885, 0.05392314911290596, -0.016827692472922345, -0.2080163447457171, -0.0720687458597317, -0.11019357606890925, -0.021932780220511677, 0.018474293305426787, -0.07425549318011757, 0.025518882651404583, -0.009984051410164733, -0.054590015374332695, 0.005226510710943907, -0.01738749036539763, -0.026653601583224627, 0.1011656585775886, -0.12319133813939796, -0.04110140843015302, -0.13325640916782022, -0.0015984731061009306, 0.008512372750659305, 0.0333250445906199, -0.0036854772454435187, -0.04464793336502016, -0.08994976626487639, -0.008586938110088156, 0.04011567735404871, 0.041410551293549466, 0.07681853916896966, -0.050609157651446135, 0.06145789907249716, -0.036600833598403076, 0.0001276481417951273, -0.014328752084662714, -0.051109892089730866, 0.0324111089368859, -0.12487970251124651, 0.01952060459981108, 0.026186981419047965, -0.08117732779267416, -0.018197097247968252, -0.010258554467180525, 0.025721652696841492, 0.08325658553755147, -0.002326230918674026, -0.07580015997205773, -0.003506509547717759, -0.03086259085774179, -0.03845328133855688, -0.007556466337337974, -0.08110029596242414, -0.11462988242039772, -0.0617438268103879, -0.04862602530291252, -0.11674084457324418, 0.09204727723477203, 0.03814921743526751, 0.026262176412735736, 0.019515950246219153, 0.04310805779235444, -0.09320408988561928, -0.037110909648084674, -0.07612607284137309, 0.02097689115217441, -0.06822992187306058, 0.0541448037122868, -0.10872048788109047, -0.06865804884031758, -0.12634491135191997, -0.08211520837117207, -0.02524382046306484, -0.047046553763826444, -0.006329782090890085, -0.007965847876871464, -0.03555746172571739, 0.005772731135561027, -0.0035921912335555185, -0.0015768624746141419, -0.15071610121373674, 0.0219253177247344, -0.06235223718863524, 0.013903037478171463, -0.1179065763073685, -0.02445218592918686, -0.03111215075728569, 0.0201497269289771, 0.09123859077350698, -0.014916730220503403, -0.049944508857929636, 0.07297201074701203, 0.08738272731022259, -0.14273315409986348, -0.014219875866426422, -0.01702567847859006, 0.022978746933995486, -0.00509361825368646, -0.04474961544302567, -0.013855886726253572, -0.052203851996426034, 0.008320614992734851, 0.04744350241275044, -0.09563522114120644, -0.07663967898473009, -0.04799013732015672, -0.010523458133629301, 0.015106174594695506, 0.004221397100710482, -0.15420214760968423, -0.030035698420319196, -0.08002678586671574, -0.113546621178904, 0.07222237870573389, 0.08528366031644734, -0.1326607356295609, -0.060667773031990994, -0.04172017224875285, 0.060824809042324346, -0.03399687282159214, 0.019175468953110057, 0.016467577027416812, -0.007019447107601201, -0.05204621085756028, -0.12036532110353163, 0.061602800370281624, -0.01921111240683811, 0.046893436756862285, 0.07677090441379163, -0.013749499544519726, -0.02869483245333924, 0.02840522320854074, -0.03971404303466247, -0.04824806012915647, 0.029345594886731722, 0.019457149961866545, -0.043898075992107564, 0.02178786400122537, -0.08907415673421108, 0.029758785163181666, 0.018945229255503224, -0.03894580486308463, 0.009432854522536149, 0.06556467021020225, 0.008673833590453893, 0.010566244299851266, 0.06557614483394575, -0.022819871268173277, 0.02183044275331088, -0.01680821869251494, -0.007713707462056807, 0.09905105389600062, -0.034439463932738404, 0.008198368897631892, -0.020627449779392158, 0.0197175423256573, 0.04050999986542948, 0.01918033966510209, 0.06734220329964452, 0.031046142762355074, -0.008198836174279316, -0.051997884361588836, -0.04902963606135695, -0.15537399908574276, -0.013434302073396518, -0.12338676835743204, 0.0028309754272279365, -0.04890084071432321, -0.02030222130999035, 0.07304252545169661, 0.08405764152991653, -0.08767017089854978, -0.1460604667818342, 0.013774875153249879, -0.00011167529914037088, 0.026961333109535798, 0.009787407343100955, 0.04388216384424254, 0.10745555348086229, -0.032022915103702046, -0.07697404613556738, -0.09519738181806822, 0.0031518512436621788, 0.0019516586396708276, 0.013137143626347887, -0.06534783511421634, -0.05562401447375766, -0.07255833811226665, -0.08105166750922238, 0.046057579380607, 0.01728665435783374, -0.04345820894675815, -0.06457653757341784, -0.02100626128955313, -0.005402854025127803, 0.030219836343891526, -0.08762607322445702, 0.05546836798806649, -0.12178765867142134, -0.11011132326266485, -0.019803027868923448, -0.028709417892929624, -0.08970133582213814, 0.007800194586492118, 0.05474061053059336, 0.04958731902309115, -0.014273028835014436, -0.1467782746808043, 0.050936283758602145, 0.05165330707904234, -0.13757524102156785, 0.033957503880477094, 0.02401878233610846, -0.048082029953534, -0.05145696526867605, -0.020979674290699284, -0.3192726577327882, -0.06681407653226608, -0.02490525773815447, -0.035311653007226516, -0.026020652975541285, -0.03206175656361843, -0.0050574219907335615, -0.04184299761810106, 0.022439565405182084, 0.044323917608837186, -0.020656652130685987, -0.014876536610904186, -0.039136144017873166, -0.06993089966271462, -0.08424184135040153, -0.050780092304709076, -0.1059160935015307, 0.02360349237323948, 0.04193008212791588, -0.12829990556406823, -0.020044143357197747, -0.046023904382505844, -0.05231578985497945, -0.041605231077916055, -0.04361507841276727, 0.04410008098997604, -0.01523633178382058, -0.029210364849219295, -0.10872401165814441, 0.08358197592377029, -0.04929470548255558, -0.0783861939094562, -0.057383444717390326, 0.06352136320706812, 0.12538406202110247, -0.03455111614998963, -0.012151711462823338, -0.017807026853682104, -0.04764089344057421, -0.11127381689248592, 0.05794246768238627, -0.0746099016650577, 0.04771506525078729, -0.1277801819582106, 0.0867026609720994, -0.011556103947579008, -0.030828343499696584, -0.14072847049538467, 0.0001572597835166257, 0.05134064859810834, 0.04945396579321908, -0.13672846426018218, -0.06463814269096388, -0.0262741979157234, 0.00098416377999002, -0.06618740106743394, -0.02172770475184246, -0.02063603719626002, -0.16319981499521505, 0.04183307531398881, -0.17239819442136434, -0.047155061266272426, -0.0018840512286707454, -0.04572994566583352, -0.06057488569127987, -0.00871142871612578, 0.0014928659554343355, -0.010924616421572223, -0.024181246981024845, -0.037431524649928376, -0.028424990112823286, -0.016440770787116258, -0.20844157017831585, -0.031704041577407756, 0.042955303698122116, -0.04901346833377241, -0.08016384719390215, 0.04486831168539342, -0.08548850789488431, -0.02016963056251914, -0.020226534447150675, 0.001273646150102966, 0.013794301133196034, 0.0462571848898343, -0.016517004118610398, 0.03714868522725555, -0.04960637309842061, -0.005424065802939041, 0.08956074080096448, 0.04126176500456611, 0.06075505457597089, -0.09400405037786694, -0.07654047244945521, -0.17887671983285658, -0.11153605592819117, -0.018473853216489197, 0.04420106264939207, -0.029465160158666962, -1.672635683340148e-06, 0.045914238462164525, -0.023738938568731455, -0.0007805853174365927, -0.011569293372943955, -0.0685849811975429, 0.0114462352943481, -0.0437432599608722, 0.024999260222821028, -0.06165856470366772, -0.010449135810926715, -0.009990652890695437, 0.03622186671659768, -0.027779555999406503, 0.041077195908430175, 0.06029332726072407, 0.03350679194735619, -0.021899195802190904, -0.02561606087557892, 0.007804632628334551, -0.04072581338274475, -0.0355759246475432, 0.002591380237154629, -0.0745863893178238, 0.03728400406230299, -0.009992238702793485, 0.01616387376625037, 0.04268262372251115, -0.00864067560130402, -0.057500106161815195, 0.009495040911585772, 0.059839397809171954, -0.07357215914084683, 0.014344977741402377, -0.07113164846932335, 0.024124553466431702, -0.04131948585920275, -0.015660866838243404, 0.023725782728721643, 0.045116937675824545, -0.12030176875428461, -0.04507648905524966, -0.0747770130484072, -0.04502537441643869, 0.007259234442594655, -0.014598757061823477, -0.03787354852269693, 0.04867099579225651, -0.06794680789674744, 0.04224372753066706, -0.011792465248199714, 0.03815835152158874, -0.02619023977984897, -0.06477254475725273, 0.039127731685424987, -0.06887408924077275, -0.1184737367599081, -0.12457415331081652, -0.032929410134455515, -0.06766208669022304, -0.10967415999279309, 0.013503304870638954, -0.04265561177384591, 0.004321381916065507, 0.011653335050335995, 0.013642491485650724, -0.09927682005158088], [0.052571133093489215, -0.01793724412236697, 0.08942919213451188, -0.034152195307163145, -0.051397459306430124, 0.04301235357065381, 0.01828767212082174, -0.05591511054676973, -0.004580873736247752, -0.060281849879778755, 0.03481482197190285, -0.06800961451407779, -0.10129898392290214, -0.1072021722236944, -0.021211784364748125, -0.06851593101067195, -0.02405750160308797, 0.02009505000301749, 0.03629943139425776, 0.01623903838405422, 0.06472443426234278, -0.031794848828394943, -0.0023344577050982097, -0.08626980849541563, -0.07978219425698176, -0.048782968859585406, 0.02001060269942876, -0.049757349330369495, -0.008766800205664619, 0.015345869702389395, -0.0674061296384364, 0.06607454635434007, 0.07516016453165536, 0.007891189243659653, 0.0013453471973170418, -0.0023898391970517143, -0.05718846944861698, -0.01919429345520971, -0.024684950541760627, 0.0243501454520173, -0.04219278500607662, -0.0681358379163262, -0.19020602195034036, -0.09779108002227378, 0.06196028409443384, -0.00471285300588346, -0.08091896038984646, 0.012655895730047844, 0.02726569635383016, 0.026674300465185864, -0.04236626287932726, 0.13477040621527878, 0.0037391197623186812, -0.15869255317100958, -0.0012549581519777993, -0.06151528252555628, -0.036559052887021284, -0.10537652959239843, -0.03991021757535636, -0.056546182816427065, -0.025472352574217823, -0.005687738856939541, 0.0293895971835452, -0.0464191214757783, -0.04774107341676284, -0.07089106178756764, 0.025288925974709112, -0.07458616142438364, 0.017823803599656296, 0.03548008145263259, -0.004451670103826963, 0.08618838402747514, -0.06636962450041949, -0.07637826888935714, -0.0006868770466691978, -0.14854909665031651, -0.14796342356212716, -0.008453175731451573, 0.011047874896100512, -0.010716260842665179, -0.0006199729378888888, 0.6164190373596139, 0.03238775629820511, -0.0260507223013135, -0.06609476791230869, -0.19173537864004572, -0.03035884738046907, -0.02468049515788068, 0.0905283375943389, -0.08357139200690639, -0.04640265172172071, -0.019331628554300748, 0.043788761350551896, 0.07974173723359278, -0.08224725802909282, 0.05652745981128582, 0.023868441173251043, 0.06062977268168197, -0.11384532553673182, 0.01106489918706111, 0.06533352251556589, -0.09519740643221165, 0.046594421518324165, 0.06303389106402259, 0.0025973681504649813, 0.08155044188702708, -0.028155849314943134, 0.015299261929497819, 0.030186278650491914, 0.04111980388912031, -0.1299757555324771, -0.18685445860721642, -0.17110404621856956, 0.010892133434345464, 0.0494004804226152, -0.04819955508707258, 0.055440580198750124, 0.020016818243515002, 0.012870511250911012, 0.06382937780140825, -0.04241901839294356, -0.0335860034967012, 0.0674543526253838, -0.003575443402215912, -0.19621383476543655, -0.0642238143641411, -0.08388411720960098, -0.016900860254433624, 0.021778692432608337, -0.05825495844752813, 0.04030653636739001, 0.009614285550371894, -0.0432310694560846, 0.024307755518795424, 0.016599597801708662, -0.014896046236488047, 0.10203582791025045, -0.10251885386459407, -0.016061025139491557, -0.1181279332655304, 0.024374631886056528, 0.02849144095517983, 0.04415069857654894, 0.01420583613332955, -0.03349859605704863, -0.056122530118760894, 0.016807900415439985, 0.061620148079144337, 0.06689359612237283, 0.08212318990197875, -0.03828583436561275, 0.059091624170770574, -0.02118794671997415, 0.02130319576363386, 0.019886610145462346, -0.04098450823340197, 0.049828503078523365, -0.09786755959374739, 0.04162629249760536, 0.04328125846530253, -0.06678635651865131, -0.004552171864698614, 0.010292006646256846, 0.03703370789701875, 0.08694533862479852, 0.011327058560806763, -0.055215830019075374, 0.010216988062407917, -0.020330447175039044, -0.027357309105454686, 0.01783553327194665, -0.07735525089917397, -0.094596144666599, -0.046476036958385473, -0.020540989740859206, -0.10291749224523057, 0.10260347702470635, 0.05469782667754649, 0.038454786646677876, 0.03113432808905291, 0.05811227920865109, -0.06169613265810516, -0.020520614215156895, -0.059924985707753814, 0.03780373847078165, -0.04451722078002558, 0.08027565313001171, -0.08806777433575635, -0.054802981590410284, -0.11071379229741972, -0.0635533824754481, 0.0009933225163053548, -0.030487029176429703, 0.03186658746535229, 0.0035879457740807695, -0.020649621579427818, 0.016348457751660415, 0.011919262200561654, 0.017534925819007417, -0.13282372178187113, 0.03507809539248256, -0.05533380020055867, 0.02880065531994087, -0.1324107520508613, -0.010313767699924838, -0.017615921131228156, 0.033467261753947486, 0.11938785494613025, 0.007447329457313295, -0.03195300456785802, 0.08174997589311418, 0.10623654325380048, -0.12524059380254848, 0.007185385832319163, -0.0018189125324301967, 0.04671301623089893, 0.0036943040878628674, -0.03400851331938129, 0.001983720893998464, -0.04114751181875336, 0.029055737237818912, 0.06699996460697089, -0.07963196850128189, -0.07096291305787455, -0.03604106554372721, 0.007992489641639944, 0.03971546859324655, 0.021599739313693602, -0.13666287061957486, -0.022509243222310387, -0.08377503109563816, -0.09662243092884176, 0.07142499561861052, 0.09916719078819473, -0.12531567859835457, -0.05360605109370562, -0.013727341600585499, 0.06375396410539001, -0.013461832683029796, 0.03944726393856236, 0.04223542302673381, 0.006531279028617783, -0.03498770625886144, -0.10100269824705789, 0.09134196400581003, -0.012009038488882233, 0.057174402225700124, 0.10838811309515355, 0.0030971034219332617, -0.012374836334717768, 0.04238284693179799, -0.054407083837727015, -0.033792438246177656, 0.046583292463541974, 0.04194018583648907, -0.03653082919161787, 0.03673933197212288, -0.07939912807769005, 0.04589246226502187, 0.03681871752857449, -0.011506166173094806, 0.02232562005802317, 0.05937107290943924, 0.02963870647933808, 0.026187115332015135, 0.08041049476249508, -0.008759799626538334, 0.02151477967605941, -0.0013233684610065063, 0.02424212887640628, 0.1325913707726725, -0.016464514311012375, 0.028036407856254598, -0.00723290483949123, 0.02956414277204771, 0.051740339965893035, 0.02744491204365471, 0.08626077783342212, 0.047208948368663226, 0.008438964696829896, -0.03936486227814479, -0.041313437167884895, -0.1661261192632485, 0.005459522604115393, -0.11698712831626727, 0.02289550935979076, -0.02901811675393915, -0.005065628987334312, 0.08721414501321655, 0.09388423663996365, -0.06688214148415075, -0.13339333260492556, 0.023633921301672783, 0.014202427931784545, 0.03411800278582092, 0.03044071504898652, 0.05089330500047105, 0.14423726053262378, -0.023466709080315104, -0.06349721671889345, -0.07939101136094193, 0.026208328864461904, 0.015913561091499214, 0.014961806269423204, -0.056428267078659534, -0.040795980626213015, -0.05531497327524736, -0.0673410649247523, 0.05488485944505453, 0.039195041948372304, -0.03031850759376195, -0.053556642043687055, -0.011182033560317028, 0.013415391783859474, 0.042750897529888726, -0.08301372917236949, 0.07027306358101362, -0.11013125440105688, -0.08480091901949548, -0.001172052374814235, -0.01884644012917701, -0.07329787268459648, 0.023414355260362542, 0.07354750477478661, 0.06798371077707413, -0.007059319376276977, -0.1337122766598958, 0.05651313852378262, 0.07086165444438604, -0.10596650689241231, 0.04171368660630453, 0.054630924063411114, -0.029366987868454292, -0.03420150696437745, -0.007576675202743533, -0.24919397928320378, -0.04378499510857777, 0.018792105012859075, -0.024554210472848764, -0.018067641381713333, -0.014730148080234423, 0.003062938991764017, -0.02617028352671973, 0.024845619852497974, 0.060790891371356244, -0.01213628406536544, 0.013266078005393152, -0.01782239933141799, -0.05034857400632524, -0.07087579227726555, -0.0363016373647477, -0.09641767358503792, 0.030408335630317886, 0.06601568409615097, -0.11330050765728537, -0.003083401362133465, -0.03889774889475788, -0.039960802673322235, 0.03229707860573401, -0.023741241436145748, 0.05922082283677603, 0.00016536658759031274, -0.02161325390290627, -0.10219409744472985, 0.09864475621636142, -0.0027937524056478556, -0.06431265075997575, -0.04196479812264714, 0.08425965091733095, 0.13806934598380985, -0.021888271885589686, 0.004991425632025569, -0.006564934271826727, -0.036442998941267304, -0.10230047374825649, 0.06424445663850827, -0.058540673696475025, 0.04134806275821213, -0.1131518522612502, 0.11123127701865382, 0.0073326461148161964, -0.017573991995227443, -0.12703139713808456, 0.017831921555406218, 0.0705482435648023, 0.06817332433041728, -0.1194912912640171, -0.04743850060408307, -0.011706315391314169, 0.026828191839589954, -0.046591639270330776, -0.006136624391998508, -0.020356868628706275, -0.14389683673768894, 0.04854231531120571, -0.16131496290762734, -0.03315942482893836, 0.012985394090388288, -0.0318988998851375, -0.024030035605684258, 0.01187940620897834, 0.012779109571633834, 0.0011247480462573192, -0.01209654262620616, -0.029166728582274683, -0.019921729049202617, -0.0038376140810294527, -0.36915943810857227, -0.022658844725093698, 0.05435307017341965, -0.03354221493781184, -0.07218026042287817, 0.05886796203397457, -0.06761619039831976, -0.0018456558865745782, -0.004222011919916263, 0.008530977480937094, 0.028029906965266922, 0.055150422790551115, 0.0006355251032814141, 0.04743712129239637, -0.03276018251268735, 0.01192314852934061, 0.11068790453352331, 0.05881548961752691, 0.07180837776260539, -0.06945203396137824, -0.06851307887537383, -0.16566924269777983, -0.09251109300121467, 0.003637974254351201, 0.06011095478123725, -0.008675216622920527, 0.003561275121408838, 0.06438685020423482, -0.015606516557753141, 0.017535526696568483, 0.007404075848663259, -0.047506677213587443, 0.03326074385359621, -0.028322293101458965, 0.03830105972619657, -0.03065402754383459, -0.001692783001946969, 0.0038268531802802055, 0.03920638943421939, -0.03428229228515455, 0.057442104949651546, 0.08123623940003022, 0.0551976412399079, -0.007730195431332844, -0.016879882923426286, 0.0059218051473369625, -0.023117971297995622, -0.018300986717344203, 0.027514089589410692, -0.050164707631898654, 0.058326479091634555, 0.0006304555850226304, 0.025676917244740603, 0.054456126931962126, 0.007285977246754031, -0.032356830128801535, 0.026356390631792938, 0.08370130216652077, -0.056767464149395916, 0.032310704805145814, -0.059034281733005255, 0.027982369534096205, -0.0308067678348933, -0.0065003173314574355, 0.031184645280584577, 0.03581223090883119, -0.09861441011899677, -0.02619992723060817, -0.06360515705403187, -0.029015148304981236, 0.015406687022024029, -0.008220664673295623, -0.02751422244358176, 0.057812806185400585, -0.05293306761545193, 0.05225898008011337, 0.0007673786869662163, 0.05728311580271662, -0.015607673112519739, -0.04613690319809678, 0.052943086546407336, -0.05401340052497228, -0.10387484110848072, -0.10555538584240017, -0.026385329639534234, -0.049721146357913755, -0.09318801995832249, 0.021532176831667225, -0.0364997158006358, 0.02293892196740272, 0.025155376596449425, 0.030878948561551423, -0.08381312940426155], [0.06732925611630133, 0.006151776357401103, 0.11361379138791536, -0.006501197952017143, -0.024472850004041865, 0.06555182871269316, 0.03643098402446473, -0.02370782514075893, 0.01998641292785066, -0.037938172578531326, 0.05975416537091036, -0.038968488159628216, -0.06607192074475879, -0.07555168344144138, 0.0016527295307337693, -0.04000595911201159, 0.009245795888622612, 0.040520338269220746, 0.042041818191380406, 0.03647920889564225, 0.0819706453665488, -0.0014931051653561006, 0.017957028221490503, -0.05295267149540562, -0.05636106139062899, -0.02572692234818181, 0.03453964024666627, -0.020056834112367732, 0.009050883404688464, 0.039335459164878045, -0.036364413208969174, 0.07674638998603237, 0.09120960231030004, 0.029747041354727752, 0.027372073435449406, 0.01798497356714282, -0.027182650541398356, 0.004503995152936474, 0.0032138756629827995, 0.04576962202640746, -0.015771414898074303, -0.03924006547966172, -0.1578565468793456, -0.06748192423032431, 0.0681094742587713, 0.019869608369805298, -0.05564282913121839, 0.028591566726426362, 0.062150463522050885, 0.053151704696576166, -0.0030969362648722723, 0.15004996459923153, 0.022556596075609107, -0.12306985238633199, 0.02097302593068362, -0.03484717987609407, -0.00662682837014048, -0.07355662590947312, -0.01197889778821856, -0.02719705632565715, 0.0006188997027759283, 0.018574995547530605, 0.043601545291104694, -0.026523951259102826, -0.0196775687649418, -0.04100778683162712, 0.04146485075708158, -0.058541138576451233, 0.0458696711396975, 0.06724016223361534, 0.019700446404438975, 0.10731992396423026, -0.034141646806860465, -0.04814151299685631, 0.021875099321461186, -0.11663139179517823, -0.11707921704506552, 0.01672660088134156, 0.041912817636532165, 0.013667022067090126, 0.02759726082312803, 0.5861065999306341, 0.04969361430612929, 0.0008295061815143399, -0.03859681741912136, -0.16530931179541522, -0.005195879980967497, 0.0031414256849190162, 0.10918735633854208, -0.04834098935879106, -0.019833063818011996, 0.01790389340989085, 0.06234467334351469, 0.09403724482355458, -0.05541373471822878, 0.07773826909874602, 0.04579590044715658, 0.07878417059060215, -0.08242882499855302, 0.02391165973836408, 0.07821455920185733, -0.06797022778931962, 0.06022298145004856, 0.06434846450439792, 0.02281075596711693, 0.09455508131319178, 0.001686550999493501, 0.03191190986191849, 0.05140321885871507, 0.06413357130465178, -0.09803417451557543, -0.15328209768637785, -0.13835009870148426, 0.028851471291974334, 0.06729869519846457, -0.019790483548994868, 0.06789240003769266, 0.036629052821699995, 0.03600542448521423, 0.07681237811624479, -0.01666682773069219, -0.008893904053482907, 0.0815573465525798, 0.01930833985839656, -0.16037056313040318, -0.039459975520292644, -0.047229038015995504, 0.0021440590460626153, 0.034589056504027674, -0.02927320556395599, 0.05930201394807544, 0.03530711759793445, -0.017932425038516303, 0.04818010615390426, 0.05046427672415376, 0.008228534749989573, 0.09881523135636051, -0.0678501190970851, 0.015001223622075472, -0.08559390789294817, 0.05272210947640034, 0.052521911985160916, 0.05960610557392889, 0.03834144008510615, -0.009155501571764191, -0.01684485121746871, 0.04542960273771224, 0.08296166211977593, 0.09032171976509352, 0.08658162421762002, -0.012866654340960086, 0.061120272560174826, 0.004616201395642565, 0.046917082351938984, 0.05358192287850601, -0.016559606562148287, 0.06957545614401645, -0.05956062885760928, 0.06576539043093883, 0.0635414208532887, -0.038119793521753584, 0.018564564843515794, 0.036502830495483474, 0.05389047905935649, 0.08912080746863987, 0.03296487695251995, -0.023878219130850663, 0.032062120527496525, 0.0026193154585170205, -0.0036147059886129673, 0.04632143208511727, -0.053767907110238274, -0.06082742149475373, -0.018836634471183913, 0.012640689584144826, -0.07204215819035474, 0.10809189158051255, 0.07306255122547142, 0.05570194626977625, 0.04900778078844383, 0.07483649664071813, -0.023470219297266857, 0.006038363753921876, -0.03063502208579705, 0.05857338639126284, -0.012194409902845987, 0.10255935418600892, -0.05443269655248446, -0.027238286399353644, -0.07851214248537498, -0.03276796724473047, 0.031496754342253956, -0.0031793924409250444, 0.06717599444255097, 0.02471219737487451, 0.004978030896765797, 0.03520710559453793, 0.03482301084192999, 0.04217376981626415, -0.09760905321436568, 0.05356467632703719, -0.031688027339267226, 0.049327056804353356, -0.11510941346234087, 0.013895725391787166, 0.006869252802317174, 0.052220854276095734, 0.13763845838258468, 0.03500453992855386, -0.003926955976127038, 0.08938494865249902, 0.1185248054075449, -0.09080493196272436, 0.03426538673766285, 0.022173676673523792, 0.0714601022834547, 0.022821503520325883, -0.009738065226547243, 0.02583832582782638, -0.016093855248606844, 0.05366041549256471, 0.08593908668066019, -0.0491677625689558, -0.04679656389397156, -0.010994702535282327, 0.03319922087160339, 0.06571766947316002, 0.04466829914087547, -0.10150633531990245, -0.001389953597022607, -0.06401967215145331, -0.0644253951582112, 0.07252142795621447, 0.10821280960672199, -0.09664799171526926, -0.029951926783527552, 0.018950542595647938, 0.06941717142788073, 0.014784339941924083, 0.06253560361384322, 0.06865316457933454, 0.02868846249697921, -0.00698054060976783, -0.06723514718092166, 0.11497203597715738, 0.007856086240849162, 0.0701924086904271, 0.1312058076043662, 0.027745156274050695, 0.013256249371692484, 0.06049317436057208, -0.04461659703380526, -0.007348185316193367, 0.06657700321681491, 0.06628391630788637, -0.014282902392259364, 0.05628766478207061, -0.05237999429548534, 0.06522010253653826, 0.05850710567373661, 0.020658213969538226, 0.04207375229931915, 0.0579959499359392, 0.05422220699957736, 0.04746640017984236, 0.09344897118042568, 0.015090013314594723, 0.031576993346599, 0.022815586889396347, 0.05631837272116059, 0.1535340126296088, 0.010458181397374113, 0.05214349964197544, 0.016018203848916758, 0.04628952213483347, 0.06643582855043292, 0.043224065102043026, 0.10189541372919264, 0.06630205835737078, 0.032408282612125756, -0.013677773555912431, -0.018289986357699316, -0.14444934715685823, 0.031097134215839126, -0.08936940288915993, 0.04757809138441074, -3.321985147651925e-05, 0.019264159280710784, 0.09859600915141406, 0.10029846263921317, -0.03462510161958593, -0.10124520921457354, 0.0410520707883342, 0.03599808995069767, 0.04817570987942972, 0.05480219194368797, 0.06225349926346893, 0.16617682473026918, -0.0015673126036076781, -0.03545718443656748, -0.04913607219663798, 0.05251729233221372, 0.037289317141862344, 0.027686439739946524, -0.03149209034315509, -0.013893742009627006, -0.025880028010016917, -0.03898397169204808, 0.06702902665384514, 0.06344182254592949, -0.005125435659717734, -0.027723700632826986, 0.01031205524563419, 0.038268365956031745, 0.05970246725170483, -0.05856858337520047, 0.08497335013288869, -0.07995583776650816, -0.048542410485475876, 0.024849367401421303, 0.0035074926758229307, -0.04309615348409726, 0.04506115570915687, 0.09105381554797186, 0.08590868734153839, 0.01236649319656951, -0.10126364247644028, 0.06575217773804183, 0.08902598519889111, -0.06395419319302104, 0.05514763204031043, 0.08309373120411051, -0.0008079026120701878, -0.006167912295647504, 0.015791440244708313, -0.13332544297882615, -0.011840523341266375, 0.058397154789387534, -0.0011969121913313243, 0.0028499693062421787, 0.01183462044913132, 0.021871919735961427, 0.00023727598388994126, 0.03651721120127103, 0.07826889528185908, 0.008545048402645557, 0.04387097861837385, 0.011177962150081247, -0.019959318680142713, -0.04253448048168445, -0.009890153329028076, -0.06840850998012397, 0.04461753967029211, 0.08866646059657217, -0.08112167555402401, 0.022061991956251588, -0.01652243377501408, -0.014423035055729625, 0.11555484057756218, 0.00495806248723691, 0.07581290948417602, 0.024093870873043054, -0.0005225038018059807, -0.07537664520535832, 0.10887336831586275, 0.04056243983018734, -0.03603577407840494, -0.01448321287381199, 0.10172714663500691, 0.13893276665797144, 0.0023595388807417074, 0.029534098541883824, 0.015427128972209833, -0.011874691120040583, -0.07409551653273416, 0.07277298305686611, -0.029474674649962486, 0.04310971916806402, -0.08112456452711199, 0.12766364260629776, 0.03280884399449601, 0.006527956280091393, -0.09460458766648987, 0.04133252628207053, 0.08877001997587287, 0.08639771065503285, -0.08566717602492147, -0.018514075650655305, 0.012720362532522553, 0.05491248867583701, -0.016355793111092413, 0.018558742889303637, -0.004282704559417232, -0.10697052866065149, 0.05997109303201389, -0.12815816725264045, -0.007070965042822751, 0.03511395384555147, -0.006254335004395865, 0.014416117145830342, 0.03801226419347302, 0.03263494632290395, 0.022792816353072825, 0.010984530349458897, -0.0069977544879860085, 0.0015714222812115127, 0.01864674946977644, -0.5248061039161706, -0.0006030467807107315, 0.06866610595111877, -0.006621983822313834, -0.04648557347092623, 0.07457561155102906, -0.0369940013514375, 0.02409158923319312, 0.020545036638852283, 0.02610538877933234, 0.0481618857316472, 0.06731597523998242, 0.02549379448402787, 0.06196657194445135, -0.00516110800862955, 0.035960017081940694, 0.12421878229034986, 0.07739865528946568, 0.0831247942151845, -0.0348547806640271, -0.04319340264565445, -0.13100307540996775, -0.059317237541273646, 0.03141471321903629, 0.07722936147087649, 0.019336465282406526, 0.01910937072092447, 0.08291707382765465, 0.0052638228684298025, 0.04150179364523404, 0.03290943446558388, -0.016416105270957916, 0.05800144350264237, -0.0018390506359985213, 0.05652474860674924, 0.004939751508104231, 0.01812268162960397, 0.026356175210500443, 0.049190650738104386, -0.021241566686548044, 0.0752774247675884, 0.09927249251581764, 0.0774401142716441, 0.016200960053697113, 0.004458413857785642, 0.017026535095212358, 0.0042342686338177945, 0.008432634147354654, 0.054956459421878726, -0.016985571554231516, 0.0796482390827405, 0.021296270565260695, 0.04257386653627112, 0.06907878353385082, 0.03088794088389075, 2.4147119994460844e-05, 0.04850776216605985, 0.10374230203425533, -0.027508266257660157, 0.05453481989208781, -0.0322079940621834, 0.040404059436040515, -0.007013875173866012, 0.014069554822527107, 0.04582017603258278, 0.03603684510668739, -0.06367635734751376, 0.0021048988641813073, -0.0368598382348209, -0.00218965153331229, 0.03261808630490808, 0.010528816586601729, -0.004170041575897367, 0.06981187240323593, -0.024940787154132307, 0.06582924185475268, 0.022778257959799555, 0.07734905858490454, 0.006763467636526867, -0.016567879424187193, 0.06948402969878079, -0.025906536816547733, -0.07258291734589334, -0.07166849155625579, -0.005558106337595879, -0.020274364777197157, -0.061531905450225154, 0.03788312103780178, -0.014934650746444102, 0.046601847088310236, 0.04504326728222645, 0.0527541401809666, -0.05344065530811855], [0.04054967455470025, -0.0020552019932778996, -0.05174564770168621, -0.0368750256464749, -0.026663350450863547, -0.01474990937898518, 0.037577128550229016, -0.09035022144519683, -0.012960259993090192, 0.03577142627971966, -0.030126475528113504, -0.04841312231528626, -0.11519282977768644, -0.0744905004942013, 0.01317696509872676, -0.04162484226663154, -0.10868878488337143, 0.01846428019916179, 0.10739639316065491, 0.019357692742710216, 0.016324002246203017, -0.07136791555236816, 0.02977336652759916, -0.09799409514101402, 0.03089567209939174, 0.019054690217736026, 0.06362168022519006, -0.059896347909654285, 0.05370562055626409, -0.012786061393889147, -0.0729885550924476, 0.05668380056900782, 0.01658108899080506, 0.009468840294778243, -0.031009973541151686, 0.029491236906409084, -0.06155678627963289, 0.003073050758692445, -0.045252994737697914, 0.007267576976871256, -0.02072161700976894, -0.04598075739150476, -0.04652593339664745, -0.05476763065672848, 0.08440968897203431, -0.010728302433105541, 0.004173866883543933, 0.05930070677162217, -0.13842663100883235, -0.043627434923072625, -0.173486809909765, -0.022971631361605887, 0.04106118576557157, -0.09935818755045887, 0.012030308975078646, -0.01963595789214057, -0.0680424906719749, -0.07381658181280928, -0.04086816021135473, -0.055099391936050963, -0.022037179331558143, -0.008752305905619102, 0.060165333863570813, 0.05582891636713071, -0.038865646022243024, -0.05974127622873781, 0.049781273786373044, 0.11161942873043885, -0.05616666846244272, -0.10478285895012117, -0.008039001377459207, -0.024807768932356162, -0.09081561755066386, -0.03624344903843899, 0.00795840568525111, -0.06171026206931579, -0.04844376332186571, -0.01603393246211887, -0.08753944621745922, -0.007208070473512526, -0.05477923377145707, -0.3872393563773683, 0.036666455367090144, -0.032239088173108776, -0.029724727809686036, 0.040575633832185584, -0.009763081728519732, -0.04521448738283289, -0.011680576533769648, -0.1201254915964677, -0.023770769784380655, -0.15548172318854794, 0.019831206046224265, 0.024978183815261956, -0.015211295097607592, -0.009015790875105236, 0.003148098759391278, 0.011854623062091197, -0.06758210363575565, 0.08221978731073837, 0.04374758353036835, 